tree
version=v4
num_class=1
num_tree_per_iteration=1
label_index=0
max_feature_idx=29
objective=regression
feature_names=rainfall_mm river_gauge_m gauge_exceed danger_gauge_m population_density road_accessibility_index distance_to_coast_km past_incident_30d rainfall_lag1 rainfall_lag3 rainfall_lag7 rainfall_lag14 gauge_lag1 gauge_lag3 gauge_lag7 gauge_lag14 rainfall_roll3 rainfall_roll7 rainfall_roll14 rainfall_roll30 demand_roll3 demand_roll7 demand_roll14 demand_roll30 gauge_trend_7 sin_doy cos_doy is_monsoon is_cyclone_season district_cat
feature_infos=[0:353.69999999999999] [0.5:11.84] [0:6.3399999999999999] [4.5:6] [488:854] [0.40000000000000002:0.75] [5:40] [0:30] [0:353.69999999999999] [0:353.69999999999999] [0:353.69999999999999] [0:353.69999999999999] [0.5:11.84] [0.5:11.84] [0.5:11.84] [0.5:11.84] [0.19999999999998136:430.5] [2.6000000000000294:472.90000000000003] [6.7999999999999998:625.70000000000005] [21.600000000000001:931.89999999999998] [53:3854.3333333333335] [56:3244.1428571428573] [59.285714285714285:2479.1428571428573] [60.166666666666664:1795.8] [-4.7699999999999996:6.8399999999999999] [-0.9999994220246925:0.99998555065071859] [-0.99997919295908233:0.9999907524084426] [0:1] [0:1] -1:0:1:2:3:4:5:6
tree_sizes=2748 2768 2778 2779 2778 2779 2770 2773 2780 2771 2766 2776 2766 2764 2765 2777 2758 2753 2768 2751 2765 2760 2763 2763 2754 2780 2771 2771 2763 2760 2759 2749 2755 2758 2750 2753 2747 2755 2741 2741 2742 2738 2733 2759 2746 2747 2724 2742 2735 2730 2720 2738 2729 2738 2732 2707 2688 2717 2704 2699 2725 2728 2722 2688 2703 2719 2698 2714 2731 2673 2687 2697 2691 2678 2709 2686 2696 2684 2675 2644 2670 2701 2668 2667 2686 2658 2665 2677 2709 2675 2679 2688 2690 2683 2688 2668 2668 2686 2666 2676 2692 2648 2681 2667 2688 2646 2673 2673 2707 2695 2681 2701 2674 2679 2679 2708 2678 2690 2683 2675 2673 2683 2699 2685 2700 2681 2708 2703 2703 2718 2694 2716 2699 2689 2707 2693 2654 2674 2692 2681 2704 2685 2715 2696 2712 2710 2680 2671 2697 2702 2678 2696 2687 2677 2700 2705 2711 2659 2697 2715 2701 2700 2710 2682 2679 2694 2693 2718 2671 2680 2697 2704 2713 2703 2722 2698 2689 2715 2705 2675 2703 2687 2701 2659 2690 2695 2685 2686 2690 2698 2673 2696 2685 2686 2704 2670 2684 2677 2668 2686 2674 2669 2683 2700 2671 2719 2686 2689 2703 2727 2712 2662 2684 2677 2701 2669 2698 2692 2661 2677 2706 2703 2686 2695 2711 2680 2683 2664 2723 2691 2687 2677 2672 2722 2684 2683 2670 2685 2697 2689 2699 2674 2692 2689 2697 2698 2693 2712 2686 2689 2681 2681 2660 2639 2686 2684 2697 2679 2656 2682 2691 2681 2690 2703 2684 2659 2696 2706 2704 2685 2694 2705 2715 2654 2684 2667 2683 2718 2705 2717 2687 2687 2692 2704 2658 2680 2661 2713 2695 2693 2657 2713 2701 2723 2690 2693 2693 2701 2711 2705 2684 2670 2711 2688 2713 2692 2705 2706 2700 2709 2707 2687 2691 2684 2703 2688 2727 2718 2690 2699 2668 2712 2710 2719 2742 2696 2704 2669 2707 2699 2697 2726 2737 2719 2727 2711 2725 2698 2682 2694 2724 2702 2715 2699 2721 2722 2694 2687 2686 2690 2717 2701 2736 2706 2705 2669 2707 2685 2708 2695 2694 2716 2679 2714 2714 2690 2719 2698 2746 2682 2710 2677 2737 2707 2671 2725 2675 2708 2693 2711 2711 2706 2692 2709 2704 2673 2694 2697 2708 2676 2768 2692 2692 2700 2705 2725 2724 2728 2687 2684

Tree=0
num_leaves=31
num_cat=0
split_feature=22 22 22 22 22 22 22 22 22 22 22 22 22 22 2 22 18 20 22 20 22 21 2 22 22 20 22 21 22 1
split_gain=6.41914e+10 1.1905e+10 6.98292e+09 2.19833e+09 1.8681e+09 7.05302e+08 5.20912e+08 4.00147e+08 3.15992e+08 3.0751e+08 1.50787e+08 1.41982e+08 8.29207e+07 6.73696e+07 6.38634e+07 5.66486e+07 3.64395e+07 3.56025e+07 2.83953e+07 2.58172e+07 2.2553e+07 2.06867e+07 2.05371e+07 1.70483e+07 1.64498e+07 1.57727e+07 1.39717e+07 1.37239e+07 1.19144e+07 1.02041e+07
threshold=503.21428571428578 1194.6428571428576 222.96428571428575 779.53571428571433 1876.8214285714289 113.10714285714288 361.39285714285717 1471.714285714286 1014.5000000000001 655.64285714285722 84.392857142857153 159.25000000000003 426.28571428571439 888.21428571428589 0.59499999999999986 287.6785714285715 342.65000000000003 463.00000000000006 131.60714285714289 720.33333333333337 97.107142857142875 688.14285714285722 0.48500000000000038 582.78571428571433 70.750000000000014 295.83333333333343 719.67857142857144 437.35714285714295 187.10714285714289 4.1550000000000011
decision_type=2 2 2 2 2 2 2 2 2 2 2 2 2 2 2 2 2 2 2 2 2 2 2 2 2 2 2 2 2 2
left_child=2 3 5 9 7 10 15 14 13 17 24 18 -8 22 -3 29 -10 -2 -7 -15 -12 26 -5 -19 -1 -17 -11 -14 -13 -4
right_child=1 4 6 8 -6 11 12 -9 16 21 20 28 27 19 -16 25 -18 23 -20 -21 -22 -23 -24 -25 -26 -27 -28 -29 -30 -31
leaf_value=2278.4107472562137 2602.6800434596521 3098.3492329127771 2401.5725623990461 2792.8271078535913 3715.0388888622965 2319.5658044405213 2507.606218105042 3386.286823335231 2953.5617398882237 2698.0861987626822 2298.1605064226151 2355.162753613839 2547.3551684596518 2861.8331684596519 3206.1238820736567 2447.983168459652 3037.8149866414701 2634.397014613498 2333.3589036330995 2930.9776129040965 2306.0979263130553 2763.7545970310807 2856.0784065548901 2676.212655639139 2287.7938625106435 2482.6437453827289 2746.1063827453663 2578.7447069211903 2376.191204011302 2428.614249540733
leaf_weight=698 64 28 66 33 26 956 141 27 21 33 2160 169 75 27 27 89 33 65 612 27 1528 49 21 39 1412 52 28 65 112 74
leaf_count=698 64 28 66 33 26 956 141 27 21 33 2160 169 75 27 27 89 33 65 612 27 1528 49 21 39 1412 52 28 65 112 74
internal_value=2351.4 2875.35 2316.43 2759.89 3345.74 2303.93 2486.53 3228.64 2906.29 2674.57 2295.35 2330.81 2534.67 2856.92 3151.26 2438.4 3005.05 2632.02 2324.95 2896.41 2301.45 2739.56 2817.42 2650.08 2284.69 2460.77 2720.13 2561.93 2363.54 2415.87
internal_weight=8757 548 8209 440 108 7647 562 82 162 278 5798 1849 281 108 55 281 54 168 1568 54 3688 110 54 104 2110 141 61 140 281 140
internal_count=8757 548 8209 440 108 7647 562 82 162 278 5798 1849 281 108 55 281 54 168 1568 54 3688 110 54 104 2110 141 61 140 281 140
is_linear=0
shrinkage=1


Tree=1
num_leaves=31
num_cat=0
split_feature=22 22 22 22 22 22 22 22 22 22 22 22 22 22 22 22 18 20 22 20 22 21 2 22 21 22 22 21 22 1
split_gain=5.79327e+10 1.07443e+10 6.30209e+09 1.984e+09 1.68596e+09 6.36601e+08 4.70123e+08 3.61133e+08 2.85183e+08 2.77528e+08 1.3411e+08 1.30118e+08 7.48359e+07 6.08674e+07 6.08011e+07 5.11253e+07 3.28866e+07 3.21313e+07 2.69624e+07 2.33e+07 1.99085e+07 1.86697e+07 1.85347e+07 1.53861e+07 1.45198e+07 1.4361e+07 1.26095e+07 1.23858e+07 1.07802e+07 9.20921e+06
threshold=503.21428571428578 1194.6428571428576 222.96428571428575 779.53571428571433 1876.8214285714289 112.39285714285715 361.39285714285717 1471.714285714286 1014.5000000000001 655.64285714285722 83.321428571428598 159.25000000000003 426.28571428571439 1300.1785714285716 888.21428571428589 287.6785714285715 342.65000000000003 463.00000000000006 134.82142857142858 720.33333333333337 96.821428571428598 688.14285714285722 0.48500000000000038 582.78571428571433 316.07142857142861 69.178571428571431 719.67857142857144 437.35714285714295 193.92857142857147 4.1550000000000011
decision_type=2 2 2 2 2 2 2 2 2 2 2 2 2 2 2 2 2 2 2 2 2 2 2 2 2 2 2 2 2 2
left_child=2 3 5 9 7 10 15 13 14 17 25 18 -8 -3 22 29 -10 -2 -7 -16 -12 26 -5 -19 -17 -1 -11 -14 -13 -4
right_child=1 4 6 8 -6 11 12 -9 16 21 20 28 27 -15 19 24 -18 23 -20 -21 -22 -23 -24 -25 -26 -27 -28 -29 -30 -31
leaf_value=-69.611433625981007 238.71286716461182 708.20918753487729 47.660766694040014 419.3525819720644 1295.4538161057692 -29.701358649137333 148.39273941364695 983.13934823495367 572.05049525669654 329.34870975378794 -50.716359430019196 5.13886832923151 186.15424218750002 813.42542498553246 484.90834960937502 91.81605088127985 652.09104669744329 268.8439971454327 -15.659460787917631 550.59556749131946 -43.262382903254888 391.73370336415815 479.4413318452381 308.56884264823719 125.20895158356312 -60.676381166102523 374.96789202008927 215.97430701622599 26.531511461167113 73.350368190456081
leaf_weight=659 64 28 66 33 26 1105 141 27 21 33 2161 197 75 27 27 90 33 65 495 27 1530 49 21 39 51 1416 28 65 84 74
leaf_count=659 64 28 66 33 26 1105 141 27 21 33 2161 197 75 27 27 90 33 65 495 27 1530 49 21 39 51 1416 28 65 84 74
internal_value=1.32912e-07 497.748 -33.2276 388.061 944.619 -45.1042 128.374 833.379 527.146 307.012 -53.3439 -19.8461 174.104 759.861 480.236 82.6428 620.964 266.587 -25.3571 517.752 -47.6265 368.751 442.72 283.741 103.894 -63.5141 350.289 199.999 11.5338 61.2396
internal_weight=8757 548 8209 440 108 7647 562 82 162 278 5766 1881 281 55 108 281 54 168 1600 54 3691 110 54 104 141 2075 61 140 281 140
internal_count=8757 548 8209 440 108 7647 562 82 162 278 5766 1881 281 55 108 281 54 168 1600 54 3691 110 54 104 141 2075 61 140 281 140
is_linear=0
shrinkage=0.05


Tree=2
num_leaves=31
num_cat=0
split_feature=22 22 22 22 22 22 22 22 22 22 22 22 22 2 22 22 18 20 22 20 22 21 2 22 22 21 22 21 21 22
split_gain=5.22843e+10 9.69672e+09 5.68763e+09 1.79056e+09 1.52158e+09 5.75195e+08 4.25607e+08 3.25922e+08 2.57378e+08 2.50469e+08 1.26801e+08 1.11904e+08 6.2793e+07 5.74617e+07 5.4873e+07 4.99406e+07 2.96802e+07 2.89985e+07 2.15265e+07 2.10282e+07 1.96163e+07 1.68494e+07 1.67276e+07 1.43547e+07 1.3886e+07 1.38538e+07 1.13801e+07 1.11782e+07 1.03728e+07 9.94431e+06
threshold=503.21428571428578 1194.6428571428576 222.96428571428575 779.53571428571433 1876.8214285714289 114.60714285714288 371.25000000000006 1471.714285714286 1014.5000000000001 655.64285714285722 86.178571428571431 159.25000000000003 300.39285714285717 0.43499999999999966 888.21428571428589 426.28571428571439 342.65000000000003 463.00000000000006 135.75000000000003 720.33333333333337 99.464285714285737 688.14285714285722 0.48500000000000038 70.750000000000014 582.78571428571433 316.07142857142861 719.67857142857144 437.35714285714295 223.35714285714286 181.60714285714289
decision_type=2 2 2 2 2 2 2 2 2 2 2 2 2 2 2 2 2 2 2 2 2 2 2 2 2 2 2 2 2 2
left_child=2 3 5 9 7 10 12 13 14 17 23 18 28 -3 22 -8 -10 -2 -7 -16 -12 26 -5 -1 -19 -14 -11 -17 -4 -13
right_child=1 4 6 8 -6 11 15 -9 16 21 20 29 25 -15 19 27 -18 24 -20 -21 -22 -23 -24 -25 -26 -27 -28 -29 -30 -31
leaf_value=-65.887348863661813 226.7772246360779 663.78424072265625 47.051969207542534 398.38495501893942 1230.6811598557692 -27.414031735979592 145.31509307591261 933.98241464120372 543.44795619419654 312.88127737334281 -47.318042065761084 1.5845642794954016 92.483704569498698 766.83565240675409 460.66293583622684 176.84652522786459 619.48650568181824 255.40178579477165 -14.472606240651942 523.06578233506946 -39.552733629042713 372.14701450892858 455.46926153273807 -57.190873942716252 293.14040183042869 123.89329001686791 356.21950334821429 205.1755838716947 72.305934959951074 20.396644483975003
leaf_weight=698 64 24 69 33 26 1040 113 27 21 33 2468 141 75 31 27 75 33 65 465 27 1213 49 21 1482 39 66 28 65 99 140
leaf_count=698 64 24 69 33 26 1040 113 27 21 33 2468 141 75 31 27 75 33 65 465 27 1213 49 21 1482 39 66 28 65 99 140
internal_value=4.19526e-08 472.86 -31.5663 368.658 897.389 -42.849 121.955 791.71 500.788 291.661 -50.4188 -18.0075 82.5829 721.868 456.224 170.042 589.916 253.258 -23.4155 491.864 -44.7591 350.313 420.584 -59.9753 269.554 107.186 332.774 189.999 61.9338 10.9571
internal_weight=8757 548 8209 440 108 7647 562 82 162 278 5861 1786 309 55 108 253 54 168 1505 54 3681 110 54 2180 104 141 61 140 168 281
internal_count=8757 548 8209 440 108 7647 562 82 162 278 5861 1786 309 55 108 253 54 168 1505 54 3681 110 54 2180 104 141 61 140 168 281
is_linear=0
shrinkage=0.05


Tree=3
num_leaves=31
num_cat=0
split_feature=22 22 22 22 22 22 22 22 22 22 22 22 22 18 22 21 22 21 22 21 22 22 22 13 22 22 20 22 17 1
split_gain=4.71866e+10 8.75129e+09 5.13309e+09 1.61598e+09 1.37323e+09 5.20503e+08 3.8554e+08 2.94145e+08 2.33483e+08 2.26048e+08 1.16387e+08 9.9265e+07 7.61285e+07 6.63722e+07 5.42011e+07 4.72984e+07 2.76454e+07 2.70445e+07 2.40948e+07 1.52066e+07 1.34121e+07 1.22067e+07 1.18657e+07 1.14937e+07 1.12776e+07 1.02705e+07 1.01242e+07 9.60203e+06 8.9884e+06 7.66058e+06
threshold=503.21428571428578 1194.6428571428576 222.96428571428575 779.53571428571433 1876.8214285714289 108.60714285714288 346.64285714285717 1471.714285714286 951.28571428571433 655.64285714285722 153.57142857142858 82.678571428571431 426.28571428571439 331.65000000000003 1300.1785714285716 1047.8571428571429 287.6785714285715 648.21428571428589 127.8214285714286 688.14285714285722 181.60714285714289 95.464285714285737 551.39285714285722 4.6750000000000007 69.178571428571431 719.67857142857144 444.83333333333343 391.53571428571439 144.35000000000008 4.1850000000000014
decision_type=2 2 2 2 2 2 2 2 2 2 2 2 2 2 2 2 2 2 2 2 2 2 2 2 2 2 2 2 2 2
left_child=2 3 5 9 7 11 16 14 15 17 18 24 27 -10 -3 23 29 22 -7 25 -12 -13 -2 -5 -1 -11 -14 -8 -18 -4
right_child=1 4 6 8 -6 10 12 -9 13 19 20 21 26 -15 -16 -17 28 -19 -20 -21 -22 -23 -24 -25 -26 -27 -28 -29 -30 -31
leaf_value=-62.836494661137266 214.84206201889938 637.03323277064737 42.904000399005952 363.29610130673365 1169.1470778245191 -29.609040199496789 122.27038811877765 887.2832935474537 492.16068173363095 297.23720999053029 -0.86437945220676182 -46.13527088693008 169.68355842141546 582.74406300080125 736.32073386863431 480.30551641555058 80.067772761884953 275.3419148763021 -17.708271531573171 353.53966388313142 19.376812097004482 -40.189319793599786 245.62670982623922 409.17717097355774 -54.886733524839059 338.40851702008928 197.21464488636366 147.44131930167214 112.40346932246767 66.317480552359811
leaf_weight=659 68 28 67 21 26 1002 113 27 42 33 197 2024 85 39 27 21 83 42 739 49 140 1505 58 39 1381 28 55 57 29 73
leaf_count=659 68 28 67 21 26 1002 113 27 42 33 197 2024 85 39 27 21 83 42 739 49 140 1505 58 39 1381 28 55 57 29 73
internal_value=-3.35234e-07 449.217 -29.9879 350.225 852.519 -40.7065 115.857 752.125 475.749 277.078 -19.3514 -48.6749 153.196 535.775 685.774 415.723 69.9249 240.595 -24.5575 332.797 7.54442 -43.5995 229.013 393.119 -57.4548 316.136 180.499 130.71 88.4404 55.1125
internal_weight=8757 548 8209 440 108 7647 562 82 162 278 2078 5569 310 81 55 81 252 168 1741 110 337 3529 126 60 2040 61 140 170 112 140
internal_count=8757 548 8209 440 108 7647 562 82 162 278 2078 5569 310 81 55 81 252 168 1741 110 337 3529 126 60 2040 61 140 170 112 140
is_linear=0
shrinkage=0.05


Tree=4
num_leaves=31
num_cat=0
split_feature=22 22 22 22 22 22 22 22 22 22 22 22 2 22 22 2 21 20 18 22 22 22 21 22 22 21 19 25 25 20
split_gain=4.25859e+10 7.89804e+09 4.63338e+09 1.46259e+09 1.23934e+09 5.02898e+08 3.01723e+08 2.83087e+08 2.65466e+08 1.43527e+08 1.09408e+08 1.0821e+08 5.21759e+07 4.03667e+07 3.85216e+07 3.08724e+07 2.53689e+07 2.48078e+07 2.38335e+07 1.94937e+07 1.80312e+07 1.71308e+07 1.21965e+07 1.21637e+07 1.19893e+07 1.15679e+07 1.08982e+07 9.52534e+06 7.44454e+06 6.9696e+06
threshold=503.21428571428578 1194.6428571428576 241.46428571428575 831.75000000000011 1876.8214285714289 116.75000000000001 371.25000000000006 655.64285714285722 1471.714285714286 1014.5000000000001 87.035714285714292 163.92857142857147 0.59499999999999986 426.28571428571439 300.39285714285717 1.0450000000000002 1047.8571428571429 463.00000000000006 342.65000000000003 101.8214285714286 138.32142857142858 719.67857142857144 206.21428571428575 71.892857142857153 582.78571428571433 316.07142857142861 614.65000000000009 -0.73866753694953124 -0.62588817255938378 583.83333333333337
decision_type=2 2 2 2 2 2 2 2 2 2 2 2 2 2 2 2 2 2 2 2 2 2 2 2 2 2 2 2 2 2
left_child=2 3 5 7 8 10 14 17 12 16 23 20 -3 -8 -4 21 26 28 -11 -12 -7 -9 -13 -1 -19 -16 -5 -15 -2 -23
right_child=1 4 6 9 -6 11 13 15 -10 18 19 22 -14 27 25 -17 -18 24 -20 -21 -22 29 -24 -25 -26 -27 -28 -29 -30 -31
leaf_value=-59.291117463904442 192.5755426580256 603.66378173828127 59.681061417375297 378.95835144042968 1110.6897517277646 -23.547060954776914 131.30097937119746 289.68161426890981 842.91913339120367 491.23618396577388 -42.120501895305658 7.608720499072958 701.07868381076389 153.70104208187183 83.271872558593756 374.44979060246396 468.33864182692309 230.48769230769233 559.37498224431818 -33.848043207852349 -11.052147372966946 316.99622237042684 30.979505986052676 -51.420378887058114 265.55441518930292 111.97336083614465 425.22630929129468 181.04462957696603 229.36619628906251 350.08895545372599
leaf_weight=734 44 28 140 20 26 1012 113 44 27 21 2809 203 27 49 75 26 26 65 33 954 404 41 77 1482 39 66 35 91 20 26
leaf_count=734 44 28 140 20 26 1012 113 44 27 21 2809 203 27 49 75 26 26 65 33 954 404 41 77 1482 39 66 35 91 20 26
internal_value=-1.19166e-07 426.756 -28.4885 332.714 809.893 -38.397 113.922 272.065 714.519 469.735 -45.2136 -14.366 651.486 153.531 78.2597 325.408 427.641 228.565 532.877 -40.0233 -19.9821 313.92 14.0357 -54.0274 243.638 96.7066 408.402 171.474 204.073 329.838
internal_weight=8757 548 8209 440 108 7675 534 305 82 135 5979 1696 55 253 281 137 81 168 54 3763 1416 111 280 2216 104 141 55 140 64 67
internal_count=8757 548 8209 440 108 7675 534 305 82 135 5979 1696 55 253 281 137 81 168 54 3763 1416 111 280 2216 104 141 55 140 64 67
is_linear=0
shrinkage=0.05


Tree=5
num_leaves=31
num_cat=0
split_feature=22 22 22 22 22 22 22 22 22 22 22 22 22 22 2 2 21 22 8 22 22 22 22 22 19 21 22 1 17 1
split_gain=3.84338e+10 7.12798e+09 4.18379e+09 1.31999e+09 1.1185e+09 4.24689e+08 3.14584e+08 2.55486e+08 2.39583e+08 1.29533e+08 9.4626e+07 8.11981e+07 6.16309e+07 4.86429e+07 2.79622e+07 2.34477e+07 2.28954e+07 2.23897e+07 2.21471e+07 1.99367e+07 1.24435e+07 1.12479e+07 1.11599e+07 1.02861e+07 9.83566e+06 9.10221e+06 8.52409e+06 8.18571e+06 7.57397e+06 6.70677e+06
threshold=503.21428571428578 1194.6428571428576 222.96428571428575 831.75000000000011 1876.8214285714289 108.60714285714288 346.64285714285717 655.64285714285722 1471.714285714286 1014.5000000000001 153.57142857142858 81.464285714285737 426.28571428571439 1300.1785714285716 0.58500000000000008 0.43499999999999966 1047.8571428571429 287.6785714285715 16.450000000000003 127.8214285714286 719.67857142857144 94.035714285714292 181.60714285714289 551.39285714285722 614.65000000000009 437.35714285714295 68.178571428571431 4.9850000000000012 144.35000000000008 4.5650000000000004
decision_type=2 2 2 2 2 2 2 2 2 2 2 2 2 2 2 2 2 2 2 2 2 2 2 2 2 2 2 2 2 2
left_child=2 3 5 7 8 11 17 15 13 16 19 26 27 -3 20 23 24 29 -11 -7 -9 -13 -12 -2 -5 -14 -1 -8 -19 -4
right_child=1 4 6 9 -6 10 12 14 -10 18 22 21 25 -15 -16 -17 -18 28 -20 -21 -22 -23 -24 -25 -26 -27 -28 -29 -30 -31
leaf_value=-56.942740728916277 192.40136200875949 572.73697422572548 40.028112030029298 360.01043273925779 1055.1552771935096 -26.74048584816223 110.71789436014291 273.97829040527347 800.77313729745379 474.21199182581023 -0.87019435542489065 -42.235388372345056 151.03189412434898 666.79593641493057 346.97319675021703 248.01950873480902 444.92170879657453 72.092410756306478 538.25347041377324 -15.915185523541275 309.86284639952618 -36.648316150766185 17.593506528053965 221.3974383437843 403.96500000000003 176.59538123497597 -49.868684486201417 134.40389197007664 101.77507176892512 62.0597901867282
leaf_weight=624 66 28 78 20 26 1002 117 40 27 27 197 1827 75 27 36 45 26 83 27 739 61 1777 140 57 35 65 1341 53 29 62
leaf_count=624 66 28 78 20 26 1002 117 40 27 27 197 1827 75 27 36 45 26 83 27 739 61 1777 140 57 35 65 1341 53 29 62
internal_value=-1.10123e-07 405.419 -27.0641 316.078 769.398 -36.7409 104.606 258.462 678.793 446.248 -17.4512 -43.9386 138.334 618.911 309.137 217.137 406.259 63.1153 506.233 -22.1455 295.651 -39.4806 6.80019 205.839 387.982 162.901 -52.1151 118.102 79.7781 49.785
internal_weight=8757 548 8209 440 108 7647 562 305 82 135 2078 5569 310 55 137 168 81 252 54 1741 101 3604 337 123 55 140 1965 170 112 140
internal_count=8757 548 8209 440 108 7647 562 305 82 135 2078 5569 310 55 137 168 81 252 54 1741 101 3604 337 123 55 140 1965 170 112 140
is_linear=0
shrinkage=0.05


Tree=6
num_leaves=31
num_cat=0
split_feature=22 22 22 22 22 22 22 21 22 22 22 22 22 22 21 21 2 14 22 20 25 22 22 22 21 22 20 20 22 21
split_gain=3.46918e+10 5.4546e+09 5.08979e+09 1.21054e+09 6.5433e+08 4.14694e+08 4.10663e+08 1.56813e+08 1.49526e+08 1.33044e+08 9.09203e+07 8.62463e+07 5.45442e+07 4.76234e+07 3.60248e+07 3.04625e+07 2.83297e+07 1.7668e+07 1.71404e+07 1.53337e+07 1.52968e+07 1.44778e+07 1.39574e+07 1.37087e+07 1.04725e+07 9.93607e+06 9.40272e+06 8.58121e+06 7.31652e+06 6.4243e+06
threshold=551.39285714285722 1300.1785714285716 241.46428571428575 888.21428571428589 1876.8214285714289 391.53571428571439 117.39285714285715 1361.4285714285718 719.67857142857144 1014.5000000000001 87.035714285714292 163.92857142857147 313.39285714285717 489.46428571428572 1047.8571428571429 648.21428571428589 1.0250000000000001 5.4050000000000011 102.3214285714286 720.33333333333337 -0.73866753694953124 140.32142857142858 655.64285714285722 831.75000000000011 206.21428571428575 72.750000000000014 343.50000000000006 463.00000000000006 655.64285714285722 223.35714285714286
decision_type=2 2 2 2 2 2 2 2 2 2 2 2 2 2 2 2 2 2 2 2 2 2 2 2 2 2 2 2 2 2
left_child=2 3 6 8 7 12 10 -3 15 19 25 21 29 20 -11 22 23 -16 -12 -5 -7 -8 -2 -10 -13 -1 -14 -15 -17 -4
right_child=1 4 5 9 -6 13 11 -9 16 14 18 24 26 27 17 28 -18 -19 -20 -21 -22 -23 -24 -25 -26 -27 -28 -29 -30 -31
leaf_value=-53.364292768998581 210.39069613752696 611.8905345775463 42.11607703414618 374.77791521990741 1002.3974684495192 124.48902525970902 -20.707590667000147 782.30010850694453 297.68694977262129 462.1108546401515 -37.92558635103434 6.7204936701382323 87.597951305613805 171.0451619466146 493.53804809570312 254.22626342773438 374.65983764648439 554.62497474407326 -30.074890683103337 428.0655716507523 155.09381573486328 -8.8430115569578973 252.39933105468751 343.98491559709828 28.376588580515477 -46.333039885503787 111.70824612290113 198.72951837713069 291.73657508263221 63.380789471487724
leaf_weight=770 58 27 51 27 26 69 1036 27 67 33 2885 203 102 57 20 26 20 29 916 27 100 342 30 21 77 1446 67 55 26 117
leaf_count=770 58 27 51 27 26 69 1036 27 67 33 2885 203 102 57 20 26 20 29 916 27 100 342 30 21 77 1446 67 55 26 117
internal_value=3.17558e-07 420.729 -23.5401 342.482 796.319 114.501 -34.6554 697.095 276.74 462.363 -40.7266 -12.6225 77.1006 159.355 502.494 242.641 320.944 529.692 -36.0337 401.422 142.598 -17.763 224.712 308.735 12.6759 -48.7762 97.1565 184.64 272.981 56.9254
internal_weight=8757 464 8293 384 80 618 7675 54 248 136 6017 1658 337 281 82 140 108 49 3801 54 169 1378 88 88 280 2216 169 112 52 168
internal_count=8757 464 8293 384 80 618 7675 54 248 136 6017 1658 337 281 82 140 108 49 3801 54 169 1378 88 88 280 2216 169 112 52 168
is_linear=0
shrinkage=0.05


Tree=7
num_leaves=31
num_cat=0
split_feature=22 22 22 22 22 22 22 21 22 22 22 22 22 22 21 1 21 2 22 25 22 22 22 22 22 22 22 20 1 22
split_gain=3.13094e+10 4.92278e+09 4.59354e+09 1.09251e+09 5.90533e+08 3.74262e+08 3.708e+08 1.41524e+08 1.34947e+08 1.2325e+08 8.20155e+07 7.83447e+07 4.93078e+07 4.29802e+07 3.80778e+07 3.4959e+07 2.74924e+07 2.55676e+07 1.4024e+07 1.38054e+07 1.32068e+07 1.26649e+07 1.25965e+07 1.23721e+07 1.16936e+07 8.4546e+06 8.41827e+06 7.74454e+06 6.90675e+06 6.60316e+06
threshold=551.39285714285722 1300.1785714285716 241.46428571428575 888.21428571428589 1876.8214285714289 391.53571428571439 115.60714285714288 1361.4285714285718 719.67857142857144 1113.6785714285718 159.25000000000003 85.250000000000014 329.25000000000006 489.46428571428572 1047.8571428571429 6.2150000000000007 648.21428571428589 1.0250000000000001 98.750000000000014 -0.73866753694953124 951.28571428571433 134.82142857142858 655.64285714285722 831.75000000000011 193.92857142857147 264.9285714285715 68.178571428571431 463.00000000000006 4.9850000000000012 655.64285714285722
decision_type=2 2 2 2 2 2 2 2 2 2 2 2 2 2 2 2 2 2 2 2 2 2 2 2 2 2 2 2 2 2
left_child=2 3 6 8 7 12 11 -3 16 15 21 26 25 19 -11 20 22 23 -13 -7 -5 -8 -2 -10 -12 -4 -1 -15 -14 -18
right_child=1 4 5 9 -6 13 10 -9 17 14 24 18 28 27 -16 -17 29 -19 -20 -21 -22 -23 -24 -25 -26 -27 -28 -29 -30 -31
leaf_value=-51.427390387119402 199.87116330903154 581.29600332754626 40.604535893031532 348.3510941938921 952.27762920673092 118.26457422228827 -21.110462307278166 743.18509837962972 282.80260465251871 447.93594333814536 3.3102380995217922 -36.913099631105752 88.952091377856689 162.49290450246713 532.27878417968748 450.64420166015628 241.51495173527647 355.92684204101562 -30.60583427255062 147.33912609863282 397.78910784040181 -11.248521188172427 239.77936157226566 326.78567243303576 23.544249064209207 63.591754461015981 -44.530742362860707 188.79304221413352 113.69120311247997 277.14975492037263
leaf_weight=624 58 27 56 22 26 69 951 27 67 23 197 2373 102 57 32 24 26 20 1402 100 35 495 30 21 112 140 1521 55 39 26
leaf_count=624 58 27 56 22 26 69 951 27 67 23 197 2373 102 57 32 24 26 20 1402 100 35 495 30 21 112 140 1521 55 39 26
internal_value=1.23629e-07 399.693 -22.3631 325.357 756.503 108.776 -32.9226 662.241 262.903 439.244 -12.7379 -38.9064 73.2456 151.387 497.008 400.022 230.509 304.896 -34.5706 135.468 378.708 -17.7345 213.476 293.299 10.6442 57.024 -46.537 175.408 95.7948 259.332
internal_weight=8757 464 8293 384 80 618 7675 54 248 136 1755 5920 337 281 55 81 140 108 3775 169 57 1446 88 88 309 196 2145 112 141 52
internal_count=8757 464 8293 384 80 618 7675 54 248 136 1755 5920 337 281 55 81 140 108 3775 169 57 1446 88 88 309 196 2145 112 141 52
is_linear=0
shrinkage=0.05


Tree=8
num_leaves=31
num_cat=0
split_feature=22 22 22 22 22 22 22 22 22 22 22 22 22 18 2 21 22 2 8 22 21 22 22 22 20 21 18 22 25 13
split_gain=2.82606e+10 5.25615e+09 3.07695e+09 9.70689e+08 8.18584e+08 2.94796e+08 2.65469e+08 1.83293e+08 1.41048e+08 1.32233e+08 5.90266e+07 5.86768e+07 4.62118e+07 4.14648e+07 3.89302e+07 3.17812e+07 2.22999e+07 1.8517e+07 1.21614e+07 1.10728e+07 9.22801e+06 8.59499e+06 8.4995e+06 8.31566e+06 7.25422e+06 7.24916e+06 6.48676e+06 6.32145e+06 6.27131e+06 6.15089e+06
threshold=503.21428571428578 1194.6428571428576 210.67857142857147 779.53571428571433 1876.8214285714289 107.75000000000001 346.64285714285717 1471.714285714286 951.28571428571433 655.64285714285722 81.464285714285737 142.53571428571431 426.28571428571439 331.65000000000003 0.59499999999999986 983.78571428571433 264.9285714285715 0.48500000000000038 31.950000000000003 170.60714285714289 448.9285714285715 124.25000000000001 582.78571428571433 94.035714285714292 266.50000000000006 416.35714285714295 230.10000000000005 66.607142857142875 -0.75015329512557194 4.6750000000000007
decision_type=2 2 2 2 2 2 2 2 2 2 2 2 2 2 2 2 2 2 2 2 2 2 2 2 2 2 2 2 2 2
left_child=2 3 5 9 7 10 16 14 15 17 27 21 28 -10 -3 29 -4 20 26 -13 -2 -7 -22 -12 -18 -14 -11 -1 -8 -5
right_child=1 4 6 8 -6 11 12 -9 13 18 23 19 25 -15 -16 -17 24 -19 -20 -21 22 -23 -24 -25 -26 -27 -28 -29 -30 -31
leaf_value=-49.069305211610761 150.08748321533204 489.00592607770653 34.224551875250683 278.7492396763393 904.66370004507212 -23.848235518910062 91.661357436069238 689.38319227430566 380.39575485956107 224.48658272879467 -36.286405994100001 -6.1113384381417308 127.18263874669229 451.99288173577725 573.15199833622682 367.11080603966349 54.77377717471817 214.63513637808865 291.07819417317711 9.5715717521451769 173.66714746811812 -16.430079040686731 205.25709307270668 -31.459477665408627 76.106428833007826 150.08786824544271 256.27835083007812 -42.870202871299121 110.86946650913784 313.16608886718751
leaf_weight=586 26 28 112 21 26 856 86 27 42 21 1827 341 62 39 27 26 103 43 21 168 68 718 31 1744 65 78 68 1379 84 34
leaf_count=586 26 28 112 21 26 856 86 27 42 21 1827 341 62 39 27 26 103 43 21 168 68 718 31 1744 65 78 68 1379 84 34
internal_value=-2.77617e-08 347.646 -23.2075 270.928 660.203 -31.726 86.7964 582.69 368.214 214.236 -37.7589 -15.6922 118.671 414.868 530.314 321.559 51.5063 186.333 256.853 -0.935054 176.597 -20.4643 183.559 -33.929 63.0275 139.944 248.777 -44.7189 101.152 300.025
internal_weight=8757 548 8209 440 108 7619 590 82 162 278 5536 2083 310 81 55 81 280 168 110 509 125 1574 99 3571 168 140 89 1965 170 55
internal_count=8757 548 8209 440 108 7619 590 82 162 278 5536 2083 310 81 55 81 280 168 110 509 125 1574 99 3571 168 140 89 1965 170 55
is_linear=0
shrinkage=0.05


Tree=9
num_leaves=31
num_cat=0
split_feature=22 22 22 22 22 22 22 21 22 22 22 22 22 22 21 1 21 2 22 25 14 22 22 22 21 17 22 20 20 18
split_gain=2.55108e+10 4.02327e+09 3.73988e+09 8.87208e+08 4.77669e+08 3.05617e+08 3.03154e+08 1.20532e+08 1.10564e+08 9.93501e+07 6.89721e+07 6.11864e+07 4.05204e+07 3.45392e+07 3.1811e+07 2.84381e+07 2.30625e+07 2.0765e+07 1.43361e+07 1.16957e+07 1.13051e+07 1.04839e+07 9.95015e+06 9.92458e+06 8.77821e+06 7.5419e+06 7.45026e+06 6.40933e+06 5.85577e+06 5.64512e+06
threshold=551.39285714285722 1300.1785714285716 241.46428571428575 888.21428571428589 1876.8214285714289 391.53571428571439 118.60714285714288 1361.4285714285718 719.67857142857144 1113.6785714285718 87.035714285714292 163.92857142857147 313.39285714285717 489.46428571428572 1047.8571428571429 6.2150000000000007 648.21428571428589 1.0250000000000001 102.67857142857143 -0.73866753694953124 5.995000000000001 951.28571428571433 831.75000000000011 140.32142857142858 206.21428571428575 136.55000000000004 72.750000000000014 463.00000000000006 583.83333333333337 261.15000000000009
decision_type=2 2 2 2 2 2 2 2 2 2 2 2 2 2 2 2 2 2 2 2 2 2 2 2 2 2 2 2 2 2
left_child=2 3 6 8 7 12 10 -3 16 15 26 23 29 19 -11 21 20 22 -12 -7 -2 -5 28 -8 -13 -14 -1 -15 -10 -4
right_child=1 4 5 9 -6 13 11 -9 17 14 18 24 25 27 -16 -17 -18 -19 -20 -21 -22 -23 -24 -25 -26 -27 -28 -29 -30 -31
leaf_value=-45.810697806222102 180.45965653716542 523.87737539785883 39.906348176435991 314.72990556196737 859.43055326021647 106.54217661981998 -17.40920160595152 673.27862051504633 243.67944603896723 403.22439230213996 -32.500699556795887 5.4512071146313197 75.885097166078282 146.43139552066199 480.31498107910159 406.65806986490884 234.38215637207031 321.303955078125 -25.404715711125405 133.30314697265626 219.31963659215859 358.77758161272322 294.89443475632442 -7.5086039336452721 25.278280867539443 98.324977547781813 -39.722185530075564 170.35720259232957 274.01281926081731 58.257995090484627
leaf_weight=770 61 27 88 22 26 69 974 27 41 23 2922 203 113 57 32 24 52 20 941 100 27 35 21 342 77 56 1446 55 26 80
leaf_count=770 61 27 88 22 26 69 974 27 41 23 2922 203 113 57 32 24 52 20 941 100 27 35 21 342 77 56 1446 55 26 80
internal_value=-4.4484e-09 360.787 -20.1863 293.586 683.355 98.1417 -29.7143 598.578 237.305 396.215 -34.806 -10.3205 66.0345 136.648 448.077 361.001 207.982 275.315 -30.7722 122.377 192.383 341.777 264.863 -14.8362 10.9037 83.3208 -41.8378 158.181 255.451 48.6452
internal_weight=8757 464 8293 384 80 618 7675 54 248 136 6079 1596 337 281 55 81 140 108 3863 169 88 57 88 1316 280 169 2216 112 67 168
internal_count=8757 464 8293 384 80 618 7675 54 248 136 6079 1596 337 281 55 81 140 108 3863 169 88 57 88 1316 280 169 2216 112 67 168
is_linear=0
shrinkage=0.05


Tree=10
num_leaves=31
num_cat=0
split_feature=22 22 22 22 22 22 22 21 22 22 22 22 22 21 1 21 22 2 22 22 22 20 2 22 22 22 22 25 10 17
split_gain=2.30235e+10 3.631e+09 3.37635e+09 8.00705e+08 4.31096e+08 2.95835e+08 2.45455e+08 1.0878e+08 1.00378e+08 8.96635e+07 6.71743e+07 6.62381e+07 3.83858e+07 2.87095e+07 2.62122e+07 2.47668e+07 2.19452e+07 1.56967e+07 1.44718e+07 1.00978e+07 9.59096e+06 8.32492e+06 8.19954e+06 8.17908e+06 6.73153e+06 6.72242e+06 6.54483e+06 6.23187e+06 5.75874e+06 5.71551e+06
threshold=551.39285714285722 1300.1785714285716 254.53571428571431 888.21428571428589 1876.8214285714289 120.67857142857143 405.03571428571433 1361.4285714285718 694.32142857142867 1113.6785714285718 170.60714285714289 88.821428571428598 346.64285714285717 1047.8571428571429 5.4050000000000011 448.9285714285715 779.53571428571433 0.74500000000000022 103.75000000000001 141.60714285714289 210.67857142857147 583.83333333333337 0.48500000000000038 73.964285714285737 503.21428571428578 287.6785714285715 655.64285714285722 -0.76141707087277943 18.750000000000004 144.35000000000008
decision_type=2 2 2 2 2 2 2 2 2 2 2 2 2 2 2 2 2 2 2 2 2 2 2 2 2 2 2 2 2 2
left_child=2 3 5 8 7 11 12 -3 17 14 19 23 25 -11 28 -8 21 26 -13 -7 -12 -10 -18 -1 -17 -4 27 -2 -5 -27
right_child=1 4 6 9 -6 10 15 -9 16 13 20 18 -14 -15 -16 24 22 -19 -20 -21 -22 -23 -24 -25 -26 29 -28 -29 -30 -31
leaf_value=-43.142184410051819 149.31608894348145 497.68352141203707 43.218703896658766 334.05811889648442 816.45899188701924 -15.760578262034665 117.13975633353242 639.61469907407411 223.20241116610441 383.06317616338316 8.548990703196754 -30.506335387986027 88.049328226438718 456.29923171997075 371.7473767089844 136.91744384765624 263.51451526988637 225.30508154296876 -23.40678200885143 -5.9176921316256399 29.241213553292411 255.15078060752467 303.48092447916667 -37.0966213441964 159.59180343400189 55.253868332828382 204.66462344215029 182.74769366720449 296.56935482933409 81.038945480872854
leaf_weight=879 20 27 84 20 26 881 121 27 44 23 168 2819 142 32 40 64 33 25 963 370 84 38 21 1539 67 83 21 46 21 29
leaf_count=879 20 27 84 20 26 881 121 27 44 23 168 2819 142 32 40 64 33 25 963 370 84 38 21 1539 67 83 21 46 21 29
internal_value=2.32597e-07 342.748 -19.177 278.906 649.187 -28.0065 96.0998 568.649 225.44 376.405 -8.10521 -32.8309 68.2532 425.673 342.951 133.45 254.307 190.387 -28.6986 -12.8494 15.4464 238.008 279.057 -39.2943 148.514 53.9111 180.353 172.617 314.857 61.9304
internal_weight=8757 464 8293 384 80 7703 590 54 248 136 1503 6200 338 55 81 252 136 112 3782 1251 252 82 54 2418 131 196 87 66 41 112
internal_count=8757 464 8293 384 80 7703 590 54 248 136 1503 6200 338 55 81 252 136 112 3782 1251 252 82 54 2418 131 196 87 66 41 112
is_linear=0
shrinkage=0.05


Tree=11
num_leaves=31
num_cat=0
split_feature=22 22 22 22 22 22 22 22 22 22 22 22 22 18 21 21 22 2 8 22 21 22 22 22 1 20 2 1 13 22
split_gain=2.07801e+10 3.8727e+09 2.263e+09 7.11153e+08 5.99712e+08 2.17393e+08 1.95104e+08 1.40877e+08 1.04188e+08 9.91834e+07 4.39721e+07 4.27539e+07 3.46497e+07 3.08317e+07 2.97976e+07 2.52484e+07 1.64528e+07 1.4088e+07 1.02089e+07 8.05601e+06 7.11354e+06 6.86726e+06 6.6175e+06 6.57589e+06 6.0082e+06 5.73804e+06 5.34575e+06 5.2321e+06 4.97702e+06 4.58976e+06
threshold=503.21428571428578 1194.6428571428576 210.67857142857147 779.53571428571433 1876.8214285714289 107.75000000000001 346.64285714285717 1471.714285714286 951.28571428571433 655.64285714285722 80.821428571428598 142.53571428571431 426.28571428571439 331.65000000000003 1101.8571428571431 983.78571428571433 264.9285714285715 0.48500000000000038 23.350000000000005 170.60714285714289 448.9285714285715 93.678571428571431 582.78571428571433 125.60714285714288 5.245000000000001 266.50000000000006 0.24500000000000013 4.1550000000000011 4.6750000000000007 66.607142857142875
decision_type=2 2 2 2 2 2 2 2 2 2 2 2 2 2 2 2 2 2 2 2 2 2 2 2 2 2 2 2 2 2
left_child=2 3 5 9 7 10 16 14 15 17 29 23 26 -10 -3 28 27 20 -11 -13 -2 -12 -22 -7 -14 -18 -8 -4 -5 -1
right_child=1 4 6 8 -6 11 12 -9 13 18 21 19 24 -15 -16 -17 25 -19 -20 -21 22 -23 -24 -25 -26 -27 -28 -29 -30 -31
leaf_value=-42.168197423524823 127.79562234144944 409.05650690252133 19.809679703485401 237.09417753673733 775.63604266826928 -20.249556930044335 81.918075859815559 593.58540039062507 325.89578857421878 210.23181347656251 -31.355745814296924 -5.2554074640497781 111.97697782294695 387.63407076322119 484.17958910392991 316.02698880709136 46.740079772356644 184.24933230377908 242.93504429408483 8.1215412720328288 148.45496754365809 -26.990152381815172 176.32896511939265 -13.697329399361076 133.25641196922021 65.712868041992195 103.40489468961148 41.594237144625922 268.05316592945775 -36.866121446120253
leaf_weight=586 26 22 63 21 26 916 133 27 42 75 1763 341 86 39 33 26 103 43 35 168 68 1842 31 658 54 65 37 49 34 1345
leaf_count=586 26 22 63 21 26 916 133 27 42 75 1763 341 86 39 33 26 103 43 35 168 68 1842 31 658 54 65 37 49 34 1345
internal_value=1.51753e-07 298.106 -19.9004 232.253 566.394 -27.2058 74.4384 500.048 315.524 183.729 -32.3865 -13.4369 101.764 355.622 454.13 275.426 44.1846 159.563 220.637 -0.840226 151.071 -29.1251 157.183 -17.5104 120.185 54.0807 86.5946 29.3404 256.232 -38.4751
internal_weight=8757 548 8209 440 108 7619 590 82 162 278 5536 2083 310 81 55 81 280 168 110 509 125 3605 99 1574 140 168 170 112 55 1931
internal_count=8757 548 8209 440 108 7619 590 82 162 278 5536 2083 310 81 55 81 280 168 110 509 125 3605 99 1574 140 168 170 112 55 1931
is_linear=0
shrinkage=0.05


Tree=12
num_leaves=31
num_cat=0
split_feature=22 22 22 22 22 22 22 15 22 22 22 22 21 22 21 21 2 22 14 8 14 22 21 22 22 22 22 1 20 21
split_gain=1.87591e+10 2.96737e+09 2.74836e+09 6.50269e+08 3.48741e+08 2.41547e+08 2.00123e+08 9.62688e+07 8.27223e+07 7.25107e+07 5.63489e+07 5.2504e+07 2.59533e+07 2.33112e+07 2.01123e+07 1.79707e+07 1.56624e+07 1.10018e+07 1.03818e+07 9.93947e+06 9.51492e+06 8.88382e+06 8.7798e+06 7.842e+06 7.4603e+06 6.45602e+06 6.01677e+06 4.92815e+06 4.64345e+06 4.1161e+06
threshold=551.39285714285722 1300.1785714285716 254.53571428571431 888.21428571428589 1876.8214285714289 119.67857142857143 391.53571428571439 5.8150000000000004 719.67857142857144 1014.5000000000001 170.60714285714289 88.535714285714292 437.35714285714295 329.25000000000006 1047.8571428571429 648.21428571428589 1.0250000000000001 100.60714285714288 5.995000000000001 13.450000000000001 5.995000000000001 141.60714285714289 206.21428571428575 489.46428571428572 831.75000000000011 73.678571428571431 441.35714285714295 4.9850000000000012 583.83333333333337 335.9285714285715
decision_type=2 2 2 2 2 2 2 2 2 2 2 2 2 2 2 2 2 2 2 2 2 2 2 2 2 2 2 2 2 2
left_child=2 3 5 8 7 11 13 -3 15 19 21 25 26 29 -11 20 24 -13 -16 -5 -2 -7 -12 -14 28 -1 -8 -15 -10 -4
right_child=1 4 6 9 -6 10 12 -9 16 14 22 17 23 27 18 -17 -18 -19 -20 -21 -22 -23 -24 -25 -26 -27 -28 -29 -30 -31
leaf_value=-39.079222486595413 153.41396345545033 597.65610584077388 41.249729848312121 273.8715996878488 736.85423677884626 -14.470782914602541 87.470305935841694 460.71211307410044 208.65413044254956 338.98529108220885 7.0897780626830524 -28.03877006703383 118.24556424790535 68.136086318072145 370.36810344827586 201.42654207669773 276.30444763183596 -22.357997349346043 417.19436767578128 316.80375788762024 189.0645869502315 -5.3259540185896128 26.666918589852074 140.81712520204744 253.29029134114586 -33.631357206715101 109.66772278679741 89.033335133087945 235.66565223106974 58.367273315429692
leaf_weight=844 61 21 118 28 26 941 53 33 41 33 164 2464 69 102 29 52 20 1303 20 26 27 370 88 87 21 1529 72 39 26 50
leaf_count=844 61 21 118 28 26 941 53 33 41 33 164 2464 69 102 29 52 20 1303 20 26 27 370 88 87 21 1529 72 39 26 50
internal_value=-3.10348e-07 309.382 -17.3102 251.669 586.406 -25.2763 86.695 513.968 203.486 339.532 -7.72757 -29.7435 117.231 58.9256 369.159 178.123 236.364 -26.0738 389.481 294.543 164.352 -11.8899 13.9262 130.834 227.287 -35.569 100.256 73.9162 219.136 46.3442
internal_weight=8757 464 8293 384 80 7703 590 54 248 136 1563 6140 281 309 82 140 108 3767 49 54 88 1311 252 156 88 2373 125 141 67 168
internal_count=8757 464 8293 384 80 7703 590 54 248 136 1563 6140 281 309 82 140 108 3767 49 54 88 1311 252 156 88 2373 125 141 67 168
is_linear=0
shrinkage=0.05


Tree=13
num_leaves=31
num_cat=0
split_feature=22 22 22 22 22 22 22 21 22 22 22 22 22 22 21 1 22 2 25 22 22 22 21 20 2 17 14 16 20 22
split_gain=1.69301e+10 2.67805e+09 2.48143e+09 5.86868e+08 3.14739e+08 2.0361e+08 2.02051e+08 8.90624e+07 7.47861e+07 6.69671e+07 4.59588e+07 4.1909e+07 2.72362e+07 2.35336e+07 2.17427e+07 1.99045e+07 1.55793e+07 1.27114e+07 9.25522e+06 8.78255e+06 7.99741e+06 7.7173e+06 7.081e+06 6.59381e+06 6.06654e+06 5.46968e+06 5.30067e+06 4.83178e+06 4.63834e+06 4.29806e+06
threshold=551.39285714285722 1300.1785714285716 241.46428571428575 888.21428571428589 1876.8214285714289 391.53571428571439 114.60714285714288 1361.4285714285718 694.32142857142867 1113.6785714285718 159.25000000000003 80.821428571428598 313.39285714285717 489.46428571428572 1047.8571428571429 6.2150000000000007 779.53571428571433 0.74500000000000022 -0.73866753694953124 96.250000000000014 131.60714285714289 951.28571428571433 189.85714285714289 583.83333333333337 0.48500000000000038 136.55000000000004 5.6700000000000008 45.850000000000001 463.00000000000006 210.67857142857147
decision_type=2 2 2 2 2 2 2 2 2 2 2 2 2 2 2 2 2 2 2 2 2 2 2 2 2 2 2 2 2 2
left_child=2 3 6 8 7 12 11 -3 17 15 20 -1 -4 18 -11 21 23 26 -7 -13 -8 -5 -12 -10 -18 -14 27 -2 -15 -24
right_child=1 4 5 9 -6 13 10 -9 16 14 22 19 25 28 -16 -17 24 -19 -20 -21 -22 -23 29 -25 -26 -27 -28 -29 -30 -31
leaf_value=-34.750759331393532 126.78619859114939 424.05709544994215 39.477038869403657 254.35563548694961 700.01153094951928 85.504124738168031 -16.246867357896932 552.48231336805554 191.31910428133881 328.05283786939543 2.3925056405940017 -27.816926857732955 61.573615440436178 119.14920611465186 391.78659286499027 331.84159545898439 225.71329086766102 194.47824023437499 109.30989773559571 -23.045364301961499 -8.8267391484547293 292.14719935825894 12.365474935770036 219.75238069233143 260.0905017671131 80.683639199393141 169.06901070731027 157.47374225484916 139.50281682794744 35.126619774954662
leaf_weight=1931 23 27 168 22 26 69 893 27 44 23 201 2232 113 57 32 24 33 25 100 1698 612 35 80 38 21 56 35 29 55 28
leaf_count=1931 23 27 168 22 26 69 893 27 44 23 201 2232 113 57 32 24 33 25 100 1698 612 35 80 38 21 56 35 29 55 28
internal_value=4.5228e-08 293.913 -16.4447 239.085 557.086 79.9404 -24.2057 488.27 193.312 322.556 -9.62334 -28.719 53.7337 111.37 365.134 293.644 218.228 163.055 99.5904 -25.7553 -13.2295 277.561 7.9407 204.496 239.082 67.9059 154.026 143.9 129.144 18.2665
internal_weight=8757 464 8293 384 80 618 7675 54 248 136 1814 5861 337 281 55 81 136 112 169 3930 1505 57 309 82 54 169 87 52 112 108
internal_count=8757 464 8293 384 80 618 7675 54 248 136 1814 5861 337 281 55 81 136 112 169 3930 1505 57 309 82 54 169 87 52 112 108
is_linear=0
shrinkage=0.05


Tree=14
num_leaves=31
num_cat=0
split_feature=22 22 22 22 21 22 22 21 22 22 22 22 21 22 12 21 21 2 22 14 22 22 22 22 22 0 15 21 1 20
split_gain=1.52794e+10 2.41694e+09 2.24025e+09 5.29648e+08 2.84298e+08 2.13014e+08 1.43542e+08 8.65319e+07 6.81269e+07 6.04378e+07 5.6038e+07 4.46647e+07 1.96228e+07 1.96151e+07 1.83132e+07 1.73677e+07 1.48186e+07 1.30845e+07 8.99064e+06 8.05628e+06 7.802e+06 7.4078e+06 7.05104e+06 6.26337e+06 5.04941e+06 4.79459e+06 5.13681e+06 4.66275e+06 4.08848e+06 3.79979e+06
threshold=551.39285714285722 1300.1785714285716 264.9285714285715 888.21428571428589 1919.6428571428573 120.67857142857143 405.03571428571433 1361.4285714285718 719.67857142857144 1113.6785714285718 174.03571428571431 89.892857142857153 1047.8571428571429 346.64285714285717 5.535000000000001 437.35714285714295 648.21428571428589 1.0250000000000001 104.8214285714286 5.995000000000001 142.53571428571431 210.67857142857147 75.535714285714292 831.75000000000011 503.21428571428578 9.2500000000000018 5.3750000000000009 335.9285714285715 4.1550000000000011 583.83333333333337
decision_type=2 2 2 2 2 2 2 2 2 2 2 2 2 2 2 2 2 2 2 2 2 2 2 2 2 2 2 2 2 2
left_child=2 3 5 8 7 11 13 -3 16 14 20 22 -11 27 -5 -8 19 23 -13 -2 -7 -12 -1 29 -17 -26 -27 -4 -23 -10
right_child=1 4 6 9 -6 10 15 -9 17 12 21 18 -14 -15 -16 24 -18 -19 -20 -21 -22 28 -24 -25 25 26 -28 -29 -30 -31
leaf_value=-34.550385886133476 138.05925566876522 408.82327333647635 40.994866869005108 258.7410558172997 677.61502950917122 -12.66009840294555 93.002290566453667 532.05356881277908 188.23602205602137 311.65019823157269 7.9556921933378497 -24.511191863647284 372.19726715087893 71.660490310024201 306.91428940716912 110.8028493113332 181.79044095552888 249.98893920898436 -18.627117210696397 170.86363141095197 -4.0407509067012528 16.782800619942801 -29.353500865055963 229.01271623883929 113.95544657389324 157.61290399460566 122.64076654343378 59.213656555175788 36.039927626629265 212.67082284780651
leaf_weight=1183 61 29 118 47 23 910 103 28 41 23 140 2707 32 142 34 77 52 20 854 27 369 63 1456 21 30 21 21 50 49 26
leaf_count=1183 61 29 118 47 23 910 103 28 41 23 140 2707 32 142 34 77 52 20 854 27 369 63 1456 21 30 21 21 50 49 26
internal_value=3.1956e-08 279.217 -15.6224 227.131 529.232 -22.6291 80.7632 469.357 183.646 306.428 -5.92727 -26.7534 346.878 57.9802 278.962 108.79 160.629 213.483 -23.1001 148.124 -10.1734 15.6233 -31.6831 205.186 119.703 129.222 140.127 46.4171 25.2078 197.718
internal_weight=8757 464 8293 384 80 7731 562 57 248 136 1531 6200 55 310 81 252 140 108 3561 88 1279 252 2639 88 149 72 42 168 112 67
internal_count=8757 464 8293 384 80 7731 562 57 248 136 1531 6200 55 310 81 252 140 108 3561 88 1279 252 2639 88 149 72 42 168 112 67
is_linear=0
shrinkage=0.05


Tree=15
num_leaves=31
num_cat=0
split_feature=22 22 22 22 22 22 22 22 22 22 22 22 22 2 22 8 2 18 20 19 20 22 22 22 22 22 21 21 7 25
split_gain=1.37905e+10 2.5801e+09 1.50321e+09 4.70647e+08 4.11897e+08 1.45413e+08 1.31151e+08 1.00098e+08 9.51425e+07 4.5282e+07 2.90494e+07 2.87756e+07 2.10632e+07 2.02629e+07 1.31295e+07 1.25102e+07 1.20783e+07 1.16708e+07 1.00149e+07 6.41774e+06 6.05627e+06 5.97698e+06 5.28772e+06 5.13577e+06 4.84276e+06 4.77272e+06 4.74798e+06 4.69409e+06 4.45746e+06 4.03304e+06
threshold=503.21428571428578 1194.6428571428576 210.67857142857147 831.75000000000011 1876.8214285714289 106.60714285714288 371.25000000000006 1471.714285714286 655.64285714285722 1014.5000000000001 143.96428571428575 79.535714285714292 287.6785714285715 0.59499999999999986 426.28571428571439 16.450000000000003 1.1150000000000004 264.40000000000003 463.00000000000006 630.85000000000014 295.83333333333343 719.67857142857144 127.10714285714288 582.78571428571433 174.03571428571431 93.178571428571431 206.21428571428575 561.64285714285722 15.500000000000002 -0.62588817255938378
decision_type=2 2 2 2 2 2 2 2 2 2 2 2 2 2 2 2 2 2 2 2 2 2 2 2 2 2 2 2 2 2
left_child=2 3 5 8 7 11 12 13 18 17 22 -1 26 -3 -8 -11 21 -5 29 -19 -14 -10 -7 28 -12 -13 -4 -16 -20 -2
right_child=1 4 6 9 -6 10 14 -9 16 15 24 25 20 -15 27 -17 -18 19 23 -21 -22 -23 -24 -25 -26 -27 -28 -29 -30 -31
leaf_value=-31.547924671573668 105.4528177434748 338.34283981323244 15.983292777078194 216.34201634724937 635.24321664663466 -16.355452955285859 75.205256072187851 485.6954445167824 164.90929280598959 278.22644178602434 -3.5008927781597752 -25.819234286694581 44.558988504311479 399.05013834635417 93.335325456099085 326.35864348234958 219.56257768110797 241.75563728578629 144.58972798665366 276.61448550016985 63.699953715006508 188.26562787737168 -10.485343442257737 153.39803122495994 7.5579075649380689 -22.180718418453658 33.736642263601496 115.64806193033854 118.32483729771205 132.53194396972657
leaf_weight=1857 44 28 57 27 26 1067 113 27 45 27 338 1701 97 27 110 27 22 31 30 23 72 70 599 39 140 1917 111 30 35 20
leaf_count=1857 44 28 57 27 26 1067 113 27 45 27 338 1701 97 27 110 27 22 31 30 23 72 70 599 39 140 1917 111 30 35 20
internal_value=1.90189e-08 242.85 -16.2117 189.099 461.834 -22.1657 60.6762 406.85 154.695 266.827 -11.1274 -26.4883 40.2505 368.145 87.8835 302.293 185.62 243.183 129.477 256.603 52.7137 179.126 -14.2449 139.054 -0.261914 -23.8914 27.7132 98.1166 130.447 113.915
internal_weight=8757 548 8209 440 108 7619 590 82 305 135 2144 5475 337 55 253 54 137 81 168 54 169 115 1666 104 478 3618 168 140 65 64
internal_count=8757 548 8209 440 108 7619 590 82 305 135 2144 5475 337 55 253 54 137 81 168 54 169 115 1666 104 478 3618 168 140 65 64
is_linear=0
shrinkage=0.05


Tree=16
num_leaves=31
num_cat=0
split_feature=22 22 22 22 21 22 22 15 22 22 22 22 21 22 1 21 22 21 22 22 22 22 9 21 22 8 0 14 20 22
split_gain=1.24479e+10 1.97474e+09 1.82465e+09 4.30631e+08 2.4511e+08 1.73889e+08 1.16834e+08 7.26758e+07 5.54358e+07 4.87275e+07 4.53608e+07 3.66174e+07 1.64221e+07 1.6007e+07 1.53221e+07 1.45066e+07 1.14395e+07 1.02031e+07 6.97921e+06 6.64784e+06 6.53592e+06 6.38082e+06 6.09677e+06 6.05273e+06 5.45796e+06 5.06833e+06 4.84226e+06 4.47679e+06 4.01436e+06 3.9206e+06
threshold=551.39285714285722 1300.1785714285716 264.9285714285715 888.21428571428589 1919.6428571428573 120.67857142857143 405.03571428571433 6.1350000000000007 694.32142857142867 1113.6785714285718 174.03571428571431 90.607142857142875 1047.8571428571429 346.64285714285717 6.2150000000000007 437.35714285714295 779.53571428571433 623.357142857143 76.178571428571431 951.28571428571433 105.60714285714288 140.32142857142858 7.4500000000000011 206.21428571428575 621.14285714285722 23.350000000000005 17.450000000000003 5.995000000000001 266.50000000000006 503.21428571428578
decision_type=2 2 2 2 2 2 2 2 2 2 2 2 2 2 2 2 2 2 2 2 2 2 2 2 2 2 2 2 2 2
left_child=2 3 5 8 7 11 13 -3 17 14 21 18 -11 28 19 -8 22 27 -1 -5 -13 -7 -10 -12 -19 -24 -18 -2 -4 -17
right_child=1 4 6 9 -6 10 15 -9 16 12 23 20 -14 -15 -16 29 26 24 -20 -21 -22 -23 25 -25 -26 -27 -28 -29 -30 -31
leaf_value=-30.975661795645053 119.260072072347 493.62734485973016 35.745976398060627 216.13153605027634 615.78826638926637 -11.649992388913109 83.742493638714549 377.65430036272323 158.37292556762696 280.53557865308682 7.398471031497265 -21.83060938132024 335.92491607666017 64.689655099788183 285.29329325358071 100.30254960493608 193.56888750861674 140.83170831853693 -26.017336942691369 251.20691964285717 -16.629178854970053 -4.1568484961706709 172.77544029498924 23.075730255162608 176.05167208584874 205.02907482328871 224.57421875 147.41615692138672 51.615267662635226 116.53289286295575
leaf_weight=1320 48 22 103 22 23 853 103 35 32 23 145 2554 32 142 24 77 34 22 1535 35 791 426 29 107 22 21 20 20 65 72
leaf_count=1320 48 22 103 22 23 853 103 35 32 23 145 2554 32 142 24 77 34 22 1535 35 791 426 29 107 22 21 20 20 65 72
internal_value=7.35263e-08 252.022 -14.1008 204.941 478.01 -20.4243 72.8859 422.416 165.73 276.442 -5.33402 -24.1506 312.762 52.3315 251.78 98.1712 187.183 139.681 -28.3098 237.669 -20.6006 -9.15423 175.415 14.0551 158.442 186.322 205.052 127.541 41.8859 108.145
internal_weight=8757 464 8293 384 80 7731 562 57 248 136 1531 6200 55 310 81 252 136 112 2855 57 3345 1279 82 252 44 50 54 68 168 149
internal_count=8757 464 8293 384 80 7731 562 57 248 136 1531 6200 55 310 81 252 136 112 2855 57 3345 1279 82 252 44 50 54 68 168 149
is_linear=0
shrinkage=0.05


Tree=17
num_leaves=31
num_cat=0
split_feature=22 22 22 22 22 22 22 15 22 22 22 22 22 21 21 12 21 2 14 22 20 21 22 22 22 22 17 20 22 22
split_gain=1.12343e+10 1.78221e+09 1.64741e+09 3.88645e+08 2.32155e+08 1.35573e+08 1.34541e+08 6.60665e+07 5.06274e+07 4.39766e+07 3.13833e+07 2.78295e+07 1.8604e+07 1.6396e+07 1.48209e+07 1.41768e+07 1.1333e+07 1.03649e+07 6.50944e+06 6.1187e+06 5.78659e+06 5.55733e+06 5.12318e+06 4.66255e+06 4.57903e+06 4.36547e+06 3.27126e+06 3.26457e+06 3.24325e+06 2.87646e+06
threshold=551.39285714285722 1300.1785714285716 241.46428571428575 888.21428571428589 1876.8214285714289 391.53571428571439 113.89285714285715 5.8150000000000004 719.67857142857144 1113.6785714285718 155.96428571428575 80.107142857142875 300.39285714285717 437.35714285714295 1047.8571428571429 5.535000000000001 688.14285714285722 1.0250000000000001 5.995000000000001 95.750000000000014 306.83333333333343 198.00000000000003 130.82142857142858 478.4285714285715 831.75000000000011 441.35714285714295 105.20000000000003 583.83333333333337 65.321428571428598 210.67857142857147
decision_type=2 2 2 2 2 2 2 2 2 2 2 2 2 2 2 2 2 2 2 2 2 2 2 2 2 2 2 2 2 2
left_child=2 3 6 8 7 12 11 -3 16 15 22 28 -4 25 -11 26 18 24 -2 -13 -14 -12 -8 -15 27 -7 -5 -10 -1 -23
right_child=1 4 5 9 -6 13 10 -9 17 14 21 19 20 23 -16 -17 -18 -19 -20 -21 -22 29 -24 -25 -26 -27 -28 -29 -30 -31
leaf_value=-31.660596502130684 118.584112739563 464.33595493861606 29.818395658220563 207.33794819224966 576.86077505258424 66.401654110314709 -13.453135278981003 350.889541163589 160.60598978182168 266.50880082171898 1.8165429426988293 -22.798353953972175 45.044578012033384 90.204268070689423 319.128670501709 263.78479793772976 157.61288594996677 215.65615478515625 147.13990994157462 -18.82740864236737 62.183514558426054 10.605022614142475 -7.5241791133182803 108.1552844114978 196.15283842540924 85.30925600263808 233.7739306640625 183.25461003230168 -27.102159902610978 29.894682057698567
leaf_weight=550 64 21 140 22 26 53 894 33 41 23 242 2202 98 57 32 34 47 20 29 1734 99 68 615 99 21 72 25 26 1343 27
leaf_count=550 64 21 140 22 26 53 894 33 41 23 242 2202 98 57 32 34 47 20 29 1734 99 68 615 99 21 72 25 26 1343 27
internal_value=6.07335e-08 239.421 -13.3958 194.694 454.11 65.1386 -19.7195 395.008 157.444 262.62 -7.95589 -23.4449 43.754 90.7849 297.124 239.191 137.602 183.165 127.489 -21.049 53.6575 5.83947 -11.0368 101.596 175.78 77.2924 221.4 169.395 -28.4266 16.0873
internal_weight=8757 464 8293 384 80 618 7675 54 248 136 1846 5829 337 281 55 81 140 108 93 3936 197 337 1509 156 88 125 47 67 1893 95
internal_count=8757 464 8293 384 80 618 7675 54 248 136 1846 5829 337 281 55 81 140 108 93 3936 197 337 1509 156 88 125 47 67 1893 95
is_linear=0
shrinkage=0.05


Tree=18
num_leaves=31
num_cat=0
split_feature=22 22 22 22 22 22 22 22 22 22 22 22 21 22 8 12 25 22 2 25 9 22 21 21 22 22 1 8 22 21
split_gain=1.014e+10 1.90138e+09 1.10685e+09 3.45247e+08 3.15595e+08 1.07058e+08 9.67128e+07 7.98316e+07 7.14969e+07 3.31702e+07 2.13253e+07 2.12627e+07 1.55139e+07 1.53095e+07 1.02376e+07 9.92262e+06 9.91319e+06 9.74355e+06 8.22413e+06 5.77391e+06 5.17569e+06 4.81517e+06 4.67266e+06 4.36535e+06 3.95204e+06 3.7648e+06 3.72563e+06 3.5888e+06 3.51791e+06 3.42558e+06
threshold=503.21428571428578 1194.6428571428576 210.67857142857147 831.75000000000011 1876.8214285714289 106.60714285714288 371.25000000000006 1471.714285714286 655.64285714285722 1014.5000000000001 79.178571428571431 143.96428571428575 1101.8571428571431 287.6785714285715 16.450000000000003 4.5650000000000004 -0.49813634056773481 441.35714285714295 0.48500000000000038 -0.73866753694953124 8.5500000000000025 719.67857142857144 316.07142857142861 448.9285714285715 126.10714285714288 92.607142857142875 4.1850000000000014 20.950000000000003 582.78571428571433 189.85714285714289
decision_type=2 2 2 2 2 2 2 2 2 2 2 2 2 2 2 2 2 2 2 2 2 2 2 2 2 2 2 2 2 2
left_child=2 3 5 8 7 10 13 12 18 15 -1 24 -3 26 -11 -5 20 19 23 -8 -10 -22 -15 -2 -7 -12 -4 -17 -25 -13
right_child=1 4 6 9 -6 11 17 -9 16 14 25 29 -14 22 -16 27 -18 -19 -20 -21 21 -23 -24 28 -26 -27 -28 -29 -30 -31
leaf_value=-27.141539001045647 86.049656207744903 281.00981008356268 16.489141555042831 177.8713070678711 548.01775277944705 -14.176242284493036 56.789150916205521 418.51178023726857 139.05098578713157 237.25402018229167 -22.338033704316064 -2.2957334492981278 335.2152743252841 37.911076333125429 280.79543321397568 209.34571376702726 184.31030450636342 86.448826844351629 129.63269809456759 77.029771047398668 143.32888183593749 172.17420403896233 54.69518599836794 102.70711930218866 -9.1958843973319713 -19.102995789555248 31.381922370267201 234.60178444602275 123.03045280210434 8.4856623701996856
leaf_weight=1820 26 22 85 20 26 1007 72 27 44 27 1598 387 33 96 27 39 31 112 43 69 23 39 73 68 659 2057 83 22 31 91
leaf_count=1820 26 22 85 20 26 1007 72 27 44 27 1598 387 33 96 27 39 31 112 43 69 23 39 73 68 659 2057 83 22 31 91
internal_value=1.02265e-07 208.241 -13.9013 162.098 396.228 -19.0104 52.0756 348.099 132.632 228.67 -22.7194 -9.53909 313.533 34.5356 259.025 208.434 159.44 75.4393 110.771 66.6941 152.166 161.474 45.161 104.283 -12.2062 -20.5174 23.8469 218.454 109.071 -0.243208
internal_weight=8757 548 8209 440 108 7619 590 82 305 135 5475 2144 55 337 54 81 137 253 168 141 106 62 169 125 1666 3655 168 61 99 478
internal_count=8757 548 8209 440 108 7619 590 82 305 135 5475 2144 55 337 54 81 137 253 168 141 106 62 169 125 1666 3655 168 61 99 478
is_linear=0
shrinkage=0.05


Tree=19
num_leaves=31
num_cat=0
split_feature=22 22 22 22 21 22 22 21 22 22 22 22 22 19 21 21 2 22 8 14 22 21 22 22 10 6 11 12 9 25
split_gain=9.15265e+09 1.45548e+09 1.34231e+09 3.16122e+08 2.00747e+08 1.28224e+08 8.59416e+07 5.74373e+07 4.12904e+07 3.55838e+07 3.3637e+07 2.71906e+07 1.18304e+07 1.12262e+07 1.10134e+07 9.5072e+06 8.73857e+06 6.75527e+06 6.66014e+06 5.70188e+06 5.61862e+06 5.01864e+06 4.75114e+06 4.44603e+06 3.67482e+06 3.50653e+06 3.45263e+06 3.54706e+06 3.40578e+06 2.96924e+06
threshold=551.39285714285722 1300.1785714285716 264.9285714285715 888.21428571428589 1919.6428571428573 120.67857142857143 405.03571428571433 1361.4285714285718 719.67857142857144 1014.5000000000001 174.03571428571431 90.821428571428598 346.64285714285717 691.60000000000002 437.35714285714295 688.14285714285722 1.0250000000000001 1194.6428571428576 13.450000000000001 5.995000000000001 74.321428571428598 139.50000000000003 103.75000000000001 210.67857142857147 10.15 9.0000000000000018 8.5500000000000025 5.3750000000000009 32.95000000000001 -0.75015329512557194
decision_type=2 2 2 2 2 2 2 2 2 2 2 2 2 2 2 2 2 2 2 2 2 2 2 2 2 2 2 2 2 2
left_child=2 3 5 8 7 11 12 -3 15 18 21 20 28 -11 -8 19 24 -15 -5 -2 -1 -7 -13 -12 -10 -16 -27 -28 -4 -14
right_child=1 4 6 9 -6 10 14 -9 16 13 23 22 29 17 25 -17 -18 -19 -20 -21 -22 -23 -24 -25 -26 26 27 -29 -30 -31
leaf_value=-27.455845393537835 106.57334680557251 310.4877475080819 32.862548731414364 188.50851865495954 534.80630944293478 -10.281991500873938 71.631878262121703 410.88604300362726 169.47688107374239 233.3436718241374 6.1997241557495935 -18.827382646107317 48.076332025942598 255.7032312853583 85.771063423156747 142.49838010098071 195.15110107421876 291.98848930027174 223.65185875525842 133.29920317551185 -22.73727983614765 -3.8188232632717161 -14.653523193787192 19.565176526563508 148.99411945748838 87.619532557896207 125.46642303466797 96.044448416573672 52.546043630746695 62.542409107783072
leaf_weight=927 64 29 142 28 23 797 103 28 41 30 140 2335 69 29 80 47 20 23 26 29 1975 482 963 112 47 28 20 21 26 73
leaf_count=927 64 29 142 28 23 797 103 28 41 30 140 2335 69 29 80 47 20 23 26 29 1975 482 963 112 47 28 20 21 26 73
internal_value=3.12147e-08 216.104 -12.0912 175.684 410.119 -17.5148 62.5176 359.806 142.089 236.946 -4.5566 -20.7147 44.8888 257.7 84.2039 124.17 165.318 271.752 205.429 114.907 -24.2446 -7.8463 -17.6086 12.1399 158.537 92.8946 101.154 110.397 35.9088 55.5131
internal_weight=8757 464 8293 384 80 7731 562 57 248 136 1531 6200 310 82 252 140 108 52 54 93 2902 1279 3298 252 88 149 69 41 168 142
internal_count=8757 464 8293 384 80 7731 562 57 248 136 1531 6200 310 82 252 140 108 52 54 93 2902 1279 3298 252 88 149 69 41 168 142
is_linear=0
shrinkage=0.05


Tree=20
num_leaves=31
num_cat=0
split_feature=22 22 22 22 22 21 22 22 22 22 21 20 22 22 22 21 14 21 21 25 18 1 22 22 15 8 22 3 18 25
split_gain=8.26393e+09 1.62148e+09 8.08375e+08 3.58359e+08 2.21767e+08 1.48442e+08 8.73873e+07 6.51078e+07 4.34935e+07 2.57052e+07 2.37314e+07 2.2342e+07 1.8371e+07 1.67969e+07 9.68865e+06 9.53417e+06 8.08702e+06 7.76474e+06 7.69745e+06 5.29309e+06 5.07567e+06 4.52095e+06 4.27949e+06 3.92499e+06 3.75079e+06 3.50906e+06 3.48219e+06 3.057e+06 2.85822e+06 2.67974e+06
threshold=489.46428571428572 1113.6785714285718 210.67857142857147 1471.714285714286 719.67857142857144 1919.6428571428573 108.60714285714288 346.64285714285717 951.28571428571433 621.14285714285722 1047.8571428571429 1226.1666666666667 79.178571428571431 148.75000000000003 405.03571428571433 561.64285714285722 6.6950000000000012 223.35714285714286 688.14285714285722 -0.73866753694953124 296.10000000000008 6.0050000000000008 831.75000000000011 127.8214285714286 5.245000000000001 10.350000000000003 94.035714285714292 5.3500000000000005 318.05000000000007 -0.75015329512557194
decision_type=2 2 2 2 2 2 2 2 2 2 2 2 2 2 2 2 2 2 2 2 2 2 2 2 2 2 2 2 2 2
left_child=2 4 6 10 9 -5 12 17 11 20 -3 15 -1 23 29 -6 -12 -4 24 -16 -2 -10 25 -8 -11 -17 -14 -22 -15 -9
right_child=1 3 7 5 8 -7 13 14 21 18 16 -13 26 28 19 22 -18 -19 -20 -21 27 -23 -24 -25 -26 -27 -28 -29 -30 -31
leaf_value=-24.52743101643992 87.472908996582035 229.70841874342702 16.000249684375266 370.86249186197915 129.13528558139146 543.49171508789061 -12.432514455075751 45.672515471085262 204.40852086684285 133.75253993443081 272.79458077566966 211.18505493164062 -19.851423909262763 -0.4610710074247506 59.541811946400429 140.01058584359976 312.04232119605655 33.727430591177431 148.82185770670574 79.330276112384112 119.08237060546877 234.36750427246093 175.12300530510981 -7.51512962334579 106.72156792842981 166.82157407014267 -16.799617736850756 97.095267291401711 11.99794746361397 59.415288470542592
leaf_weight=1820 100 26 92 33 29 20 1002 69 34 21 35 20 1972 312 57 26 21 188 30 83 25 20 37 682 33 23 1777 43 54 73
leaf_count=1820 100 26 92 33 29 20 1002 69 34 21 35 20 1972 312 57 26 21 188 30 83 25 20 37 682 33 23 1777 43 54 73
internal_value=-1.68973e-07 183.053 -12.8882 334.677 136.638 436.006 -17.1569 44.9818 177.58 105.931 269.184 162.41 -20.4058 -8.33106 61.9398 153.927 287.512 27.9028 128.515 71.2735 94.6396 215.504 162.287 -10.441 117.234 152.595 -18.4049 105.179 1.37714 52.7375
internal_weight=8757 576 8181 135 441 53 7619 562 189 252 82 135 5569 2050 282 115 56 280 84 140 168 54 86 1684 54 49 3749 68 366 142
internal_count=8757 576 8181 135 441 53 7619 562 189 252 82 135 5569 2050 282 115 56 280 84 140 168 54 86 1684 54 49 3749 68 366 142
is_linear=0
shrinkage=0.05


Tree=21
num_leaves=31
num_cat=0
split_feature=22 22 22 22 22 22 22 22 22 22 21 22 20 18 2 22 8 25 22 18 22 17 21 18 1 1 22 25 18 3
split_gain=7.4582e+09 1.46387e+09 7.29559e+08 2.80332e+08 2.4843e+08 7.90224e+07 5.88596e+07 5.60773e+07 4.58705e+07 3.8871e+07 1.66958e+07 1.54917e+07 1.35978e+07 1.27015e+07 1.19862e+07 1.17574e+07 1.16241e+07 6.98153e+06 5.10797e+06 4.59132e+06 4.53512e+06 3.90984e+06 3.60091e+06 3.14908e+06 2.96887e+06 2.8786e+06 2.85575e+06 2.6305e+06 2.43912e+06 2.35356e+06
threshold=489.46428571428572 1194.6428571428576 210.67857142857147 779.53571428571433 1876.8214285714289 105.60714285714288 371.25000000000006 1471.714285714286 621.14285714285722 951.28571428571433 139.50000000000003 78.392857142857153 1012.6666666666669 322.10000000000008 0.59499999999999986 287.6785714285715 31.950000000000003 -0.73866753694953124 655.64285714285722 303.85000000000008 170.60714285714289 138.65000000000006 599.28571428571433 244.25000000000006 4.1550000000000011 6.6250000000000009 92.607142857142875 -0.40614700388750385 230.10000000000005 5.3500000000000005
decision_type=2 2 2 2 2 2 2 2 2 2 2 2 2 2 2 2 2 2 2 2 2 2 2 2 2 2 2 2 2 2
left_child=2 3 5 8 7 11 15 14 19 12 -7 -1 22 -11 -3 24 18 -8 -10 -2 -12 -17 -5 -19 -4 -15 -13 -25 -20 -21
right_child=1 4 6 9 -6 10 17 -9 16 13 20 26 -14 25 -16 21 -18 23 28 29 -22 -23 -24 27 -26 -27 -28 -29 -30 -31
leaf_value=-23.492857384514195 83.341263795130473 245.2363462175642 13.497303147543045 137.68913073730468 474.50185218224163 -11.016114406250418 52.688785411834715 356.14198676215278 100.8159604943317 192.73935750325521 -3.7671237806073332 -19.234815145124472 198.93020717075893 246.09442443847658 291.92706886574075 34.102262990982808 158.93078495905951 58.174545906685495 112.35395246233259 113.1695944081182 6.2221684284360208 51.075472632874835 162.534638671875 86.454006778492655 26.790856124105911 219.884916825728 -16.448974992377504 68.70008164158574 131.84869896383847 93.271987660725927
leaf_weight=1708 103 28 84 25 26 1600 100 27 23 39 459 1710 21 20 27 122 26 37 21 23 151 47 35 34 84 22 1991 54 68 42
leaf_count=1708 103 28 84 25 26 1600 100 27 23 39 459 1710 21 20 27 122 26 37 21 23 151 47 35 34 84 22 1991 54 68 42
internal_value=4.40147e-08 173.901 -12.2438 135.61 339.829 -16.2991 42.7328 297.128 107.453 188.794 -8.33274 -19.5539 164.302 213.286 268.157 29.5111 128.812 62.5359 121.821 89.9076 -1.29436 38.8226 152.182 70.4136 20.1441 232.366 -17.7361 75.5596 127.249 100.313
internal_weight=8757 576 8181 468 108 7619 562 82 306 162 2210 5409 81 81 55 337 138 225 112 168 610 169 60 125 168 42 3701 88 89 65
internal_count=8757 576 8181 468 108 7619 562 82 306 162 2210 5409 81 81 55 337 138 225 112 168 610 169 60 125 168 42 3701 88 89 65
is_linear=0
shrinkage=0.05


Tree=22
num_leaves=31
num_cat=0
split_feature=22 22 22 22 21 22 22 15 22 21 22 22 22 2 20 22 22 8 21 22 22 22 22 8 12 19 13 9 10 9
split_gain=6.7321e+09 1.0748e+09 9.87493e+08 2.31544e+08 1.55848e+08 9.50085e+07 6.3051e+07 5.33042e+07 3.06986e+07 2.83892e+07 2.44916e+07 2.35694e+07 2.01127e+07 9.03417e+06 8.48988e+06 8.46251e+06 5.46829e+06 5.46571e+06 5.29684e+06 4.90239e+06 4.78565e+06 4.19314e+06 4.00559e+06 3.86156e+06 6.02772e+06 3.30712e+06 3.26852e+06 3.08e+06 3.28808e+06 2.88245e+06
threshold=551.39285714285722 1300.1785714285716 264.9285714285715 888.21428571428589 1919.6428571428573 120.67857142857143 405.03571428571433 6.1350000000000007 655.64285714285722 688.14285714285722 187.10714285714289 1113.6785714285718 89.892857142857153 1.1150000000000004 429.66666666666674 346.64285714285717 831.75000000000011 20.950000000000003 578.357142857143 142.53571428571431 461.89285714285717 66.607142857142875 100.39285714285715 11.250000000000002 5.535000000000001 579.45000000000016 6.495000000000001 8.5500000000000025 8.5500000000000025 32.95000000000001
decision_type=2 2 2 2 2 2 2 2 2 2 2 2 2 2 2 2 2 2 2 2 2 2 2 2 2 2 2 2 2 2
left_child=2 3 5 8 7 12 15 -3 18 -5 19 17 21 16 20 29 27 -11 -2 -7 -8 -1 -14 24 -16 -12 -13 -10 -29 -4
right_child=1 4 6 9 -6 10 14 -9 13 11 25 26 22 -15 23 -17 -18 -19 -20 -21 -22 -23 -24 -25 -26 -27 -28 28 -30 -31
leaf_value=-24.814676267864762 85.011774959120643 368.71749267578127 28.125822219042711 149.5752941313244 461.9235717773438 -8.3612295541134518 51.408560210583261 269.39613909040179 115.36652601592397 182.05608803353661 8.6319602433224798 226.41354626464846 -16.672705470881859 160.87651774088545 113.8673908996582 47.508929013534335 152.07111982865769 211.71828955078126 110.13016923113567 -1.8569465679140653 71.008104457855225 -20.019371612444775 -13.238650379672073 75.470141016406771 75.048211364746095 23.169202044716588 252.24612681070963 118.50092298719619 141.19951140574921 46.233990067702081
leaf_weight=586 43 22 142 21 23 910 51 35 49 41 142 25 2163 27 20 142 22 25 41 425 80 2053 1398 81 20 54 24 27 39 26
leaf_count=586 43 22 142 21 23 910 51 35 49 41 142 25 2163 27 20 142 22 25 41 425 80 2053 1398 81 20 54 24 27 39 26
internal_value=7.0071e-08 185.338 -10.3698 150.604 352.061 -15.0217 53.6229 307.731 121.852 203.034 -3.86744 212.796 -17.7761 134.442 72.1979 38.5233 129.232 193.292 97.2719 -6.29058 63.3777 -21.0842 -15.3245 81.7471 94.4578 12.6371 239.066 124.863 131.914 30.9283
internal_weight=8757 464 8293 384 80 7731 562 57 248 136 1531 115 6200 164 252 310 137 66 84 1335 131 2639 3561 121 40 196 49 115 66 168
internal_count=8757 464 8293 384 80 7731 562 57 248 136 1531 115 6200 164 252 310 137 66 84 1335 131 2639 3561 121 40 196 49 115 66 168
is_linear=0
shrinkage=0.05


Tree=23
num_leaves=31
num_cat=0
split_feature=22 22 22 22 22 22 22 22 22 12 22 22 22 2 22 25 25 20 8 19 9 2 22 22 17 18 21 0 22 15
split_gain=6.07797e+09 1.14085e+09 6.61555e+08 2.11046e+08 2.07321e+08 6.8704e+07 5.17005e+07 4.68986e+07 4.24292e+07 2.086e+07 1.57882e+07 1.37119e+07 1.33286e+07 9.79598e+06 7.69121e+06 7.08459e+06 6.34679e+06 5.85969e+06 5.25467e+06 4.50449e+06 3.76628e+06 3.52027e+06 3.26716e+06 3.24306e+06 3.12492e+06 3.03062e+06 3.01839e+06 3.29035e+06 2.97404e+06 2.73588e+06
threshold=503.21428571428578 1194.6428571428576 222.96428571428575 1876.8214285714289 831.75000000000011 108.60714285714288 371.25000000000006 1471.714285714286 655.64285714285722 4.5650000000000004 151.67857142857147 78.607142857142875 1014.5000000000001 0.59499999999999986 300.39285714285717 -0.49813634056773481 -0.73866753694953124 463.00000000000006 16.450000000000003 759.45000000000016 8.5500000000000025 0.22499999999999962 719.67857142857144 128.25000000000003 138.65000000000006 244.25000000000006 648.21428571428589 17.050000000000004 441.35714285714295 5.2650000000000006
decision_type=2 2 2 2 2 2 2 2 2 2 2 2 2 2 2 2 2 2 2 2 2 2 2 2 2 2 2 2 2 2
left_child=2 4 5 7 8 11 14 13 17 -6 23 -1 -11 -3 -4 20 28 -2 -14 26 -10 -12 -22 -7 -16 -18 27 -19 -8 -27
right_child=1 3 6 -5 9 10 16 -9 15 12 21 -13 18 -15 24 -17 25 19 -20 -21 22 -23 -24 -25 -26 29 -28 -29 -30 -31
leaf_value=-21.178309700646167 73.902613532543185 220.26597769601005 20.646504864238558 430.96573721078732 132.52483853426847 -10.63359656402076 43.332468626234267 321.44971607349544 105.96151469837535 169.8862406746286 1.24622506595427 -15.829577468628665 187.82207220458986 262.47588975694447 31.799498102924613 144.32328747164817 53.941466549464636 81.413779907226569 219.63417200159142 75.108142852783203 110.14285543690558 20.684215826034546 133.9033239120092 -6.1862086124981159 48.311822891235352 65.481547244591056 113.04929527869592 106.87157592773438 60.774183324865398 85.076359889818278
leaf_weight=1745 64 28 168 26 22 1032 72 27 44 61 341 3824 25 27 101 31 42 30 27 26 23 25 39 680 40 79 26 22 37 23
leaf_count=1745 64 28 168 26 22 1032 72 27 44 61 341 3824 25 27 101 31 42 30 27 26 23 25 39 680 40 79 26 22 37 23
internal_value=-3.37249e-08 161.223 -10.7626 306.838 125.481 -14.6106 41.5957 267.481 102.647 177.069 -6.85199 -17.5056 185.741 240.987 27.8733 123.298 58.3554 85.8062 204.34 93.1316 117.149 2.57396 125.089 -8.86711 36.4838 65.2454 99.1394 92.1844 49.2531 69.9
internal_weight=8757 548 8209 108 440 7647 562 82 305 135 2078 5569 113 55 309 137 253 168 52 104 106 366 62 1712 141 144 78 52 109 102
internal_count=8757 548 8209 108 440 7647 562 82 305 135 2078 5569 113 55 309 137 253 168 52 104 106 366 62 1712 141 144 78 52 109 102
is_linear=0
shrinkage=0.05


Tree=24
num_leaves=31
num_cat=0
split_feature=22 22 22 22 3 25 22 22 22 22 22 20 14 13 22 8 21 21 14 21 21 10 0 21 21 22 5 14 21 22
split_gain=5.48682e+09 8.83042e+08 8.24482e+08 1.64462e+08 1.38637e+08 9.47926e+07 7.75033e+07 6.02167e+07 2.59348e+07 2.01763e+07 1.68734e+07 1.67651e+07 1.46937e+07 1.37167e+07 8.87724e+06 8.11788e+06 7.33502e+06 7.24491e+06 4.56e+06 4.33548e+06 4.16997e+06 3.4017e+06 3.20019e+06 3.19293e+06 3.15628e+06 3.04318e+06 3.6269e+06 2.71239e+06 2.55805e+06 2.44831e+06
threshold=582.78571428571433 264.9285714285715 1300.1785714285716 951.28571428571433 4.7500000000000009 -0.70291267844185523 120.67857142857143 426.28571428571439 719.67857142857144 174.03571428571431 91.607142857142875 1226.1666666666667 6.8550000000000013 6.495000000000001 346.64285714285717 32.600000000000009 561.64285714285722 425.28571428571433 5.245000000000001 67.500000000000014 909.71428571428589 10.15 39.250000000000007 139.50000000000003 206.21428571428575 655.64285714285722 0.47500000000000003 4.9850000000000012 335.9285714285715 103.03571428571429
decision_type=2 2 2 2 2 2 2 2 2 2 2 2 2 2 2 2 2 2 2 2 2 2 2 2 2 2 2 2 2 2
left_child=1 6 3 8 5 -4 10 14 15 23 19 16 -6 18 28 25 -10 -9 -5 -1 -20 -18 -19 -8 -11 26 -2 -16 -3 -12
right_child=2 7 4 13 12 -7 9 17 11 24 29 -13 -14 -15 27 -17 21 22 20 -21 -22 -23 -24 -25 -26 -27 -28 -29 -30 -31
leaf_value=-22.393007311774692 100.8559802827381 23.941492437104049 306.79420715332031 160.95474294026693 221.81861328125001 460.73621826171876 -7.9754284848682264 55.855210225793385 103.39476205233871 4.6394449440190764 -14.419960594084703 174.73978973388671 282.42739318847657 216.20753899651606 40.08737618764242 128.81443176269531 144.77110649557673 71.671212918150658 172.91022094090781 -17.71532052251009 202.38467763264975 124.4322755080003 92.93891098022462 -2.8202073481196686 15.960367270050762 103.37459532271986 73.367733751024517 53.948387573242194 37.43588897705078 -11.429757878094186
leaf_weight=618 21 118 20 24 20 20 797 79 29 145 2061 20 20 37 120 20 34 153 24 2496 24 52 20 482 107 43 28 50 50 1025
leaf_count=618 21 118 20 24 20 20 797 79 29 145 2061 20 20 37 120 20 34 153 24 2496 24 52 20 482 107 43 28 50 50 1025
internal_value=1.00858e-07 -9.05958 172.901 140.307 317.944 383.765 -13.5593 49.9014 117.731 -3.48483 -16.047 132.488 252.123 191.465 36.1089 99.9435 125.14 68.4009 178.75 -18.6436 187.647 132.473 74.1299 -6.03265 9.44634 93.6672 85.1484 44.1641 27.9577 -13.4268
internal_weight=8757 8321 436 356 80 40 7731 590 247 1531 6200 135 40 109 338 112 115 252 72 3114 48 86 173 1279 252 92 49 170 168 3086
internal_count=8757 8321 436 356 80 40 7731 590 247 1531 6200 135 40 109 338 112 115 252 72 3114 48 86 173 1279 252 92 49 170 168 3086
is_linear=0
shrinkage=0.05


Tree=25
num_leaves=31
num_cat=0
split_feature=22 22 22 22 22 22 15 22 22 22 22 22 20 24 18 8 22 25 25 18 2 17 10 1 18 25 25 22 22 22
split_gain=4.95485e+09 9.7424e+08 4.83784e+08 1.86054e+08 1.75671e+08 5.27165e+07 3.96529e+07 3.84797e+07 2.96962e+07 2.53482e+07 1.13484e+07 1.06678e+07 1.04608e+07 9.39152e+06 9.30775e+06 8.98245e+06 7.85877e+06 4.95227e+06 4.04173e+06 3.50033e+06 3.12809e+06 2.96911e+06 2.83659e+06 2.40325e+06 2.37545e+06 2.36244e+06 2.25389e+06 2.16714e+06 1.96302e+06 1.77808e+06
threshold=489.46428571428572 1194.6428571428576 210.67857142857147 779.53571428571433 1876.8214285714289 105.60714285714288 5.6250000000000009 371.25000000000006 621.14285714285722 951.28571428571433 138.32142857142858 77.821428571428598 1012.6666666666669 -0.7899999999999997 322.10000000000008 31.950000000000003 287.6785714285715 -0.73866753694953124 -0.76141707087277943 303.85000000000008 0.22499999999999962 138.65000000000006 10.750000000000002 6.6250000000000009 244.25000000000006 -0.45274443793211405 -0.40614700388750385 93.678571428571431 181.60714285714289 719.67857142857144
decision_type=2 2 2 2 2 2 2 2 2 2 2 2 2 2 2 2 2 2 2 2 2 2 2 2 2 2 2 2 2 2
left_child=2 3 5 8 6 11 -3 16 19 12 -7 -1 22 -8 -11 18 25 -9 -10 -2 28 -18 -5 -16 -19 -4 -26 -13 -12 -20
right_child=1 4 7 9 -6 10 13 17 15 14 20 27 -14 -15 23 -17 21 24 29 -21 -22 -23 -24 -25 26 -27 -28 -29 -30 -31
leaf_value=-19.312487080161322 67.715601356284125 289.48410317557199 11.78919295347654 134.66439461543641 390.35369027944716 -9.03273034625688 233.45071239471437 42.507328170776368 85.351175441240017 156.02172475961538 -3.0590936306367813 -15.572127825456182 164.4266296386719 191.01333562677559 202.48759033203126 131.22788432194636 27.597838104748337 46.805680073918523 98.6470937093099 82.534086145254292 17.010039060012154 42.388848844487619 112.90915074502269 178.53967475891113 71.989400616814109 23.998694437742234 55.555463423552339 -13.165540276241025 4.5481339904315332 114.29158039093018
leaf_weight=1636 103 28 104 29 26 1582 32 100 38 39 503 2058 21 22 20 26 122 37 42 65 23 47 31 22 34 64 54 1715 102 32
leaf_count=1636 103 28 104 29 26 1582 32 100 38 39 503 2058 21 22 20 26 122 37 42 65 23 47 31 22 34 64 54 1715 102 32
internal_value=-2.04946e-08 141.742 -9.97965 110.504 277.106 -13.2819 241.198 34.7889 87.566 153.833 -6.77528 -15.9404 134.054 216.161 173.611 104.752 24.0985 50.8008 98.6058 73.4489 -1.08851 31.7113 123.424 189.943 57.4356 16.4404 61.9049 -14.4782 -1.77655 105.412
internal_weight=8757 576 8181 468 108 7619 82 562 306 162 2210 5409 81 54 81 138 337 225 112 168 628 169 60 42 125 168 88 3773 605 74
internal_count=8757 576 8181 468 108 7619 82 562 306 162 2210 5409 81 54 81 138 337 225 112 168 628 169 60 42 125 168 88 3773 605 74
is_linear=0
shrinkage=0.05


Tree=26
num_leaves=31
num_cat=0
split_feature=22 22 22 22 21 22 14 22 22 22 13 21 21 20 18 8 14 21 20 25 18 22 10 22 21 21 16 18 3 8
split_gain=4.47175e+09 8.79252e+08 4.36615e+08 1.67914e+08 1.62523e+08 4.75812e+07 4.54414e+07 3.48165e+07 2.68008e+07 2.28767e+07 1.08347e+07 1.03293e+07 9.83709e+06 9.44087e+06 8.45926e+06 8.10666e+06 5.68695e+06 4.96498e+06 3.95769e+06 3.64766e+06 3.15905e+06 2.82383e+06 2.56002e+06 2.08059e+06 2.04518e+06 1.93715e+06 1.91299e+06 1.74406e+06 1.67993e+06 1.65831e+06
threshold=489.46428571428572 1194.6428571428576 210.67857142857147 779.53571428571433 1919.6428571428573 106.03571428571429 6.7550000000000008 346.64285714285717 621.14285714285722 951.28571428571433 5.5550000000000006 139.50000000000003 80.785714285714292 1012.6666666666669 331.65000000000003 31.950000000000003 4.705000000000001 206.21428571428575 343.50000000000006 -0.76141707087277943 303.85000000000008 163.92857142857147 10.750000000000002 65.321428571428598 425.28571428571433 387.21428571428572 68.300000000000054 296.10000000000008 5.3500000000000005 10.750000000000002
decision_type=2 2 2 2 2 2 2 2 2 2 2 2 2 2 2 2 2 2 2 2 2 2 2 2 2 2 2 2 2 2
left_child=2 3 5 8 6 12 10 17 20 13 -3 -7 23 22 -11 19 25 -4 -18 -10 29 -13 -5 -1 -19 -9 -20 -23 -22 -2
right_child=1 4 7 9 -6 11 -8 16 15 14 -12 21 -14 -15 -16 -17 18 24 26 -21 28 27 -24 -25 -26 -27 -28 -29 -30 -31
leaf_value=-20.562185990767048 57.669688633510049 225.32716979980469 8.3284436034969982 127.93117738921067 378.00017954508462 -8.5194247318002621 276.18302556818179 32.442444062568775 81.083617903056904 149.35976707821803 179.15546761971933 -3.235333692065661 -13.524579068291686 156.20529785156251 181.69841212737253 124.66649004129263 43.262882608266978 22.424142701463552 53.50002766061337 100.14166315439586 89.269622802734375 0.67198027282729189 107.26369274508568 -16.934968985398836 37.632278869628912 44.295336703400118 69.349522876739499 10.515902332698598 72.459011050633023 70.373274880868422
leaf_weight=550 49 24 64 29 24 1567 33 71 38 42 27 409 3486 21 39 26 65 191 47 74 23 133 31 1406 25 67 32 68 42 54
leaf_count=550 49 24 64 29 24 1567 33 71 38 42 27 409 3486 21 39 26 65 191 47 74 23 133 31 1406 25 67 32 68 42 54
internal_value=-9.41514e-08 134.655 -9.48067 104.979 263.251 -12.6178 230.465 33.0495 83.1877 146.141 200.883 -6.37057 -15.117 127.352 164.93 99.5144 45.4503 20.5601 52.4012 93.6755 69.7765 -0.850486 117.253 -17.9549 24.1843 38.1971 59.9201 4.00226 78.4074 64.3298
internal_weight=8757 576 8181 468 108 7619 84 562 306 162 51 2177 5442 81 81 138 282 280 144 112 168 610 60 1956 216 138 79 201 65 103
internal_count=8757 576 8181 468 108 7619 84 562 306 162 51 2177 5442 81 81 138 282 280 144 112 168 610 60 1956 216 138 79 201 65 103
is_linear=0
shrinkage=0.05


Tree=27
num_leaves=31
num_cat=0
split_feature=22 22 22 22 25 22 22 22 22 21 22 22 22 8 22 23 9 11 20 21 20 18 20 22 22 18 14 14 22 18
split_gain=4.03575e+09 7.94254e+08 3.94045e+08 1.95364e+08 1.16795e+08 1.09557e+08 4.31496e+07 3.171e+07 2.07465e+07 1.38935e+07 1.15437e+07 1.04035e+07 7.59052e+06 6.6334e+06 6.55172e+06 5.97407e+06 5.75341e+06 4.96013e+06 4.4135e+06 4.23249e+06 3.41214e+06 2.85104e+06 2.48999e+06 2.21608e+06 2.02575e+06 2.01766e+06 1.95156e+06 1.90625e+06 1.80095e+06 1.76327e+06
threshold=489.46428571428572 1113.6785714285718 210.67857142857147 1471.714285714286 -0.63921128368950708 719.67857142857144 113.10714285714288 371.25000000000006 888.21428571428589 983.78571428571433 621.14285714285722 83.321428571428598 151.67857142857147 6.2500000000000009 287.6785714285715 493.28333333333336 14.550000000000002 18.250000000000004 1226.1666666666667 561.64285714285722 583.83333333333337 303.85000000000008 266.50000000000006 97.107142857142875 65.321428571428598 236.15000000000006 4.705000000000001 5.6250000000000009 130.82142857142858 318.05000000000007
decision_type=2 2 2 2 2 2 2 2 2 2 2 2 2 2 2 2 2 2 2 2 2 2 2 2 2 2 2 2 2 2
left_child=2 5 6 9 -5 10 11 14 17 -3 21 24 28 -10 25 -12 -11 -7 -15 26 -19 -2 -16 -13 -1 -4 -9 -17 -8 -14
right_child=1 3 7 4 -6 8 12 19 13 16 15 23 29 18 22 27 -18 20 -20 -21 -22 -23 -24 -25 -26 -27 -28 -29 -30 -31
leaf_value=-19.534076249556108 61.113329974424495 149.44738052368163 9.8383863985538493 246.32878378591232 396.96473777077415 100.811302136618 -8.1671747649424784 37.684903852674694 118.35344390869142 217.91125821200285 110.7041771930197 -13.532290016078733 -0.06827797983822069 141.07198936060857 22.465564548538396 73.682398883716488 186.0775427246094 107.82708900088356 168.82247951341714 62.186081650677856 135.42486724853515 74.487012502230129 34.605702573199601 -11.052410808295324 -15.994467511411575 20.875827611459272 47.809926099116261 91.775739510854095 -4.570486033336663 9.8634973526000991
leaf_weight=550 103 20 94 31 22 63 925 90 20 22 23 2195 285 38 83 37 40 21 23 34 24 65 86 1528 1525 74 101 24 558 53
leaf_count=550 103 20 94 31 22 63 925 90 20 22 23 2195 285 38 83 37 40 21 23 34 24 65 86 1528 1525 74 101 24 558 53
internal_value=-3.28571e-08 127.922 -9.00664 234.041 308.857 95.4372 -11.9869 31.397 124.214 185.684 73.8547 -14.0957 -5.27274 143.342 21.6924 88.9888 197.373 109.867 151.535 45.9323 122.546 66.2877 28.6434 -12.5145 -16.9327 14.7001 43.039 80.8011 -6.81387 1.48907
internal_weight=8757 576 8181 135 53 441 7619 562 189 82 252 5798 1821 81 337 84 62 108 61 225 45 168 169 3723 2075 168 191 61 1483 338
internal_count=8757 576 8181 135 53 441 7619 562 189 82 252 5798 1821 81 337 84 62 108 61 225 45 168 169 3723 2075 168 191 61 1483 338
is_linear=0
shrinkage=0.05


Tree=28
num_leaves=31
num_cat=0
split_feature=22 22 22 22 20 22 11 22 21 22 21 22 22 20 2 20 11 14 8 19 8 17 21 22 16 5 10 19 22 2
split_gain=3.64279e+09 5.91061e+08 5.33821e+08 1.23604e+08 1.12372e+08 5.22375e+07 3.62514e+07 3.49213e+07 1.95022e+07 1.67714e+07 1.3352e+07 1.26194e+07 1.14648e+07 5.11929e+06 4.82173e+06 4.78188e+06 4.47651e+06 4.18284e+06 3.92136e+06 5.59489e+06 3.80993e+06 3.17666e+06 2.98279e+06 2.98194e+06 2.7527e+06 2.48608e+06 2.68037e+06 2.40282e+06 2.36113e+06 2.23363e+06
threshold=551.39285714285722 1300.1785714285716 264.9285714285715 888.21428571428589 1748.6666666666667 120.67857142857143 31.050000000000004 405.03571428571433 688.14285714285722 719.67857142857144 175.07142857142858 1113.6785714285718 91.464285714285737 444.83333333333343 0.74500000000000022 249.50000000000003 18.250000000000004 5.9450000000000012 15.950000000000001 683.50000000000011 20.950000000000003 123.80000000000001 71.928571428571445 461.89285714285717 59.900000000000013 0.4250000000000001 12.850000000000003 713.05000000000007 143.96428571428575 0.22499999999999962
decision_type=2 2 2 2 2 2 2 2 2 2 2 2 2 2 2 2 2 2 2 2 2 2 2 2 2 2 2 2 2 2
left_child=2 3 5 9 6 12 -3 15 -5 14 28 20 22 23 17 -4 -11 25 19 -15 -10 -18 -1 -9 -13 -2 -27 -17 -7 -12
right_child=1 4 7 8 -6 10 -8 13 11 16 29 24 -14 18 -16 27 21 -19 -20 -21 -22 -23 -24 -25 -26 26 -28 -29 -30 -31
leaf_value=-17.926534755770287 80.668555103648799 257.88071917909565 19.569864782522313 104.57589227585567 356.18951915394177 -6.090721408630337 178.05934277343749 37.754785537719727 133.32278710342035 95.770737299843447 5.5077489497275325 186.03925654970368 -10.957177019622964 90.778898898037994 94.858391224254262 30.774504846792958 104.53648535156252 88.131113862991342 53.75374803254099 54.697850472586495 158.08779394531251 131.27125930786133 -14.349213582539612 52.648241698875864 161.92725814819337 69.427748154148915 46.230654659271238 48.268883722478698 -1.3387598161341896 17.028353191722523
leaf_weight=781 22 33 106 21 22 934 25 54 41 63 179 29 3124 22 33 182 25 32 66 21 25 20 2295 89 20 33 20 22 363 55
leaf_count=781 22 33 106 21 22 934 25 54 41 63 179 29 3124 22 33 182 25 32 66 21 25 20 2295 89 20 33 20 22 363 55
internal_value=5.51301e-08 136.335 -7.62803 110.577 259.971 -11.0483 223.475 39.4222 148.884 89.57 -2.77744 156.975 -13.0907 53.246 78.1497 28.1848 104.374 72.9966 61.4086 73.1579 142.703 116.419 -15.2575 47.0241 176.198 66.5392 60.6741 32.6612 -4.76076 8.21558
internal_weight=8757 464 8293 384 80 7731 58 562 136 248 1531 115 6200 252 140 310 108 107 109 43 66 45 3076 143 49 75 53 204 1297 234
internal_count=8757 464 8293 384 80 7731 58 562 136 248 1531 115 6200 252 140 310 108 107 109 43 66 45 3076 143 49 75 53 204 1297 234
is_linear=0
shrinkage=0.05


Tree=29
num_leaves=31
num_cat=0
split_feature=22 22 22 22 22 21 15 22 22 12 21 24 22 22 12 22 25 21 22 25 25 9 18 13 15 0 17 15 2 21
split_gain=3.2891e+09 6.4723e+08 3.21222e+08 1.35319e+08 1.24318e+08 3.57335e+07 3.08115e+07 2.64897e+07 2.5782e+07 1.34791e+07 8.08934e+06 7.53408e+06 6.94349e+06 6.75983e+06 5.47512e+06 5.29919e+06 5.14317e+06 4.36671e+06 4.79737e+06 3.76735e+06 3.55694e+06 2.7441e+06 2.88731e+06 2.54901e+06 2.31318e+06 2.20408e+06 2.1794e+06 2.11749e+06 2.0753e+06 1.86824e+06
threshold=489.46428571428572 1194.6428571428576 210.67857142857147 1876.8214285714289 831.75000000000011 109.50000000000001 5.6250000000000009 655.64285714285722 371.25000000000006 4.5650000000000004 81.785714285714292 -0.7899999999999997 1113.6785714285718 141.60714285714289 6.6400000000000015 287.6785714285715 -0.49813634056773481 448.9285714285715 621.14285714285722 -0.61237985104942771 -0.73866753694953124 8.5500000000000025 261.15000000000009 4.9650000000000007 5.245000000000001 16.950000000000003 138.65000000000006 5.3150000000000004 0.22499999999999962 536.42857142857156
decision_type=2 2 2 2 2 2 2 2 2 2 2 2 2 2 2 2 2 2 2 2 2 2 2 2 2 2 2 2 2 2
left_child=2 4 5 6 7 10 -3 17 15 -6 -1 -8 14 -7 19 -4 21 24 25 -11 -10 23 -23 -9 -2 29 -17 -27 -15 -19
right_child=1 3 8 -5 9 13 11 16 20 12 -12 -13 -14 28 -16 26 -18 18 -20 -21 -22 22 -24 -25 -26 27 -28 -29 -30 -31
leaf_value=-15.356872547196753 58.904151698521211 236.86416015625002 13.309629837317127 325.20900972806493 94.690059037642058 -6.7402843168992383 187.7161294937134 62.51076347351075 34.426488960266113 132.69125046502978 -11.417533864794988 149.70632019042969 160.72139562988284 -0.74696184610570926 152.46321799538353 22.325239735744038 108.39681814870526 47.318911957740788 87.291422965309835 107.85822982788086 47.078056585693361 104.30565615053531 82.543774239676338 86.679923391342172 35.144393539428712 80.040945669320919 34.997461180991316 60.692318479476434 14.617891183625098 63.196766385165134
leaf_weight=2025 21 28 168 26 22 1421 32 20 100 42 3656 22 25 494 22 122 31 32 22 24 125 27 35 24 20 26 47 31 23 44
leaf_count=2025 21 28 168 26 22 1421 32 20 100 42 3656 22 25 494 22 122 31 32 22 24 125 27 35 24 20 26 47 31 23 44
internal_value=-4.5907e-08 115.484 -8.1309 225.816 90.0231 -10.8217 194.301 73.615 28.3487 130.497 -12.8217 172.231 137.468 -4.9591 130.862 19.5982 90.4826 61.8249 65.6632 123.661 41.4551 85.2436 92.0207 75.6939 47.314 62.0856 25.8495 69.518 -0.0634191 56.5114
internal_weight=8757 576 8181 108 468 7619 82 333 562 135 5681 54 113 1938 88 337 137 196 155 66 225 106 62 44 41 133 169 57 517 76
internal_count=8757 576 8181 108 468 7619 82 333 562 135 5681 54 113 1938 88 337 137 196 155 66 225 106 62 44 41 133 169 57 517 76
is_linear=0
shrinkage=0.05


Tree=30
num_leaves=31
num_cat=0
split_feature=22 22 22 22 25 21 22 21 19 22 22 22 21 24 10 24 6 8 21 20 8 12 22 14 22 19 21 19 21 14
split_gain=2.96885e+09 4.77309e+08 4.69985e+08 1.25938e+08 1.01636e+08 4.30788e+07 3.34484e+07 1.61407e+07 1.56014e+07 1.07503e+07 9.94448e+06 9.9145e+06 9.307e+06 6.7918e+06 5.78439e+06 5.41429e+06 5.32329e+06 5.20361e+06 4.89519e+06 4.30401e+06 3.15481e+06 5.26628e+06 3.15043e+06 2.85121e+06 2.62501e+06 2.40694e+06 2.24808e+06 2.04868e+06 1.92568e+06 2.2933e+06
threshold=582.78571428571433 264.9285714285715 1471.714285714286 951.28571428571433 -0.63921128368950708 121.07142857142858 426.28571428571439 561.64285714285722 691.60000000000002 187.10714285714289 91.607142857142875 831.75000000000011 1047.8571428571429 -1.4999999999999996 13.250000000000002 -0.88000000000000012 7.0000000000000009 31.950000000000003 299.4285714285715 429.66666666666674 11.050000000000002 5.4450000000000012 748.64285714285722 5.4050000000000011 66.607142857142875 713.05000000000007 162.78571428571431 579.45000000000016 536.42857142857156 5.205000000000001
decision_type=2 2 2 2 2 2 2 2 2 2 2 2 2 2 2 2 2 2 2 2 2 2 2 2 2 2 2 2 2 2
left_child=1 5 3 7 -4 10 18 13 15 26 24 17 -10 -2 -15 -5 -14 22 -3 -8 21 -21 -9 -13 -1 -20 -7 -11 -22 -30
right_child=2 6 4 8 -6 9 19 11 12 27 -12 23 16 14 -16 -17 -18 -19 25 20 28 -23 -24 -25 -26 -27 -28 -29 29 -31
leaf_value=-16.788371771594367 91.065028713060471 18.550081295776369 208.4045085291709 144.22277196248373 348.92468123002487 -4.7699011769671005 43.224723226834186 74.966560324976001 132.09485749744235 5.5277977608459103 -9.7933870557586165 100.6016879272461 157.97641601562501 71.504257158551908 38.785949533635922 112.8065284729004 188.36963427734375 105.46143552718625 29.120365164015027 85.497301810128363 42.088011627197268 49.647281417846685 94.867020874023439 125.50956059208623 -13.074241887532835 45.929914474487305 1.2953844958476806 16.969592350059084 48.183066537039622 67.381157248360779
leaf_weight=586 23 125 31 24 22 1078 113 59 21 142 3165 20 34 35 22 32 25 31 189 21 35 20 30 27 2528 24 178 54 35 28
leaf_count=586 23 125 31 24 22 1078 113 59 21 142 3165 20 34 35 22 32 25 31 189 21 35 20 30 27 2528 24 178 54 35 28
internal_value=-4.05676e-08 -6.66411 127.184 107.872 266.734 -9.97229 36.6844 86.5974 146.512 -2.21079 -11.7671 95.4439 160.68 68.1304 58.8761 126.271 170.855 87.8195 26.4048 50.472 56.3637 68.0095 81.6746 114.91 -13.7732 31.0144 -3.91033 8.68013 51.4914 56.7156
internal_weight=8757 8321 436 383 53 7731 590 247 136 1452 6279 167 80 80 57 56 59 120 338 252 139 41 89 47 3114 213 1256 196 98 63
internal_count=8757 8321 436 383 53 7731 590 247 136 1452 6279 167 80 80 57 56 59 120 338 252 139 41 89 47 3114 213 1256 196 98 63
is_linear=0
shrinkage=0.05


Tree=31
num_leaves=31
num_cat=0
split_feature=22 22 22 3 19 22 21 22 14 22 13 20 23 22 21 14 9 8 0 21 1 21 22 21 21 15 14 21 8 0
split_gain=2.68071e+09 5.27251e+08 2.61382e+08 1.15773e+08 1.21955e+08 1.01359e+08 2.95232e+07 2.12443e+07 1.80029e+07 1.58576e+07 1.36048e+07 9.56768e+06 1.00492e+07 6.43173e+06 6.01313e+06 5.23576e+06 4.26843e+06 4.50169e+06 4.1763e+06 4.0003e+06 3.87644e+06 3.6411e+06 3.94864e+06 3.37533e+06 2.54724e+06 2.04786e+06 1.96321e+06 1.94593e+06 1.89446e+06 1.88233e+06
threshold=489.46428571428572 1194.6428571428576 210.67857142857147 4.7500000000000009 737.85000000000002 779.53571428571433 107.50000000000001 329.25000000000006 6.535000000000001 655.64285714285722 5.3750000000000009 1226.1666666666667 701.48333333333346 77.321428571428598 146.50000000000003 4.705000000000001 8.5500000000000025 24.350000000000005 36.750000000000007 648.21428571428589 5.3750000000000009 448.9285714285715 621.14285714285722 549.00000000000011 206.21428571428575 5.245000000000001 3.7150000000000003 387.21428571428572 40.250000000000007 16.950000000000003
decision_type=2 2 2 2 2 2 2 2 2 2 2 2 2 2 2 2 2 2 2 2 2 2 2 2 2 2 2 2 2 2
left_child=2 5 6 4 -3 9 13 24 -5 21 19 12 -12 -1 -8 27 -11 -18 23 -7 -14 25 29 -17 -4 -2 -16 -9 -28 -23
right_child=1 3 7 8 -6 10 14 15 -10 16 11 -13 20 -15 26 18 17 -19 -20 -21 -22 22 -24 -25 -26 -27 28 -29 -30 -31
leaf_value=-14.387103338119312 53.474661109561012 189.32433508300781 5.9841294300652326 126.47116955566408 352.76805536179319 83.732636260986339 -6.1302953990088511 22.923304011903962 181.39575129328549 67.703027208116325 90.206523315429692 150.0726303100586 115.4230457124256 -10.601457646193806 -2.1679968710113693 34.140915365476864 77.333048934936528 104.37974768066407 61.624324544270841 107.99759277343752 146.18074188232421 50.927807898270459 78.946880375255247 56.000596836635047 17.655796852958829 31.118980541229249 2.6359251734304738 34.122189178466797 18.993254059553148 62.947654536732458
leaf_weight=1560 21 25 62 25 21 33 1591 87 37 45 25 28 21 3996 298 111 40 25 21 35 20 76 22 21 190 20 154 70 20 57
leaf_count=1560 21 25 62 25 21 33 1591 87 37 45 25 28 21 3996 298 111 40 25 21 35 20 76 22 21 190 20 154 70 20 57
internal_value=-9.59506e-09 104.258 -7.3405 203.839 263.94 81.2777 -9.7678 25.5663 159.249 64.3469 113.258 125.582 115.192 -11.6644 -4.65999 34.3311 79.5405 87.7356 40.9135 96.222 130.427 55.8199 59.3249 37.6186 14.7842 42.5695 0.296048 27.9164 4.51608 56.0792
internal_weight=8757 576 8181 108 46 468 7619 562 62 306 162 94 66 5556 2063 310 110 65 153 68 41 196 155 132 252 41 472 157 174 133
internal_count=8757 576 8181 108 46 468 7619 562 62 306 162 94 66 5556 2063 310 110 65 153 68 41 196 155 132 252 41 472 157 174 133
is_linear=0
shrinkage=0.05


Tree=32
num_leaves=31
num_cat=0
split_feature=22 22 22 22 3 25 22 22 21 22 22 14 22 22 12 25 21 8 22 22 21 25 14 16 20 0 19 26 22 12
split_gain=2.41953e+09 4.58835e+08 2.62828e+08 1.15477e+08 8.85311e+07 6.2694e+07 2.86868e+07 2.08797e+07 1.67936e+07 1.66794e+07 1.30419e+07 9.14766e+06 7.32522e+06 4.91928e+06 4.56929e+06 4.26469e+06 3.7439e+06 3.54724e+06 3.3045e+06 3.26818e+06 2.98866e+06 2.72835e+06 2.96955e+06 2.31312e+06 3.46162e+06 2.18058e+06 2.36041e+06 1.96353e+06 1.86048e+06 1.82407e+06
threshold=503.21428571428578 1300.1785714285716 222.96428571428575 831.75000000000011 4.7500000000000009 -0.70291267844185523 118.60714285714288 371.25000000000006 599.28571428571433 655.64285714285722 1113.6785714285718 6.8550000000000013 89.464285714285737 155.96428571428575 6.6400000000000015 -0.49813634056773481 448.9285714285715 12.850000000000003 300.39285714285717 621.14285714285722 561.64285714285722 -0.61237985104942771 5.245000000000001 72.950000000000017 583.83333333333337 17.050000000000004 691.60000000000002 -0.90892157495189674 441.35714285714295 5.1850000000000014
decision_type=2 2 2 2 2 2 2 2 2 2 2 2 2 2 2 2 2 2 2 2 2 2 2 2 2 2 2 2 2 2
left_child=2 3 6 9 5 -3 12 18 -5 16 14 -6 -1 -8 21 23 -2 -12 -4 25 28 22 -10 24 -11 -18 -27 -20 -9 -15
right_child=1 4 7 8 11 -7 13 20 10 15 17 -13 -14 29 -16 -17 19 -19 27 -21 -22 -23 -24 -25 -26 26 -28 -29 -30 -31
leaf_value=-12.820693656467649 36.646399424626274 202.3818525695801 12.753815051345597 73.865649108886714 135.87100631713869 327.57570953369145 -4.5734830993925231 30.504896613090267 98.570819091796878 70.186641820271817 126.23839569091797 183.69270690917972 -9.3013353599818416 1.0939871427874985 131.20945739746094 93.909547941146357 48.436672694246539 153.08112621307373 30.624093737425625 74.999535439231181 49.042616744268514 91.426624298095703 124.31661097208661 58.393568741191523 92.654845809936532 74.306541581587368 52.243341516565401 18.486242123307854 40.042800820010832 13.21559871673584
leaf_weight=2539 26 20 168 20 20 20 1259 124 21 60 20 20 3540 274 22 31 71 32 54 22 42 24 24 22 24 22 27 87 87 35
leaf_count=2539 26 20 168 20 20 20 1259 124 21 60 20 20 3540 274 22 31 71 32 54 22 42 24 24 22 24 22 27 87 87 35
internal_value=-7.1691e-08 101.722 -6.79052 82.8055 212.38 264.979 -9.21593 26.2113 116.78 64.6488 122.782 159.782 -10.7713 -3.18604 111.367 77.5969 54.09 142.757 17.4908 57.2839 36.8621 105.041 112.302 72.8262 76.6061 54.036 62.1493 23.1348 34.4376 2.46699
internal_weight=8757 548 8209 468 80 40 7647 562 163 305 143 40 6079 1568 91 137 168 52 309 142 253 69 45 106 84 120 49 141 211 309
internal_count=8757 548 8209 468 80 40 7647 562 163 305 143 40 6079 1568 91 137 168 52 309 142 253 69 45 106 84 120 49 141 211 309
is_linear=0
shrinkage=0.05


Tree=33
num_leaves=31
num_cat=0
split_feature=22 22 21 22 20 14 22 22 22 21 22 21 22 14 12 25 0 8 21 22 21 25 14 16 11 1 14 23 10 23
split_gain=2.18391e+09 4.30713e+08 2.13132e+08 1.13605e+08 8.31941e+07 3.11894e+07 2.52012e+07 1.75267e+07 1.63649e+07 1.51562e+07 1.17703e+07 5.85581e+06 5.07575e+06 4.1861e+06 4.12378e+06 3.84888e+06 3.68832e+06 3.20138e+06 2.99834e+06 3.53194e+06 2.82137e+06 2.46233e+06 2.68002e+06 2.08759e+06 3.39365e+06 2.25075e+06 1.96153e+06 2.07747e+06 2.20131e+06 1.79416e+06
threshold=489.46428571428572 1300.1785714285716 206.21428571428575 831.75000000000011 1748.6666666666667 6.4750000000000005 105.60714285714288 655.64285714285722 329.25000000000006 599.28571428571433 1113.6785714285718 137.07142857142858 76.750000000000014 4.705000000000001 6.6400000000000015 -0.49813634056773481 36.750000000000007 12.850000000000003 425.28571428571433 621.14285714285722 561.64285714285722 -0.61237985104942771 5.245000000000001 72.950000000000017 17.250000000000004 5.1250000000000009 4.7750000000000012 147.73333333333338 14.250000000000002 172.28333333333336
decision_type=2 2 2 2 2 2 2 2 2 2 2 2 2 2 2 2 2 2 2 2 2 2 2 2 2 2 2 2 2 2
left_child=2 3 6 7 5 -3 12 18 29 -5 14 -8 -1 -10 21 23 20 -12 -2 -20 -15 22 -11 24 25 -9 -13 -28 -29 -4
right_child=1 4 8 9 -6 -7 11 15 13 10 17 26 -14 16 -16 -17 -18 -19 19 -21 -22 -23 -24 -25 -26 -27 27 28 -30 -31
leaf_value=-13.159783954475765 34.232685478210449 121.6896516345796 5.679292373218626 70.172367630004885 284.55054515491832 197.98134089289488 -6.0046524766228169 55.382845076199239 25.481741568369742 93.642278471447185 119.92647888183595 -1.5030642700088146 -9.702724749274541 30.819335953394575 124.64898376464845 89.21407043703141 56.621838596888949 145.42706985473635 49.867473441402929 70.555076297124231 51.263896751403813 86.855293273925781 118.10078099568685 55.473890624263078 84.667086704799118 77.185925292968761 -0.7662171358964881 25.905591247195289 3.5151057160418966 16.083009518949609
leaf_weight=1451 25 21 53 20 22 37 1547 29 156 21 20 584 3958 108 22 31 21 32 147 24 20 24 24 22 35 20 49 21 23 190
leaf_count=1451 25 21 53 20 22 37 1547 29 156 21 20 584 3958 108 22 31 21 32 147 24 20 24 24 22 35 20 49 21 23 190
internal_value=1.7532e-08 94.1027 -6.62549 76.7384 201.761 170.358 -8.78788 59.9967 23.4941 110.941 116.643 -4.3074 -10.6301 31.2065 105.799 73.717 37.2002 135.619 50.4064 52.771 34.0138 99.7889 106.687 69.1849 72.7758 64.2821 -0.429054 6.31527 14.2015 13.8139
internal_weight=8757 576 8181 496 80 58 7633 333 548 163 143 2224 5409 305 91 137 149 52 196 171 128 69 45 106 84 49 677 93 44 243
internal_count=8757 576 8181 496 80 58 7633 333 548 163 143 2224 5409 305 91 137 149 52 196 171 128 69 45 106 84 49 677 93 44 243
is_linear=0
shrinkage=0.05


Tree=34
num_leaves=31
num_cat=0
split_feature=22 22 22 22 25 21 21 22 22 22 14 22 21 3 22 20 10 11 19 1 25 15 13 8 20 25 24 22 19 2
split_gain=1.97098e+09 3.93728e+08 1.92552e+08 1.35741e+08 8.08423e+07 2.236e+07 1.9135e+07 1.58384e+07 1.58178e+07 1.39031e+07 6.92918e+06 5.57393e+06 5.14763e+06 4.41215e+06 4.14914e+06 3.81761e+06 3.5248e+06 4.27704e+06 3.42419e+06 2.75554e+06 2.73699e+06 3.53991e+06 4.62144e+06 2.48469e+06 2.48071e+06 2.41615e+06 2.38188e+06 2.22656e+06 1.95637e+06 1.72154e+06
threshold=489.46428571428572 1471.714285714286 210.67857142857147 831.75000000000011 -0.63921128368950708 102.92857142857144 909.71428571428589 371.25000000000006 655.64285714285722 1113.6785714285718 6.7550000000000008 133.82142857142858 599.28571428571433 5.1000000000000005 76.392857142857153 1226.1666666666667 8.5500000000000025 17.450000000000003 704.85000000000002 5.2650000000000006 -0.55657520495441892 5.7650000000000006 5.8150000000000004 8.6500000000000004 463.00000000000006 -0.73866753694953124 -0.70499999999999996 300.39285714285717 585.05000000000007 0.22499999999999962
decision_type=2 2 2 2 2 2 2 2 2 2 2 2 2 2 2 2 2 2 2 2 2 2 2 2 2 2 2 2 2 2
left_child=2 3 5 8 -3 14 12 18 20 15 13 -7 -5 -11 -1 -8 26 19 27 -18 24 22 -22 -14 28 -9 -10 -4 -2 -13
right_child=1 4 7 6 -6 11 9 25 16 10 -12 29 23 -15 -16 -17 17 -19 -20 -21 21 -23 -24 -25 -26 -27 -28 -29 -30 -31
leaf_value=-12.603335983824923 42.302735937209356 167.23442348357173 10.308253002679477 66.663749122619635 292.55869570645422 -6.04674269554324 89.645003073556097 26.429217897415164 72.273552911931816 144.36627319335938 160.99781219482423 -1.3313133578558356 84.822121320452013 114.04800557454428 -9.389859400205772 115.75471191406251 52.6245585214524 88.4849592551207 35.156355113983153 77.192697143554696 80.286264176802206 41.179002350774311 49.662867164611818 108.61016368036685 50.760985218394893 36.856429819488532 50.613486255009974 18.81816493633367 23.302823157310485 12.008944429397584
leaf_weight=1363 42 31 186 20 22 1671 28 100 22 20 20 741 21 30 3819 28 21 39 20 25 22 29 28 23 55 125 30 131 20 25
leaf_count=1363 42 31 186 20 22 1671 28 100 22 20 20 741 21 30 3819 28 21 39 20 25 22 29 28 23 55 125 30 131 20 25
internal_value=3.66561e-08 89.3976 -6.29422 76.2379 219.256 -8.37756 109.96 21.9495 56.9968 121.269 136.125 -4.42773 87.6965 126.175 -10.2351 102.7 70.0312 76.3041 15.0909 65.9768 47.8861 55.0766 63.1372 97.2568 43.031 32.2221 59.7774 13.825 36.1737 -0.895926
internal_weight=8757 576 8181 523 53 7619 190 562 333 126 70 2437 64 50 5182 56 137 85 337 46 196 79 50 44 117 225 52 317 62 766
