tree
version=v4
num_class=1
num_tree_per_iteration=1
label_index=0
max_feature_idx=29
objective=regression
feature_names=rainfall_mm river_gauge_m gauge_exceed danger_gauge_m population_density road_accessibility_index distance_to_coast_km past_incident_30d rainfall_lag1 rainfall_lag3 rainfall_lag7 rainfall_lag14 gauge_lag1 gauge_lag3 gauge_lag7 gauge_lag14 rainfall_roll3 rainfall_roll7 rainfall_roll14 rainfall_roll30 demand_roll3 demand_roll7 demand_roll14 demand_roll30 gauge_trend_7 sin_doy cos_doy is_monsoon is_cyclone_season district_cat
feature_infos=[0:353.69999999999999] [0.5:11.84] [0:6.3399999999999999] [4.5:6] [488:854] [0.40000000000000002:0.75] [5:40] [0:30] [0:353.69999999999999] [0:353.69999999999999] [0:353.69999999999999] [0:353.69999999999999] [0.5:11.84] [0.5:11.84] [0.5:11.84] [0.5:11.84] [0.19999999999998136:430.5] [2.6000000000000294:472.90000000000003] [6.7999999999999998:625.70000000000005] [21.600000000000001:931.89999999999998] [53:3854.3333333333335] [56:3244.1428571428573] [59.285714285714285:2479.1428571428573] [60.166666666666664:1795.8] [-4.7699999999999996:6.8399999999999999] [-0.9999994220246925:0.99998555065071859] [-0.99997919295908233:0.9999907524084426] [0:1] [0:1] -1:0:1:2:3:4:5:6
tree_sizes=2740 2760 2766 2745 2766 2751 2768 2758 2771 2760 2756 2754 2757 2766 2761 2753 2749 2750 2763 2768 2763 2751 2717 2749 2739 2753 2748 2721 2726 2737 2731 2729 2737 2733 2747 2720 2719 2735 2713 2708 2703 2704 2726 2669 2691 2686 2684 2679 2686 2691 2708 2677 2715 2662 2703 2690 2704 2681 2684 2689 2690 2678 2657 2700 2669 2668 2676 2671 2673 2666 2643 2630 2659 2650 2690 2689 2707 2659 2676 2680 2684 2687 2672 2690 2694 2681 2670 2682 2657 2698 2662 2649 2696 2639 2688 2688 2652 2698 2668 2715 2649 2689 2677 2714 2680 2697 2702 2682 2687 2694 2667 2680 2667 2714 2696 2679 2651 2701 2704 2684 2691 2660 2673 2653 2684 2688 2688 2675 2685 2700 2684 2697 2683 2707 2681 2709 2653 2669 2681 2695 2683 2682 2689 2697 2676 2664 2674 2681 2674 2676 2685 2690 2664 2669 2666 2689 2717 2660 2697 2686 2680 2674 2716 2680 2672 2704 2695 2703 2693 2680 2680 2684 2681 2689 2678 2678 2692 2672 2694 2693 2652 2684 2672 2678 2680 2690 2692 2689 2688 2705 2691 2690 2704 2671 2681 2693 2706 2668 2700 2701 2683 2680 2719 2687 2663 2713 2693 2678 2695 2693 2712 2670 2712 2676 2697 2707 2734 2705 2687 2671 2700 2679 2683 2721 2705 2679 2705 2698 2674 2695 2678 2701 2714 2719 2675 2715 2652 2686 2682 2693 2680 2722 2681 2646 2691 2689 2694 2691 2673 2673 2716 2684 2690 2682 2671 2693 2692 2687 2685 2717 2695 2671 2685 2706 2710 2705 2708 2682 2669 2718 2696 2716 2728 2703 2690 2703 2685 2667 2689 2714 2700 2682 2718 2721 2693 2680 2705 2690 2689 2706 2692 2686 2721 2705 2693 2681 2678 2709 2694 2692 2714 2697 2729 2703 2679 2713 2697 2702 2708 2725 2721 2719 2669 2692 2697 2675 2711 2683 2696 2706 2729 2713 2721 2676 2678 2699 2686 2747 2697 2688 2699 2717 2729 2681 2721 2699 2692 2706 2696 2721 2749 2685 2700 2663 2690 2728 2707 2711 2694 2743 2709 2693 2720 2708 2729 2715 2694 2708 2707 2686 2710 2674 2688 2717 2684 2666 2688 2689 2747 2703 2720 2703 2719 2681 2700 2707 2707 2715 2713 2681 2688 2719 2727 2737 2723 2669 2714 2709 2698 2724 2717 2688 2724 2677 2691 2726 2686 2706 2689 2726

Tree=0
num_leaves=31
num_cat=0
split_feature=21 21 21 21 21 21 21 21 20 21 21 2 20 21 20 21 2 2 20 21 21 17 4 16 21 21 17 21 8 2
split_gain=1.73277e+10 3.09763e+09 2.64114e+09 5.12987e+08 3.59621e+08 2.62757e+08 1.92986e+08 8.1127e+07 6.5928e+07 6.5084e+07 5.81202e+07 4.25635e+07 3.32559e+07 2.18071e+07 2.06666e+07 2.03516e+07 1.45832e+07 1.45749e+07 1.09744e+07 7.45068e+06 6.4659e+06 6.39602e+06 6.17173e+06 5.87415e+06 5.79122e+06 5.54553e+06 5.28708e+06 4.83233e+06 4.49034e+06 3.8082e+06
threshold=623.357142857143 284.64285714285717 1361.4285714285718 1919.6428571428573 1047.8571428571429 129.07142857142858 437.35714285714295 796.57142857142867 1435.8333333333337 184.64285714285717 86.500000000000014 0.59499999999999986 944.83333333333348 375.50000000000006 463.00000000000006 104.64285714285715 1.7300000000000002 0.32500000000000023 583.83333333333337 561.64285714285722 146.50000000000003 138.65000000000006 650.00000000000011 66.950000000000003 688.14285714285722 206.21428571428575 132.05000000000004 69.785714285714292 17.050000000000004 0.48000000000000004
decision_type=2 2 2 2 2 2 2 2 2 2 2 2 2 2 2 2 2 2 2 2 2 2 2 2 2 2 2 2 2 2
left_child=1 5 4 8 7 10 13 17 -4 20 27 -6 18 21 26 -12 -10 24 -9 -16 -7 -3 -19 -21 -2 -11 -8 -1 -13 -15
right_child=2 6 3 -5 11 9 14 12 16 25 15 28 -14 29 19 -17 -18 22 -20 23 -22 -23 -24 -25 -26 -27 -28 -29 -30 -31
leaf_value=1143.0828695629784 1333.8456544466994 1232.6922258752707 1619.3730144044866 1941.3203333203974 1488.9177051211377 1168.7319331115775 1280.3821159851609 1380.7441230804418 1686.8989035863942 1190.0385227720708 1154.1928912369833 1549.5311459017776 1468.7423922396681 1260.4516544466992 1309.8229525852341 1161.6482521460582 1746.5561666537305 1368.722699740598 1425.5767201017475 1319.1008766689215 1177.2723734420038 1256.5893687324135 1404.5804323136078 1351.4493060898719 1367.5498050063447 1206.1861403124376 1303.31097151987 1148.0919649205148 1583.0361532259963 1282.2696544466994
leaf_weight=688 25 140 31 24 32 488 65 21 21 76 3066 20 40 100 114 1305 20 21 39 36 406 35 28 23 26 177 41 1604 20 25
leaf_count=688 25 140 31 24 32 488 65 21 21 76 3066 20 40 100 114 1305 20 21 39 36 406 35 28 23 26 177 41 1604 20 25
internal_value=1179.85 1165.11 1515.66 1741.13 1436.08 1156.84 1276.7 1401.58 1674.4 1178.95 1153.04 1531.9 1433.43 1248.86 1306.64 1156.42 1716 1369.74 1409.89 1317.29 1172.61 1237.47 1389.21 1331.71 1351.03 1201.34 1289.25 1146.59 1566.28 1264.82
internal_weight=8757 8389 368 96 272 7810 579 200 72 1147 6663 72 100 300 279 4371 41 100 60 173 894 175 49 59 51 253 106 2292 40 125
internal_count=8757 8389 368 96 272 7810 579 200 72 1147 6663 72 100 300 279 4371 41 100 60 173 894 175 49 59 51 253 106 2292 40 125
is_linear=0
shrinkage=1


Tree=1
num_leaves=31
num_cat=0
split_feature=21 21 21 21 21 21 21 21 21 20 21 2 24 21 20 21 2 21 2 21 21 21 9 11 17 16 21 17 12 21
split_gain=1.56383e+10 2.79561e+09 2.38363e+09 4.62971e+08 3.25666e+08 2.37576e+08 1.7417e+08 6.59528e+07 6.52776e+07 5.95e+07 4.77453e+07 2.69452e+07 2.10082e+07 1.96809e+07 1.86516e+07 1.71205e+07 1.48405e+07 1.44494e+07 1.31613e+07 1.09124e+07 7.99352e+06 6.72424e+06 5.98174e+06 5.82344e+06 5.77241e+06 5.30142e+06 5.00484e+06 4.77159e+06 4.20402e+06 4.0398e+06
threshold=623.357142857143 284.64285714285717 1361.4285714285718 1919.6428571428573 909.71428571428589 125.21428571428574 437.35714285714295 184.64285714285717 1101.8571428571431 1435.8333333333337 85.357142857142875 0.32500000000000023 1.0400000000000005 375.50000000000006 463.00000000000006 796.57142857142867 0.93499999999999972 102.92857142857144 1.7300000000000002 688.14285714285722 146.50000000000003 561.64285714285722 19.650000000000002 16.450000000000003 138.65000000000006 66.950000000000003 206.21428571428575 132.05000000000004 5.3150000000000004 69.785714285714292
decision_type=2 2 2 2 2 2 2 2 2 2 2 2 2 2 2 2 2 2 2 2 2 2 2 2 2 2 2 2 2 2
left_child=1 5 4 9 11 10 13 20 12 -4 29 19 23 24 27 22 -10 -12 -11 -2 -7 -16 -13 -6 -3 -23 -9 -8 -21 -1
right_child=2 6 3 -5 8 7 14 26 16 18 17 15 -14 -15 21 -17 -18 -19 -20 28 -22 25 -24 -25 -26 -27 -28 -29 -30 -31
leaf_value=-34.92492917083031 146.29971484375002 50.203960015433182 417.55070249495969 723.40065104166672 240.05896657307946 -11.350924424880958 95.509357534555292 9.6829421357104657 322.8310581054688 481.70031505766366 -24.629947083874754 180.3244092858356 318.40519775390629 80.720836621093753 123.47814855742872 250.44341837565105 378.48308211616853 -18.315817232606971 538.37466796875003 197.73697433471682 -2.4448994568122431 132.29218071831596 215.32950674203727 273.10281331380207 72.906246512276795 163.02319123641306 25.023178980983587 117.29176702731993 168.51467773437503 -30.311853900984222
leaf_weight=688 25 140 31 24 24 664 65 76 25 21 2964 23 20 125 114 24 23 1305 20 32 406 36 26 30 35 23 177 41 20 1530
leaf_count=688 25 140 31 24 24 664 65 76 25 21 2964 23 20 125 114 24 23 1305 20 32 406 36 26 30 35 23 177 41 20 1530
internal_value=-1.66442e-07 -13.9944 319.02 533.218 243.421 -21.8534 92.0138 -2.54319 304.086 469.823 -25.7917 194.08 274.63 65.5679 120.45 215.845 349.498 -22.6998 509.346 173.446 -7.97163 130.57 198.899 258.417 54.7444 144.272 20.415 103.935 186.498 -31.7428
internal_weight=8757 8389 368 96 272 7810 579 1323 122 72 6487 150 74 300 279 73 48 4269 41 77 1070 173 49 54 175 59 253 106 52 2218
internal_count=8757 8389 368 96 272 7810 579 1323 122 72 6487 150 74 300 279 73 48 4269 41 77 1070 173 49 54 175 59 253 106 52 2218
is_linear=0
shrinkage=0.05


Tree=2
num_leaves=31
num_cat=0
split_feature=21 21 21 21 21 21 21 21 21 20 21 2 20 21 20 2 2 21 20 21 21 4 17 20 16 21 13 2 8 14
split_gain=1.41136e+10 2.52304e+09 2.15122e+09 4.17831e+08 2.94936e+08 2.14839e+08 1.57188e+08 6.61412e+07 6.53415e+07 5.36988e+07 3.91435e+07 3.56063e+07 2.80231e+07 1.78161e+07 1.68331e+07 1.20352e+07 1.18781e+07 1.00329e+07 9.30043e+06 9.18051e+06 6.06863e+06 5.56318e+06 5.18766e+06 4.81623e+06 4.78453e+06 4.57382e+06 4.5324e+06 4.07017e+06 3.92408e+06 3.69515e+06
threshold=623.357142857143 284.64285714285717 1361.4285714285718 1919.6428571428573 1047.8571428571429 121.64285714285715 437.35714285714295 796.57142857142867 184.64285714285717 1435.8333333333337 84.071428571428584 0.59499999999999986 944.83333333333348 364.00000000000006 463.00000000000006 0.32500000000000023 1.7300000000000002 101.07142857142858 583.83333333333337 139.50000000000003 561.64285714285722 650.00000000000011 138.65000000000006 211.50000000000003 66.950000000000003 688.14285714285722 5.3150000000000004 0.44500000000000034 17.050000000000004 4.8250000000000011
decision_type=2 2 2 2 2 2 2 2 2 2 2 2 2 2 2 2 2 2 2 2 2 2 2 2 2 2 2 2 2 2
left_child=1 5 4 9 7 10 13 15 19 -4 -1 -6 18 22 26 25 -11 -12 -9 -7 29 -17 -3 -10 -22 -2 -8 -15 -13 -16
right_child=2 6 3 -5 11 8 14 12 23 16 17 28 -14 27 20 21 -18 -19 -20 -21 24 -23 -24 -25 -26 -27 -28 -29 -30 -31
leaf_value=-30.297372219556976 138.98473681640627 45.748279602547001 396.67316343245966 687.23063151041674 278.7140064239502 -12.236318592619391 88.201878415621252 180.3260948544457 12.131587950090568 457.61526111421136 -23.704346801474685 333.81453857421877 261.18135589599609 70.356127141316733 128.24907757302989 169.49989071800599 511.45596679687497 -18.481819265437892 221.59806988055891 -3.5997523867494459 125.67756890190972 203.54390520368304 69.951145652488421 25.947108610052812 154.87203103770381 168.93758497971757 108.88369256478768 90.946805216471361 365.13577514648438 109.90038766299978
leaf_weight=2145 25 123 31 24 32 705 52 21 120 21 2789 20 40 120 46 21 20 1372 39 546 36 28 27 133 23 26 54 30 20 68
leaf_count=2145 25 123 31 24 32 705 52 21 120 21 2789 20 40 120 46 21 20 1372 39 546 36 28 27 133 23 26 54 30 20 68
internal_value=9.79457e-10 -13.2947 303.069 506.557 231.25 -20.7608 87.4131 200.011 -3.78013 446.332 -24.8107 318.026 228.764 62.2895 114.428 171.257 483.879 -21.9823 207.153 -8.46688 124.041 188.954 50.1048 19.3943 137.058 154.255 98.7379 74.4743 349.475 117.304
internal_weight=8757 8389 368 96 272 7810 579 200 1504 72 6306 72 100 300 279 100 41 4161 60 1251 173 49 150 253 59 51 106 150 40 114
internal_count=8757 8389 368 96 272 7810 579 200 1504 72 6306 72 100 300 279 100 41 4161 60 1251 173 49 150 253 59 51 106 150 40 114
is_linear=0
shrinkage=0.05


Tree=3
num_leaves=31
num_cat=0
split_feature=21 21 21 21 21 21 21 21 20 21 21 2 20 21 20 21 2 21 2 21 21 9 21 21 20 21 16 12 2 14
split_gain=1.27375e+10 2.27705e+09 1.94148e+09 3.77093e+08 2.67191e+08 1.93978e+08 1.41862e+08 5.35334e+07 4.84631e+07 4.70627e+07 4.41778e+07 2.21849e+07 1.76807e+07 1.62709e+07 1.51918e+07 1.38642e+07 1.2259e+07 1.12944e+07 1.072e+07 9.96366e+06 8.69869e+06 5.76152e+06 5.54901e+06 5.47694e+06 4.89131e+06 4.386e+06 4.31804e+06 3.85283e+06 3.6294e+06 3.33487e+06
threshold=623.357142857143 284.64285714285717 1361.4285714285718 1919.6428571428573 909.71428571428589 131.78571428571431 437.35714285714295 1101.8571428571431 1435.8333333333337 93.357142857142875 198.00000000000003 0.32500000000000023 1226.1666666666667 375.50000000000006 463.00000000000006 745.857142857143 0.755 111.35714285714288 1.7300000000000002 78.928571428571445 688.14285714285722 18.750000000000004 165.35714285714286 561.64285714285722 295.83333333333343 500.9285714285715 66.950000000000003 5.3150000000000004 0.22499999999999962 4.8250000000000011
decision_type=2 2 2 2 2 2 2 2 2 2 2 2 2 2 2 2 2 2 2 2 2 2 2 2 2 2 2 2 2 2
left_child=1 5 4 8 11 9 13 12 -4 19 22 20 21 24 25 -13 -9 -11 -10 -1 -2 -6 -7 29 -3 -8 -25 -22 -12 -16
right_child=2 6 3 -5 7 10 14 16 18 17 28 15 -14 -15 23 -17 -18 -19 -20 -21 27 -23 -24 26 -26 -27 -28 -29 -30 -31
leaf_value=-29.359256330144202 132.03549365234377 38.459428875262923 376.8395200667843 652.86910705566413 217.34979542323524 -6.7875102070200697 84.723334464380301 285.86308593749999 434.73450288318458 -20.373234999393596 19.255093591881323 173.25058494774072 288.12087524414068 72.952848391723634 121.83661724588147 216.83460388183596 337.11663818359375 -13.953103789424896 485.88316406249999 -24.103077365169128 178.68491706848147 250.03639244666465 3.1000460914530596 119.39369388156467 55.759520707563922 105.19637519349445 147.12842752207879 150.70980194091797 41.694558115005492 104.40536696490119
leaf_weight=1781 25 65 31 24 28 644 59 20 21 2175 182 37 20 125 46 36 28 1000 20 1826 32 26 182 36 110 47 23 20 20 68
leaf_count=1781 25 65 31 24 28 644 59 20 21 2175 182 37 20 125 46 36 28 1000 20 1826 32 26 182 36 110 47 23 20 20 68
internal_value=-8.60025e-08 -12.63 287.916 481.229 219.688 -19.7227 83.0425 274.637 424.015 -22.7906 0.516897 174.995 247.962 59.1751 108.706 194.744 315.761 -18.3511 459.685 -26.6984 156.273 233.088 -4.6089 117.839 49.3338 93.801 130.206 167.925 21.4768 111.439
internal_weight=8757 8389 368 96 272 7810 579 122 72 6782 1028 150 74 300 279 73 48 3175 41 3607 77 54 826 173 175 106 59 52 202 114
internal_count=8757 8389 368 96 272 7810 579 122 72 6782 1028 150 74 300 279 73 48 3175 41 3607 77 54 826 173 175 106 59 52 202 114
is_linear=0
shrinkage=0.05


Tree=4
num_leaves=31
num_cat=0
split_feature=21 21 21 21 21 21 21 21 21 21 21 2 20 20 21 20 9 9 21 21 20 21 21 21 13 16 21 8 20 22
split_gain=1.14956e+10 2.05544e+09 1.75219e+09 3.40326e+08 2.42726e+08 1.63121e+08 1.4472e+08 5.41744e+07 4.44294e+07 4.43698e+07 3.16119e+07 2.93554e+07 2.31888e+07 2.02638e+07 2.01314e+07 1.37106e+07 1.06297e+07 8.1468e+06 7.38444e+06 6.13198e+06 6.08811e+06 5.64756e+06 4.94293e+06 4.3018e+06 3.96189e+06 3.89703e+06 3.73303e+06 3.64262e+06 3.43275e+06 3.21397e+06
threshold=623.357142857143 266.9285714285715 1361.4285714285718 1919.6428571428573 1047.8571428571429 121.07142857142858 437.35714285714295 796.57142857142867 175.07142857142858 1522.214285714286 86.500000000000014 0.59499999999999986 944.83333333333348 1571.0000000000002 327.35714285714295 463.00000000000006 22.950000000000003 18.450000000000003 101.07142857142858 139.50000000000003 351.50000000000006 206.21428571428575 561.64285714285722 688.14285714285722 5.3150000000000004 66.950000000000003 70.928571428571445 17.050000000000004 374.83333333333343 535.14285714285722
decision_type=2 2 2 2 2 2 2 2 2 2 2 2 2 2 2 2 2 2 2 2 2 2 2 2 2 2 2 2 2 2
left_child=1 5 4 9 7 10 14 16 19 -4 26 -6 17 -11 -3 24 23 -9 -12 -7 -16 -10 29 -2 -8 -24 -1 -13 -26 -17
right_child=2 6 3 -5 11 8 15 12 21 13 18 27 -14 -15 20 22 -18 -19 -20 -21 -22 -23 25 -25 28 -27 -28 -29 -30 -31
leaf_value=-30.091556785773705 131.10925885881699 35.513114746093748 347.30582071940103 620.22564900716145 251.72989006042482 -11.122930456380375 79.260334836519689 170.61554942411536 6.1184517040383071 396.69905156674594 -21.282259180977164 300.8917175292969 235.87474182128909 461.72957031250002 53.603947086288386 113.55562714607487 178.6613958543347 207.79586134690504 -16.731074811233466 -3.9135704877013384 70.100497991388508 20.372967718776906 113.42400444878473 156.08085345099954 83.961116492229962 139.77200662364132 -25.747560607035453 331.06879638671876 109.45541499968499 96.69996713491588
leaf_weight=722 35 100 24 24 32 732 52 34 128 23 2642 20 40 25 104 62 31 26 1345 494 121 152 36 34 23 23 1570 20 31 52
leaf_count=722 35 100 24 24 32 732 52 34 128 23 2642 20 40 25 104 62 31 26 1345 494 121 152 36 34 23 23 1570 20 31 52
internal_value=3.09739e-07 -11.9985 273.52 457.167 208.703 -18.8923 76.8558 180.363 -4.11384 402.815 -22.4368 287.425 206.386 430.569 54.1793 103.271 154.341 186.727 -19.7469 -8.21802 62.4754 13.8566 111.947 143.414 89.111 123.695 -27.116 315.98 98.5967 105.867
internal_weight=8757 8389 368 96 272 7785 604 200 1506 72 6279 72 100 48 325 279 100 60 3987 1226 225 280 173 69 106 59 2292 40 54 114
internal_count=8757 8389 368 96 272 7785 604 200 1506 72 6279 72 100 48 325 279 100 60 3987 1226 225 280 173 69 106 59 2292 40 54 114
is_linear=0
shrinkage=0.05


Tree=5
num_leaves=31
num_cat=0
split_feature=21 21 21 21 21 21 21 21 20 21 21 2 2 21 21 21 21 2 21 20 21 20 2 20 9 21 17 12 2 24
split_gain=1.03748e+10 1.8552e+09 1.58135e+09 3.07144e+08 2.19193e+08 1.58435e+08 1.15423e+08 4.39753e+07 4.10082e+07 4.07953e+07 3.4404e+07 2.67757e+07 1.9087e+07 1.37114e+07 1.25863e+07 1.13908e+07 1.00849e+07 9.45956e+06 7.05619e+06 6.7067e+06 6.25905e+06 6.14563e+06 6.06028e+06 4.86505e+06 4.80514e+06 4.7593e+06 4.27812e+06 3.45478e+06 3.2873e+06 3.20376e+06
threshold=623.357142857143 284.64285714285717 1361.4285714285718 1919.6428571428573 909.71428571428589 127.92857142857144 437.35714285714295 1047.8571428571429 1435.8333333333337 198.00000000000003 89.642857142857153 0.48500000000000038 0.32500000000000023 375.50000000000006 536.42857142857156 796.57142857142867 107.50000000000001 1.7300000000000002 688.14285714285722 944.83333333333348 147.78571428571431 583.83333333333337 1.345 463.00000000000006 19.650000000000002 73.500000000000014 138.65000000000006 5.3150000000000004 0.22499999999999962 -0.65499999999999992
decision_type=2 2 2 2 2 2 2 2 2 2 2 2 2 2 2 2 2 2 2 2 2 2 2 2 2 2 2 2 2 2
left_child=1 5 4 8 12 10 13 19 -4 20 25 -9 18 26 23 24 -12 -10 -2 -6 -7 -16 -13 -8 -14 -1 -3 -20 -11 -25
right_child=2 6 3 -5 7 9 14 11 17 28 16 22 15 -15 21 -17 -18 -19 27 -21 -22 -23 -24 29 -26 -27 -28 -29 -30 -31
leaf_value=-28.087213337434505 118.59294287109377 40.486607306344169 339.27791590536799 589.21436462402346 192.17421702509341 -8.6712850802647932 79.72735544840495 233.68933783637155 392.04766438802085 17.264421919872472 -19.365911554166964 279.50786234537759 145.63648708177649 66.077321791076656 102.00176805768695 204.32803293863935 -13.626340358143763 440.09538452148439 161.10593128204346 228.91628734447337 -0.68486592969694338 125.42647516159785 316.28750465029765 81.523008589311075 177.01054077148439 -23.661042828565112 60.030777718680248 134.61530792236329 38.620174368619921 104.22068988152272
leaf_weight=911 25 140 31 24 23 573 78 27 21 182 2823 24 23 125 84 24 1050 20 32 27 429 42 21 22 26 1822 35 20 20 53
leaf_count=911 25 140 31 24 23 573 78 27 21 182 2823 24 23 125 84 24 1050 20 32 27 429 42 21 22 26 1822 35 20 20 53
internal_value=1.50669e-07 -11.3986 259.844 434.309 198.268 -17.8007 74.9583 248.038 382.674 -1.11954 -20.841 273.053 157.789 53.4296 98.1075 176.107 -17.8099 415.486 140.422 212.015 -5.25195 109.81 296.672 88.4702 162.284 -25.1364 44.3954 150.917 19.3789 97.5627
internal_weight=8757 8389 368 96 272 7810 579 122 72 1204 6606 72 150 300 279 73 3873 41 77 50 1002 126 45 153 49 2733 175 52 202 75
internal_count=8757 8389 368 96 272 7810 579 122 72 1204 6606 72 150 300 279 73 3873 41 77 50 1002 126 45 153 49 2733 175 52 202 75
is_linear=0
shrinkage=0.05


Tree=6
num_leaves=31
num_cat=0
split_feature=21 21 21 21 21 21 21 21 21 21 21 2 2 21 24 21 21 2 21 21 20 25 21 11 21 20 12 14 21 25
split_gain=9.36322e+09 1.67487e+09 1.42717e+09 2.77198e+08 1.97821e+08 1.33176e+08 1.17709e+08 4.02808e+07 3.91828e+07 3.58732e+07 2.63656e+07 1.7226e+07 1.69956e+07 1.67472e+07 1.47538e+07 1.13592e+07 1.05117e+07 9.0755e+06 6.91338e+06 6.36822e+06 5.54643e+06 5.483e+06 4.75937e+06 4.58967e+06 4.52657e+06 4.39071e+06 3.11794e+06 2.93787e+06 2.70376e+06 2.35313e+06
threshold=623.357142857143 266.9285714285715 1361.4285714285718 1919.6428571428573 909.71428571428589 121.64285714285715 437.35714285714295 1101.8571428571431 1522.214285714286 175.07142857142858 84.071428571428584 0.32500000000000023 1.3049999999999999 327.35714285714295 0.69000000000000039 536.42857142857156 745.857142857143 0.93499999999999972 98.071428571428584 688.14285714285722 583.83333333333337 -0.72696319516528884 139.50000000000003 16.450000000000003 206.21428571428575 463.00000000000006 5.3150000000000004 4.8250000000000011 67.500000000000014 -0.82415615971448097
decision_type=2 2 2 2 2 2 2 2 2 2 2 2 2 2 2 2 2 2 2 2 2 2 2 2 2 2 2 2 2 2
left_child=1 5 4 8 11 10 13 14 -4 22 28 19 -10 -3 23 25 -13 -9 -12 -2 -17 -15 -7 -6 -11 -8 -21 -27 -1 -26
right_child=2 6 3 -5 7 9 15 17 12 24 18 16 -14 21 -16 20 -18 -19 -20 26 -22 -23 -24 -25 29 27 -28 -29 -30 -31
leaf_value=-27.512002289410937 112.66329370117188 31.902967460632325 311.37677154541018 559.75363362630208 178.53423447381886 -9.9480871282739844 75.740988550430686 250.45478808593748 355.88623918805803 5.6381180630065506 -19.71466869661991 148.58607194230362 415.86091489438661 47.84641445650913 242.83141573392427 96.901679702032183 186.53644409179688 293.97510614809784 -15.61173322059768 153.05063991546632 119.15515282040552 63.539161269895487 -3.5478472280659177 209.70085358796297 10.696251412133376 107.1102165222168 127.88454223632812 85.896027808095894 -23.592294432434603 23.423811077034994
leaf_weight=618 25 100 24 24 21 705 78 25 21 128 2318 37 27 101 26 84 36 23 1843 32 42 124 494 27 60 24 20 51 1527 92
leaf_count=618 25 100 24 24 21 705 78 25 21 128 2318 37 27 101 26 84 36 23 1843 32 42 124 494 27 60 24 20 51 1527 92
internal_value=-1.13347e-07 -10.8286 246.852 412.594 188.355 -17.0516 69.3792 235.636 363.54 -3.54807 -20.2187 149.899 389.622 48.9281 212.497 93.2021 167.301 271.308 -17.8974 133.401 104.32 56.4949 -7.31112 196.065 12.5659 84.0467 143.371 92.6846 -24.7216 18.3998
internal_weight=8757 8389 368 96 272 7785 604 122 72 1479 6306 150 48 325 74 279 73 48 4161 77 126 225 1199 48 280 153 52 75 2145 152
internal_count=8757 8389 368 96 272 7785 604 122 72 1479 6306 150 48 325 74 279 73 48 4161 77 126 225 1199 48 280 153 52 75 2145 152
is_linear=0
shrinkage=0.05


Tree=7
num_leaves=31
num_cat=0
split_feature=21 21 21 21 21 21 21 21 21 21 2 21 20 20 21 21 9 20 21 20 2 21 25 21 20 14 21 20 21 25
split_gain=8.45031e+09 1.51157e+09 1.28802e+09 2.50171e+08 1.7983e+08 1.20422e+08 1.06456e+08 4.05227e+07 3.61657e+07 3.53625e+07 2.25319e+07 2.11299e+07 1.76038e+07 1.5487e+07 1.35785e+07 1.25659e+07 8.5594e+06 7.05534e+06 5.66709e+06 5.51485e+06 5.11532e+06 4.74811e+06 4.09751e+06 4.08523e+06 4.05459e+06 3.13997e+06 3.07941e+06 2.28494e+06 2.15755e+06 2.1237e+06
threshold=623.357142857143 266.9285714285715 1361.4285714285718 1919.6428571428573 1047.8571428571429 116.78571428571429 425.28571428571433 796.57142857142867 175.07142857142858 1522.214285714286 0.48500000000000038 81.785714285714292 944.83333333333348 1571.0000000000002 500.9285714285715 327.35714285714295 22.950000000000003 583.83333333333337 139.50000000000003 583.83333333333337 1.345 96.642857142857153 -0.72696319516528884 206.21428571428575 463.00000000000006 4.9850000000000012 688.14285714285722 295.83333333333343 67.500000000000014 -0.82415615971448097
decision_type=2 2 2 2 2 2 2 2 2 2 2 2 2 2 2 2 2 2 2 2 2 2 2 2 2 2 2 2 2 2
left_child=1 5 4 9 7 11 15 16 18 -4 -6 28 17 -11 24 27 26 -9 -7 -16 -12 -13 -17 -10 -8 -26 -2 -3 -1 -25
right_child=2 6 3 -5 10 8 14 12 23 13 20 21 -14 -15 19 22 -18 -19 -20 -21 -22 -23 -24 29 25 -27 -28 -29 -30 -31
leaf_value=-26.136401130157765 111.82160766601562 24.136734530131022 295.80793304443358 531.76594136555991 210.58552291304977 -9.9837483127933009 67.206820756961136 136.55565970284599 5.3562121507595295 340.53085778277858 252.59251047770181 -18.962631831831995 202.74328979492191 397.38211523437502 89.788088967370214 44.415592096206993 153.86147697202622 172.50267240084136 -3.3704548270988322 108.85859408291904 286.38322288876492 -15.51834818180599 58.754906924265732 10.161438840031625 97.464043719951931 72.102223271908969 132.94941962747015 39.564444694519047 -22.592174487734148 22.252620537514275
leaf_weight=618 35 60 24 24 27 941 78 21 128 23 24 2230 40 25 122 94 31 39 494 55 21 1815 106 60 26 23 34 40 1407 92
leaf_count=618 35 60 24 24 27 941 78 21 128 23 24 2230 40 25 122 94 31 39 494 55 21 1815 106 60 26 23 34 40 1407 92
internal_value=-5.72989e-08 -10.2872 234.509 391.964 178.937 -16.199 65.9102 154.544 -4.49982 345.363 246.696 -19.5044 177.05 370.141 86.7629 44.7796 132.037 159.921 -7.70712 95.714 268.362 -17.4172 52.0154 11.9376 74.2878 85.5595 122.232 30.3078 -23.6738 17.4798
internal_weight=8757 8389 368 96 272 7785 604 200 1715 72 72 6070 100 48 304 300 100 60 1435 177 45 4045 200 280 127 49 69 100 2025 152
internal_count=8757 8389 368 96 272 7785 604 200 1715 72 72 6070 100 48 304 300 100 60 1435 177 45 4045 200 280 127 49 69 100 2025 152
is_linear=0
shrinkage=0.05


Tree=8
num_leaves=31
num_cat=0
split_feature=21 21 21 21 21 21 21 21 21 20 21 2 20 21 21 25 2 9 21 21 20 9 2 24 0 20 21 21 2 17
split_gain=7.6264e+09 1.36431e+09 1.16244e+09 2.25779e+08 1.62296e+08 1.16943e+08 8.49266e+07 3.65718e+07 3.40262e+07 3.29124e+07 2.2564e+07 2.042e+07 1.58874e+07 1.07874e+07 9.48063e+06 8.13025e+06 8.01739e+06 6.81602e+06 5.76431e+06 4.69986e+06 4.56429e+06 4.23161e+06 3.66588e+06 3.57622e+06 3.97553e+06 3.49509e+06 3.06433e+06 2.86762e+06 2.75197e+06 2.43788e+06
threshold=623.357142857143 284.64285714285717 1361.4285714285718 1919.6428571428573 1047.8571428571429 123.50000000000001 437.35714285714295 796.57142857142867 184.64285714285717 1435.8333333333337 88.500000000000014 0.66500000000000015 944.83333333333348 375.50000000000006 536.42857142857156 -0.52766804058324157 1.7300000000000002 18.450000000000003 104.64285714285715 146.50000000000003 583.83333333333337 22.950000000000003 0.22499999999999962 -0.65499999999999992 17.050000000000004 295.83333333333343 71.928571428571445 223.35714285714286 0.48000000000000004 138.65000000000006
decision_type=2 2 2 2 2 2 2 2 2 2 2 2 2 2 2 2 2 2 2 2 2 2 2 2 2 2 2 2 2 2
left_child=1 5 4 9 7 10 13 15 19 -4 26 -6 17 25 23 -2 -11 -9 -12 -7 -16 -17 27 -8 -25 -3 -1 -10 -15 -27
right_child=2 6 3 -5 11 8 14 12 22 16 18 -13 -14 28 20 21 -18 -19 -20 -21 -22 -23 -24 24 -26 29 -28 -29 -30 -31
leaf_value=-24.391756608751088 112.53979248046876 28.610562380277198 289.21788290700607 505.17765096028643 206.98291085379466 -8.2047878220402151 66.880997737004208 137.18822973475739 6.8325547891855241 335.9125883556548 -16.908004646807321 260.25868348817568 192.60612457275391 53.324919204711911 87.567191569010419 127.48311840820314 380.14633422851563 171.19652287409858 -12.54690311173886 -1.5383869436106146 107.75446196056549 158.33943054199221 32.943140395482381 72.864135220586036 94.257479623647839 38.780666549117484 -20.639345314807258 18.02298984145909 71.872043945312498 55.674601745605472
leaf_weight=792 55 65 31 24 35 758 65 34 115 21 2828 37 40 100 84 25 20 26 1035 406 42 20 24 49 39 81 1738 114 25 29
leaf_count=792 55 65 31 24 35 758 65 34 115 21 2828 37 40 100 84 25 20 26 1035 406 42 20 24 49 39 81 1738 114 25 29
internal_value=-7.74092e-09 -9.77284 222.784 372.366 169.99 -15.263 64.2828 146.817 -2.26734 328.095 -18.1435 234.361 168.198 45.8159 84.1397 125.436 357.49 151.925 -15.7396 -5.87957 94.2963 141.197 14.3518 75.7755 82.3453 37.8028 -21.814 12.4033 57.0343 43.2345
internal_weight=8757 8389 368 96 272 7810 579 200 1417 72 6393 72 100 300 279 100 41 60 3863 1164 126 45 253 153 88 175 2530 229 125 110
internal_count=8757 8389 368 96 272 7810 579 200 1417 72 6393 72 100 300 279 100 41 60 3863 1164 126 45 253 153 88 175 2530 229 125 110
is_linear=0
shrinkage=0.05


Tree=9
num_leaves=31
num_cat=0
split_feature=21 21 21 21 21 21 21 21 2 21 21 20 1 8 21 21 25 20 0 21 21 17 25 0 25 21 3 9 20 25
split_gain=6.88283e+09 1.2315e+09 1.05489e+09 2.28221e+08 1.34458e+08 9.83408e+07 8.68668e+07 3.3006e+07 2.99599e+07 2.87227e+07 1.78937e+07 1.48126e+07 1.41776e+07 1.27397e+07 1.13021e+07 1.03857e+07 7.33755e+06 5.70426e+06 4.79002e+06 4.32734e+06 4.26716e+06 4.127e+06 3.91845e+06 3.55103e+06 3.43006e+06 3.35006e+06 2.68795e+06 2.41832e+06 1.8934e+06 1.85774e+06
threshold=623.357142857143 266.9285714285715 1522.214285714286 1047.8571428571429 1919.6428571428573 117.78571428571429 425.28571428571433 796.57142857142867 0.48000000000000004 175.07142857142858 82.500000000000014 583.83333333333337 6.5250000000000012 11.450000000000001 500.9285714285715 327.35714285714295 -0.52766804058324157 944.83333333333348 22.950000000000003 137.07142857142858 98.071428571428584 203.80000000000004 -0.43733984355855576 17.050000000000004 -0.72696319516528884 206.21428571428575 5.3500000000000005 31.450000000000003 306.83333333333343 -0.83377653105606597
decision_type=2 2 2 2 2 2 2 2 2 2 2 2 2 2 2 2 2 2 2 2 2 2 2 2 2 2 2 2 2 2
left_child=1 5 3 7 12 10 15 16 -5 19 -1 -9 -4 -10 23 28 -2 -13 27 -7 -12 -15 -18 -8 -17 -11 -25 -16 -3 -27
right_child=2 6 4 8 -6 9 14 11 13 25 20 17 -14 21 18 24 22 -19 -20 -21 -22 -23 -24 26 -26 29 -28 -29 -30 -31
leaf_value=-21.334973015708869 106.91280312278055 22.310203847018158 309.97766864483174 192.81636057207663 479.91876627604171 -9.064213247573738 60.321056463779556 122.46360431852796 224.55296411132815 4.8352129756589424 -16.966036200225602 156.10251840444712 364.51500909978699 253.99197204589848 77.65235388183595 40.029798434643034 150.63308166503907 182.97581726074219 98.430112390350885 -3.335453393832799 -13.674093527202126 286.1128533935547 120.94046313476564 65.544163513183591 53.149354258123438 8.7767969789176146 88.970412475585945 96.698280029296882 36.833988503848808 20.155867443693445
leaf_weight=2061 55 66 26 31 24 825 78 21 25 128 2402 39 22 20 100 94 20 40 57 549 1668 20 25 24 106 58 25 20 34 94
leaf_count=2061 55 66 26 31 24 825 78 21 25 128 2402 39 22 20 100 94 20 40 57 549 1668 20 25 24 106 58 25 20 34 94
internal_value=3.32391e-08 -9.2842 211.644 169.893 383.289 -14.6203 59.4926 139.476 233.263 -3.8008 -17.5391 159.788 334.974 252.553 78.3292 40.4049 119.164 169.709 86.4956 -6.77521 -15.6169 270.052 134.137 66.9477 46.9832 10.795 77.4963 80.8267 27.2483 15.8139
internal_weight=8757 8389 368 296 72 7785 604 200 96 1654 6131 100 48 65 304 300 100 79 177 1374 4070 40 45 127 200 280 49 120 100 152
internal_count=8757 8389 368 296 72 7785 604 200 96 1654 6131 100 48 65 304 300 100 79 177 1374 4070 40 45 127 200 280 49 120 100 152
is_linear=0
shrinkage=0.05


Tree=10
num_leaves=31
num_cat=0
split_feature=21 21 21 21 2 21 21 21 2 21 2 21 20 20 8 21 9 21 21 17 21 21 21 20 21 21 22 12 17 21
split_gain=6.21175e+09 1.11142e+09 9.5204e+08 2.05969e+08 1.27017e+08 8.88336e+07 7.84733e+07 2.97879e+07 2.70388e+07 2.66567e+07 2.07166e+07 1.56635e+07 1.36885e+07 1.33683e+07 1.14976e+07 7.49481e+06 6.85696e+06 5.30008e+06 4.8031e+06 3.72462e+06 3.59023e+06 3.39005e+06 3.24535e+06 3.10662e+06 2.83962e+06 2.65645e+06 2.58178e+06 3.57073e+06 2.57616e+06 1.76315e+06
threshold=623.357142857143 266.9285714285715 1522.214285714286 1047.8571428571429 1.9600000000000002 116.78571428571429 416.35714285714295 796.57142857142867 0.48000000000000004 165.35714285714286 1.1900000000000002 81.785714285714292 444.83333333333343 583.83333333333337 11.450000000000001 327.35714285714295 22.950000000000003 909.71428571428589 206.21428571428575 203.80000000000004 96.642857142857153 549.00000000000011 500.9285714285715 583.83333333333337 136.21428571428575 688.14285714285722 535.14285714285722 5.4050000000000011 103.80000000000005 66.357142857142875
decision_type=2 2 2 2 2 2 2 2 2 2 2 2 2 2 2 2 2 2 2 2 2 2 2 2 2 2 2 2 2 2
left_child=1 5 3 7 10 11 15 16 -5 24 -4 29 22 -9 -10 -3 25 -15 -11 -16 -13 26 -8 -23 -7 -2 27 -14 -17 -1
right_child=2 6 4 8 -6 9 12 13 14 18 -12 20 21 17 19 28 -18 -19 -20 -21 -22 23 -24 -25 -26 -27 -28 -29 -30 -31
leaf_value=-22.638365764846935 94.76021990094867 25.885876319885256 277.12006134033203 183.17554075179564 455.18146777343759 -8.7915816725411897 55.171259919889678 116.34042438325429 213.32532153320312 3.3181642742260644 344.26007306134261 -16.275022480370218 98.396071000532686 147.0697492811415 241.29238098144535 37.729813377303309 132.73905679025958 173.07368731831397 15.023160969269904 271.80721435546877 -13.280002814784195 80.422918514329567 72.56860698900725 99.616876880542662 -4.0451020334985666 114.3835310094497 66.708735211690268 73.725285339355466 49.968962669372559 -19.379922604924602
leaf_weight=583 35 100 20 31 25 858 91 21 25 207 27 2230 22 36 20 99 31 43 152 20 1815 49 38 37 498 34 48 44 76 1442
leaf_count=583 35 100 20 31 25 858 91 21 25 207 27 2230 22 36 20 99 31 43 152 20 1815 49 38 37 498 34 48 44 76 1442
internal_value=1.80291e-08 -8.81999 201.062 161.398 364.124 -13.8892 56.518 132.502 221.6 -3.84097 315.69 -16.7283 72.9951 151.798 239.925 36.8054 113.206 161.224 8.27404 256.55 -14.9312 81.186 60.2961 88.6808 -7.04841 104.43 75.532 81.9489 43.0451 -20.318
internal_weight=8757 8389 368 296 72 7785 604 200 96 1715 47 6070 329 100 65 275 100 79 359 40 4045 200 129 86 1356 69 114 66 175 2025
internal_count=8757 8389 368 296 72 7785 604 200 96 1715 47 6070 329 100 65 275 100 79 359 40 4045 200 129 86 1356 69 114 66 175 2025
is_linear=0
shrinkage=0.05


Tree=11
num_leaves=31
num_cat=0
split_feature=21 21 21 21 21 21 21 8 21 21 21 0 2 24 20 20 21 2 21 21 21 11 21 12 13 21 0 9 2 20
split_gain=5.60611e+09 1.00332e+09 8.60347e+08 1.72141e+08 1.19738e+08 8.64647e+07 6.27413e+07 2.63567e+07 2.47311e+07 2.12382e+07 2.00507e+07 1.32118e+07 1.2412e+07 1.00563e+07 8.34278e+06 7.4747e+06 6.52582e+06 5.35574e+06 4.58386e+06 4.45778e+06 4.07724e+06 3.47954e+06 3.30137e+06 3.02031e+06 2.99603e+06 2.91521e+06 2.89919e+06 4.80624e+06 2.53825e+06 2.42893e+06
threshold=623.357142857143 284.64285714285717 1361.4285714285718 1919.6428571428573 909.71428571428589 129.07142857142858 437.35714285714295 11.450000000000001 1101.8571428571431 198.00000000000003 92.928571428571445 16.150000000000002 0.32500000000000023 0.69000000000000039 351.50000000000006 463.00000000000006 745.857142857143 0.93499999999999972 109.50000000000001 76.071428571428584 688.14285714285722 16.450000000000003 162.78571428571431 5.3150000000000004 5.3150000000000004 335.9285714285715 17.050000000000004 10.750000000000002 0.22499999999999962 374.83333333333343
decision_type=2 2 2 2 2 2 2 2 2 2 2 2 2 2 2 2 2 2 2 2 2 2 2 2 2 2 2 2 2 2
left_child=1 5 4 7 12 10 14 -4 13 22 19 -9 20 21 25 24 -14 -10 -12 -1 -2 -6 -7 -22 -8 -3 -17 -28 -11 -26
right_child=2 6 3 -5 8 9 15 11 17 28 18 -13 16 -15 -16 26 -18 -19 -20 -21 23 -23 -24 -25 29 -27 27 -29 -30 -31
leaf_value=-20.149911623878538 85.07447216796875 24.956583104133607 239.56036071777345 435.66315155029298 135.41430591401601 -5.1276577362325044 53.173966730557964 279.27811631422782 194.30713623046876 12.450746576144146 -13.654048848505376 332.59975702194947 115.69785915065457 189.28860896183895 48.66198231090199 72.313237908181179 145.5996275160048 227.73945524796196 -9.5339638691205852 -16.478158696811132 119.17220535278321 162.55119086371531 1.993009163624647 94.403268737792985 57.677867789890456 38.14440667412498 102.17811235700336 76.807008852277491 31.21632511138916 79.123047760994211
leaf_weight=1326 25 80 25 24 21 736 52 26 25 182 2160 21 37 26 132 89 36 23 982 2195 32 27 209 20 23 88 28 56 20 31
leaf_count=1326 25 80 25 24 21 736 52 26 25 182 2160 21 37 26 132 89 36 23 982 2195 32 27 209 20 23 88 28 56 20 31
internal_value=-4.17311e-08 -8.37899 191.009 319.695 145.591 -13.0871 55.128 281.039 182.375 -0.407197 -15.2699 303.103 115.672 164.244 39.2554 72.1954 130.444 210.327 -12.3664 -17.8609 101.668 150.679 -3.55282 109.646 61.7401 31.8645 78.6015 85.264 14.3087 69.989
internal_weight=8757 8389 368 96 272 7810 579 72 122 1147 6663 47 150 74 300 279 73 48 3142 3521 77 48 945 52 106 168 173 84 202 54
internal_count=8757 8389 368 96 272 7810 579 72 122 1147 6663 47 150 74 300 279 73 48 3142 3521 77 48 945 52 106 168 173 84 202 54
is_linear=0
shrinkage=0.05


Tree=12
num_leaves=31
num_cat=0
split_feature=21 21 21 21 2 21 21 21 20 21 2 21 21 20 20 20 7 25 9 21 9 9 21 20 16 21 21 15 15 20
split_gain=5.05951e+09 9.05626e+08 7.80433e+08 1.67065e+08 1.07626e+08 7.25247e+07 6.43616e+07 2.44782e+07 2.31666e+07 2.22759e+07 1.79036e+07 1.41592e+07 1.24978e+07 1.13153e+07 1.11766e+07 6.25152e+06 6.173e+06 5.98588e+06 5.58093e+06 3.69958e+06 3.37392e+06 3.12171e+06 2.97605e+06 2.74506e+06 2.72646e+06 2.7087e+06 2.68383e+06 2.14544e+06 2.18862e+06 2.0283e+06
threshold=623.357142857143 266.9285714285715 1522.214285714286 1047.8571428571429 1.9600000000000002 115.78571428571429 416.35714285714295 796.57142857142867 944.83333333333348 175.07142857142858 1.1900000000000002 1361.4285714285718 81.785714285714292 944.83333333333348 444.83333333333343 295.83333333333343 22.500000000000004 -0.52766804058324157 18.450000000000003 139.50000000000003 22.950000000000003 19.350000000000005 561.64285714285722 211.50000000000003 66.950000000000003 479.71428571428578 98.071428571428584 5.3150000000000004 5.0150000000000006 374.83333333333343
decision_type=2 2 2 2 2 2 2 2 2 2 2 2 2 2 2 2 2 2 2 2 2 2 2 2 2 2 2 2 2 2
left_child=1 5 3 7 10 12 15 17 -5 19 -4 16 -1 18 25 -3 -10 -2 -9 -7 -19 -17 27 -11 -24 -8 -14 28 -16 -27
right_child=2 6 4 8 -6 9 14 13 11 23 -12 -13 26 -15 22 21 -18 20 -20 -21 -22 -23 24 -25 -26 29 -28 -29 -30 -31
leaf_value=-18.358006554120852 90.964900124289784 22.620885112721435 248.65500518798828 163.33406097412112 412.91379052734374 -7.82747365183935 48.796386604309085 109.94671949498793 217.11930588942312 4.8386600848936272 311.07046440972226 251.44744506835937 -14.567327568548642 157.61361877441408 69.554391376042773 34.190327417282838 180.17093139648438 103.30872729492188 140.71994088979869 -2.5404110503085109 130.86105865478518 48.378366879054482 74.449711227416998 14.797391392135621 96.054289710003403 51.474810352325441 -11.904238303944005 61.794107564290371 88.350364176432294 72.172406426791483
leaf_weight=2025 55 93 20 30 25 1002 80 34 26 155 27 20 2438 40 59 126 20 25 26 494 20 56 40 125 23 20 1546 57 21 29
leaf_count=2025 55 93 20 30 25 1002 80 34 26 155 27 20 2438 40 59 126 20 25 26 494 20 56 40 125 23 20 1546 57 21 29
internal_value=6.32068e-08 -7.96004 181.459 145.547 329.095 -12.536 51.0193 119.522 199.766 -3.65902 284.511 216.325 -15.1596 137.015 65.9416 33.167 201.055 102.03 123.282 -6.08161 115.554 38.5559 73.3428 9.28452 82.3371 54.4667 -13.5339 69.2068 74.4883 63.7244
internal_weight=8757 8389 368 296 72 7785 604 200 96 1776 47 66 6009 100 329 275 46 100 60 1496 45 182 200 280 63 129 3984 137 80 49
internal_count=8757 8389 368 296 72 7785 604 200 96 1776 47 66 6009 100 329 275 46 100 60 1496 45 182 200 280 63 129 3984 137 80 49
is_linear=0
shrinkage=0.05


Tree=13
num_leaves=31
num_cat=0
split_feature=21 21 21 21 21 21 21 21 20 21 21 21 20 0 21 21 8 9 8 21 21 21 20 24 0 19 2 21 2 20
split_gain=4.56621e+09 8.17634e+08 7.04341e+08 1.50776e+08 9.89475e+07 7.06959e+07 5.11448e+07 2.20916e+07 2.09078e+07 1.78938e+07 1.59241e+07 1.27787e+07 1.06382e+07 9.38019e+06 7.27274e+06 6.29561e+06 5.80367e+06 5.50969e+06 4.47448e+06 4.29602e+06 3.87568e+06 3.85398e+06 3.14381e+06 2.67609e+06 2.98142e+06 2.48571e+06 2.37293e+06 2.19728e+06 2.1911e+06 2.17552e+06
threshold=623.357142857143 284.64285714285717 1522.214285714286 1047.8571428571429 1919.6428571428573 131.78571428571431 437.35714285714295 796.57142857142867 944.83333333333348 94.214285714285737 198.00000000000003 1361.4285714285718 583.83333333333337 18.950000000000003 364.00000000000006 536.42857142857156 17.050000000000004 22.950000000000003 22.450000000000003 77.214285714285737 110.78571428571429 909.71428571428589 560.50000000000011 -0.65499999999999992 17.050000000000004 630.85000000000014 0.43499999999999966 162.78571428571431 0.22499999999999962 720.33333333333337
decision_type=2 2 2 2 2 2 2 2 2 2 2 2 2 2 2 2 2 2 2 2 2 2 2 2 2 2 2 2 2 2
left_child=1 5 3 7 13 9 14 17 -5 19 27 16 -9 -4 25 23 -10 29 21 -1 -11 -14 -17 -8 -25 -3 -16 -7 -12 -2
right_child=2 6 4 8 -6 10 15 12 11 20 28 -13 18 -15 26 22 -18 -19 -20 -21 -22 -23 -24 24 -26 -27 -28 -29 -30 -31
leaf_value=-18.003454334188579 81.725008485375383 24.77341763534546 249.99289721679691 155.16735886772474 395.53397725423179 -4.1718798416529328 50.667262761042672 98.533130173456115 171.62432745070686 -12.082567422714822 11.26407237639139 238.87507629394531 114.63677730560303 294.23772609544835 40.012132453918461 66.614050573772857 207.27934326171876 114.43823380008821 152.62107414476802 -14.569968209327236 -8.2989053822953363 143.60932950106536 82.573592009367772 55.833964974539619 74.36043325570914 42.044365905761723 55.543285345262099 1.7599288638271213 28.699252166748046 99.805283464704246
leaf_weight=1516 41 125 25 30 24 617 65 21 21 1945 182 20 24 23 119 72 25 31 33 2283 1038 22 54 49 39 25 31 209 20 28
leaf_count=1516 41 125 25 30 24 617 65 21 21 1945 182 20 24 23 119 72 25 31 33 2283 1038 22 54 49 39 25 31 209 20 28
internal_value=7.43943e-08 -7.56204 172.386 138.27 312.64 -11.8122 49.7678 113.546 189.777 -13.6643 0.406441 205.509 130.164 271.194 35.4369 65.1773 191.002 96.9286 138.572 -15.9401 -10.766 128.493 73.4539 58.3614 64.0446 27.6519 43.2219 -2.67097 12.9903 89.0619
internal_weight=8757 8389 368 296 72 7810 579 200 96 6782 1028 66 100 48 300 279 46 100 79 3799 2983 46 126 153 88 150 150 826 202 69
internal_count=8757 8389 368 296 72 7810 579 200 96 6782 1028 66 100 48 300 279 46 100 79 3799 2983 46 126 153 88 150 150 826 202 69
is_linear=0
shrinkage=0.05


Tree=14
num_leaves=31
num_cat=0
split_feature=21 21 21 21 20 21 21 21 2 21 21 20 20 20 11 0 20 25 8 21 21 25 21 21 21 24 11 10 0 9
split_gain=4.121e+09 7.37926e+08 6.35667e+08 1.36076e+08 9.3497e+07 5.93442e+07 5.26798e+07 1.99377e+07 1.96578e+07 1.61625e+07 1.17979e+07 9.60099e+06 9.33052e+06 9.01404e+06 7.36856e+06 5.85691e+06 5.32014e+06 5.19568e+06 4.03821e+06 3.97129e+06 3.47822e+06 3.13864e+06 3.08224e+06 2.99425e+06 2.54813e+06 2.53053e+06 3.45578e+06 2.32113e+06 2.05474e+06 1.86705e+06
threshold=623.357142857143 266.9285714285715 1522.214285714286 1047.8571428571429 1748.6666666666667 121.07142857142858 416.35714285714295 796.57142857142867 0.48000000000000004 184.64285714285717 86.500000000000014 583.83333333333337 416.33333333333343 1748.6666666666667 20.450000000000003 13.550000000000002 351.50000000000006 -0.52766804058324157 22.450000000000003 500.9285714285715 909.71428571428589 -0.43733984355855576 146.50000000000003 102.92857142857144 335.9285714285715 -0.67999999999999972 10.450000000000001 39.250000000000007 22.950000000000003 19.350000000000005
decision_type=2 2 2 2 2 2 2 2 2 2 2 2 2 2 2 2 2 2 2 2 2 2 2 2 2 2 2 2 2 2
left_child=1 5 3 7 15 10 16 17 -5 22 -1 -9 -8 14 -10 -4 24 -2 20 25 -13 -19 -7 -12 -3 -14 -27 -11 -21 -18
right_child=2 6 4 8 -6 9 12 11 13 27 23 18 19 -15 -16 -17 29 21 -20 28 -22 -23 -24 -25 -26 26 -28 -29 -30 -31
leaf_value=-16.310995799459089 81.773160206187868 19.501366173753553 226.91357589721679 147.52586044803743 360.71101226806644 -6.2640457298862966 46.533436250195066 93.606476266043529 160.63586547851563 8.1728395140316419 -12.653380312276134 108.90493958791097 43.864455359322683 222.86552327473962 201.72878672281902 265.17881103515623 33.638790784563341 119.44555145263672 144.99001964222302 65.368616729421717 136.42886463512076 92.871227539062502 -0.98996057109953162 -9.5851716044607667 31.837377858497732 48.58607006072998 74.441995075770791 24.92405516582987 77.466314863725145 47.558972793970355
leaf_weight=2292 55 102 20 31 32 872 97 21 20 205 2890 24 28 21 24 20 63 20 33 97 22 25 406 1097 71 24 28 23 55 39
leaf_count=2292 55 102 20 31 32 872 97 21 20 205 2890 24 28 21 24 20 63 20 33 97 22 25 406 1097 71 24 28 23 55 39
internal_value=2.25765e-08 -7.18394 163.766 131.356 297.008 -11.3145 46.0553 107.869 180.288 -2.40072 -13.4525 123.656 59.5556 195.914 183.05 246.046 29.9041 92.0822 131.643 65.0002 122.069 104.682 -4.58855 -11.8092 24.5641 55.9831 62.5085 9.86266 69.7461 38.9612
internal_weight=8757 8389 368 296 72 7785 604 200 96 1506 6279 100 329 65 44 40 275 100 79 232 46 45 1278 3987 173 80 52 228 152 102
internal_count=8757 8389 368 296 72 7785 604 200 96 1506 6279 100 329 65 44 40 275 100 79 232 46 45 1278 3987 173 80 52 228 152 102
is_linear=0
shrinkage=0.05


Tree=15
num_leaves=31
num_cat=0
split_feature=21 21 21 21 2 21 21 20 2 21 2 21 8 21 20 21 0 21 21 21 17 20 2 16 2 25 13 16 10 20
split_gain=3.71921e+09 6.66469e+08 5.7369e+08 1.22808e+08 8.68969e+07 6.28422e+07 3.62254e+07 1.81341e+07 1.77412e+07 1.6398e+07 1.5098e+07 1.35107e+07 8.17198e+06 7.17333e+06 5.31764e+06 5.19201e+06 4.88154e+06 4.50422e+06 3.92735e+06 3.69867e+06 2.71712e+06 2.68865e+06 2.45776e+06 2.42701e+06 2.3128e+06 1.97338e+06 1.78717e+06 1.71853e+06 1.61468e+06 1.54602e+06
threshold=623.357142857143 299.4285714285715 1522.214285714286 1047.8571428571429 1.9600000000000002 136.21428571428575 437.35714285714295 788.83333333333337 0.48000000000000004 94.214285714285737 1.1900000000000002 198.00000000000003 11.450000000000001 745.857142857143 573.50000000000011 536.42857142857156 15.350000000000003 375.50000000000006 111.35714285714288 75.214285714285737 203.80000000000004 560.50000000000011 0.22499999999999962 97.200000000000031 0.45500000000000013 -0.66528616069191593 5.7150000000000007 66.950000000000003 9.2500000000000018 162.83333333333334
decision_type=2 2 2 2 2 2 2 2 2 2 2 2 2 2 2 2 2 2 2 2 2 2 2 2 2 2 2 2 2 2
left_child=1 5 3 7 10 9 17 14 -5 19 -4 29 -10 -9 -2 24 26 -3 -11 -1 -14 -17 -13 27 -8 -19 -16 -15 -23 -7
right_child=2 6 4 8 -6 11 15 13 12 18 -12 22 20 23 16 21 -18 25 -20 -21 -22 28 -24 -25 -26 -27 -28 -29 -30 -31
leaf_value=-16.73152152008706 76.174530029296875 27.454714248021446 209.16980484008792 140.14956655194683 357.47350634765627 -3.4999977130366133 49.705416980866467 95.684553063434109 163.69268969726565 -10.858727107681354 266.48652795862267 10.661329854174358 187.10219848632812 131.80164428710938 98.771652221679688 60.058939523167084 81.825120007550282 34.073699006580171 -7.181937370908952 -13.356112889089145 213.1651934814453 85.245518077503561 28.247216580130839 141.69425104314629 65.390067580650594 46.638746249291209 119.90914672851564 111.55059897682884 67.649134063720709 1.4749390356825214
leaf_weight=1175 46 150 20 31 25 437 124 23 25 1983 27 205 20 20 20 72 27 63 1146 2624 20 22 22 22 29 62 20 22 32 243
leaf_count=1175 46 150 20 31 25 437 124 23 25 1983 27 205 20 20 20 72 27 63 1146 2624 20 22 22 22 29 62 20 22 32 243
internal_value=5.53498e-08 -6.82474 155.578 124.788 282.158 -10.5722 46.1745 102.475 171.274 -12.1925 242.096 1.80366 186.118 119.634 89.2648 58.8681 98.2522 33.2962 -9.5121 -14.4001 200.134 66.3843 12.3657 128.241 52.6783 40.306 109.34 121.194 74.818 -1.72219
internal_weight=8757 8389 368 296 72 7835 554 200 96 6928 47 907 65 87 113 279 67 275 3129 3799 40 126 227 64 153 125 40 42 54 680
internal_count=8757 8389 368 296 72 7835 554 200 96 6928 47 907 65 87 113 279 67 275 3129 3799 40 126 227 64 153 125 40 42 54 680
is_linear=0
shrinkage=0.05


Tree=16
num_leaves=31
num_cat=0
split_feature=21 20 21 21 21 21 21 20 21 21 21 2 8 21 22 21 21 7 9 21 0 25 10 21 0 11 8 9 21 9
split_gain=3.35658e+09 6.02303e+08 5.17755e+08 1.10835e+08 8.28531e+07 4.79381e+07 4.64501e+07 1.68002e+07 1.66415e+07 1.56326e+07 1.22846e+07 8.35489e+06 8.23699e+06 7.90499e+06 6.7042e+06 5.80442e+06 5.6445e+06 4.78234e+06 4.7265e+06 4.47253e+06 2.52728e+06 2.28578e+06 2.22869e+06 1.97486e+06 1.95909e+06 2.40043e+06 1.91249e+06 1.79817e+06 1.52973e+06 1.51468e+06
threshold=623.357142857143 260.50000000000006 1522.214285714286 1047.8571428571429 1919.6428571428573 112.64285714285715 425.28571428571433 827.50000000000011 796.57142857142867 206.21428571428575 1361.4285714285718 0.32500000000000023 17.650000000000002 80.214285714285737 1014.5000000000001 500.9285714285715 327.35714285714295 22.500000000000004 22.950000000000003 147.78571428571431 22.950000000000003 -0.72696319516528884 34.650000000000013 688.14285714285722 17.050000000000004 10.750000000000002 24.550000000000004 31.050000000000004 95.500000000000014 12.950000000000001
decision_type=2 2 2 2 2 2 2 2 2 2 2 2 2 2 2 2 2 2 2 2 2 2 2 2 2 2 2 2 2 2
left_child=1 5 3 8 12 13 16 -5 18 19 17 14 -4 -1 -10 24 -3 -9 23 -7 27 -18 -11 -2 -8 -26 -13 -17 -15 -22
right_child=2 6 4 7 -6 9 15 10 11 22 -12 26 -14 28 -16 20 21 -19 -20 -21 29 -23 -24 -25 25 -27 -28 -29 -30 -31
leaf_value=-15.110709994584324 67.305518450055814 19.174342916765784 208.52916657820992 123.18155684698195 343.90308380126953 -6.2189582293900783 42.22360845866956 177.14685809795674 77.653317737579357 9.0665039013172031 207.335537109375 116.28737674836189 249.99027355957034 -12.096477379082744 116.84999359130859 54.39229977374174 27.47407211635424 147.61533434637661 99.146293689358629 -0.38855513115360213 81.08818756103517 38.447872055306732 26.494810840061735 84.225092225916256 42.266698056175599 64.629365784781314 134.87452148437501 70.843542785644544 -10.115007437858262 64.009611469990503
leaf_weight=1920 35 117 23 21 24 1330 76 26 24 145 20 31 25 2144 20 98 92 29 31 437 20 98 21 34 21 28 25 20 1785 37
leaf_count=1920 35 117 23 21 24 1330 76 26 24 145 20 31 25 2144 20 98 92 29 31 437 20 98 21 34 21 28 25 20 1785 37
internal_value=-2.47493e-08 -6.4835 147.799 118.549 268.05 -10.2252 41.4869 162.71 97.3517 -3.39885 173.778 111.775 230.123 -12.4812 95.47 55.4788 27.814 161.576 82.9288 -4.77703 61.3568 33.1342 11.2713 75.6427 47.2497 55.0454 124.585 57.1806 -11.1963 70.0021
internal_weight=8757 8389 368 296 72 7782 607 96 200 1933 75 100 48 5849 44 300 307 55 100 1767 175 190 166 69 125 49 56 118 3929 57
internal_count=8757 8389 368 296 72 7782 607 96 200 1933 75 100 48 5849 44 300 307 55 100 1767 175 190 166 69 125 49 56 118 3929 57
is_linear=0
shrinkage=0.05


Tree=17
num_leaves=31
num_cat=0
split_feature=21 21 21 21 20 21 21 20 20 11 21 20 21 21 20 15 9 0 0 21 17 24 8 8 18 16 16 21 10 26
split_gain=3.02932e+09 5.44489e+08 4.67274e+08 1.00028e+08 7.58742e+07 4.79565e+07 3.81461e+07 1.53328e+07 1.52299e+07 1.54375e+07 9.65353e+06 7.37606e+06 7.13774e+06 6.86839e+06 6.45073e+06 5.62448e+06 5.49455e+06 5.45533e+06 3.00451e+06 2.92701e+06 2.30798e+06 2.30573e+06 3.29549e+06 2.24046e+06 1.9983e+06 1.93298e+06 1.88174e+06 1.77201e+06 1.76542e+06 1.40064e+06
threshold=623.357142857143 238.35714285714286 1522.214285714286 1047.8571428571429 1748.6666666666667 416.35714285714295 112.64285714285715 752.33333333333348 1748.6666666666667 15.950000000000001 165.35714285714286 416.33333333333343 80.785714285714292 796.57142857142867 295.83333333333343 6.1350000000000007 17.850000000000005 13.550000000000002 13.250000000000002 561.64285714285722 138.65000000000006 -0.65499999999999992 15.350000000000003 7.7500000000000009 310.80000000000001 93.150000000000034 66.950000000000003 136.21428571428575 39.250000000000007 -0.89404254237865755
decision_type=2 2 2 2 2 2 2 2 2 2 2 2 2 2 2 2 2 2 2 2 2 2 2 2 2 2 2 2 2 2
left_child=1 6 3 7 17 14 12 16 9 -5 27 -7 -1 -9 -3 -11 18 -4 -2 21 -16 -13 23 -23 -18 -15 -21 -8 -12 -24
right_child=2 5 4 8 -6 11 10 13 -10 15 28 19 -14 25 20 -17 24 -19 -20 26 -22 22 29 -25 -26 -27 -28 -29 -30 -31
leaf_value=-14.319424607561363 79.064947633485531 15.87717373225329 190.27369995117189 116.25400634765624 312.03348960876468 39.527168478425018 -6.4019058308135151 89.627738444010419 192.21075904482888 179.84677628226905 3.3047337359085418 44.524579544067386 -10.61812639932527 110.90708908081056 26.459737129211426 144.48433283025568 82.656792776925229 227.20378875732422 56.886053591680074 58.721698099772141 38.601362419128421 56.459511820475257 57.988099779401516 79.842827148437507 104.74027221679688 129.94476348876955 76.302322785750675 -2.7961689086743151 17.425072463353477 42.984697331019817
leaf_weight=1958 37 139 20 30 32 97 1079 36 21 23 285 60 3891 40 130 22 21 20 26 45 56 21 28 20 20 20 23 498 24 35
leaf_count=1958 37 139 20 30 32 97 1079 36 21 23 285 60 3891 40 130 22 21 20 26 45 56 21 28 20 20 20 23 498 24 35
internal_value=6.56647e-08 -6.15933 140.409 112.622 254.648 37.6484 -9.8633 92.4841 154.575 144.037 -3.6798 51.1054 -11.8572 106.894 24.0258 162.558 79.1831 208.739 69.9118 55.9463 30.1153 52.33 56.8331 67.866 93.4292 117.253 64.6681 -5.26325 4.40146 49.6529
internal_weight=8757 8389 368 296 72 654 7735 200 96 75 1886 329 5849 96 325 45 104 40 63 232 186 164 104 41 41 60 68 1577 309 63
internal_count=8757 8389 368 296 72 654 7735 200 96 75 1886 329 5849 96 325 45 104 40 63 232 186 164 104 41 41 60 68 1577 309 63
is_linear=0
shrinkage=0.05


Tree=18
num_leaves=31
num_cat=0
split_feature=21 21 21 21 21 21 21 20 20 21 21 21 8 21 21 8 8 21 17 21 20 8 21 0 8 2 25 20 19 14
split_gain=2.73544e+09 5.34644e+08 3.90535e+08 7.68031e+07 7.25692e+07 4.6346e+07 3.06614e+07 1.44519e+07 1.20772e+07 1.13017e+07 1.11593e+07 1.07317e+07 7.22355e+06 5.56994e+06 5.16293e+06 4.66458e+06 4.43988e+06 3.46196e+06 3.07282e+06 2.89258e+06 2.88499e+06 2.74299e+06 2.38557e+06 2.27672e+06 4.00228e+06 2.04053e+06 1.60472e+06 1.54529e+06 1.45014e+06 1.29753e+06
threshold=648.21428571428589 299.4285714285715 1522.214285714286 1047.8571428571429 1919.6428571428573 131.78571428571431 437.35714285714295 827.50000000000011 662.16666666666686 198.00000000000003 91.928571428571445 1361.4285714285718 17.650000000000002 549.00000000000011 909.71428571428589 24.550000000000004 20.950000000000003 375.50000000000006 121.00000000000006 107.50000000000001 583.83333333333337 2.7500000000000004 69.785714285714292 17.050000000000004 14.950000000000001 0.22499999999999962 -0.66528616069191593 162.83333333333334 630.85000000000014 4.0050000000000008
decision_type=2 2 2 2 2 2 2 2 2 2 2 2 2 2 2 2 2 2 2 2 2 2 2 2 2 2 2 2 2 2
left_child=1 5 3 8 12 10 17 -5 18 27 22 16 -4 21 15 -10 -9 -3 -2 -12 -15 -8 -1 -23 -25 29 -19 -7 -22 -11
right_child=2 6 4 7 -6 9 13 11 14 25 19 -13 -14 20 -16 -17 -18 26 -20 -21 28 23 -24 24 -26 -27 -28 -29 -30 -31
leaf_value=-15.29987071059471 60.928591636375145 23.503048779805503 186.19802325704825 110.18386128743489 312.9047737121582 -3.4453420039892615 30.248399686813357 133.20642011088711 81.923836456857089 4.5666887566283512 -9.6767812091671104 188.47606018066406 225.02485494995119 53.262874927259475 115.17114883050687 107.86878621419271 161.85154393513997 29.149700570484949 83.242515309651708 -6.6655802917324891 79.212643432617199 43.761055676961689 -11.987057925782644 70.819169528667757 44.218446645429061 25.04278719967062 40.480443400721398 1.2674391743887861 62.15019558993253 12.572987468553741
leaf_weight=688 27 150 23 21 24 577 24 31 41 91 2282 20 25 73 41 30 24 63 36 1226 20 97 2586 26 31 22 62 249 33 114
leaf_count=688 27 150 23 21 24 577 24 31 41 91 2282 20 25 73 41 30 24 63 36 1226 20 97 2586 26 31 22 62 249 33 114
internal_value=3.66706e-08 -5.64225 138.408 110.908 241.915 -9.06851 40.7218 146.846 91.1929 0.690846 -10.5838 157.111 206.42 51.6653 101.044 92.8865 145.706 28.6243 73.6794 -8.62441 59.7095 45.9711 -12.6832 48.4214 56.3521 10.5719 34.7697 -2.02466 68.5889 9.01897
internal_weight=8757 8414 343 271 72 7835 579 96 175 1053 6782 75 48 304 112 71 55 275 63 3508 126 178 3274 154 57 227 125 826 53 205
internal_count=8757 8414 343 271 72 7835 579 96 175 1053 6782 75 48 304 112 71 55 275 63 3508 126 178 3274 154 57 227 125 826 53 205
is_linear=0
shrinkage=0.05


Tree=19
num_leaves=31
num_cat=0
split_feature=21 20 21 21 20 21 21 2 20 20 21 21 8 21 9 21 21 20 5 14 21 10 21 25 24 0 21 12 19 24
split_gain=2.46874e+09 4.82762e+08 3.52458e+08 6.93148e+07 6.69436e+07 3.86991e+07 3.54007e+07 1.34567e+07 1.1008e+07 1.04149e+07 9.66134e+06 7.52703e+06 6.07077e+06 5.5832e+06 4.33279e+06 4.25891e+06 2.92215e+06 2.7897e+06 2.64054e+06 2.3867e+06 2.22245e+06 1.89022e+06 1.87708e+06 1.64384e+06 1.63453e+06 2.85806e+06 1.39445e+06 1.30356e+06 1.26596e+06 1.03496e+06
threshold=648.21428571428589 260.50000000000006 1522.214285714286 1047.8571428571429 1980.3333333333337 425.28571428571433 121.64285714285715 0.48000000000000004 788.83333333333337 1571.0000000000002 206.21428571428575 90.500000000000014 11.450000000000001 500.9285714285715 17.950000000000003 335.9285714285715 849.00000000000011 583.83333333333337 0.52500000000000013 5.4650000000000007 147.78571428571431 32.95000000000001 67.500000000000014 -0.72696319516528884 -0.65499999999999992 17.050000000000004 102.92857142857144 5.0150000000000006 596.00000000000011 0.55500000000000027
decision_type=2 2 2 2 2 2 2 2 2 2 2 2 2 2 2 2 2 2 2 2 2 2 2 2 2 2 2 2 2 2
left_child=1 6 3 8 9 15 11 -5 14 -4 20 22 -9 24 18 -3 -10 -15 -2 -14 -8 -12 -1 -17 -7 -26 -13 -19 -22 -18
right_child=2 5 4 7 -6 13 10 12 16 -11 21 26 19 17 -16 23 29 27 -20 -21 28 -23 -24 -25 25 -27 -28 -29 -30 -31
leaf_value=-14.706358112717911 77.065203386942557 17.504114846502031 174.3995985808196 112.39685816611014 295.92483789062499 33.951570490056824 -4.6998126354857952 133.10323828124999 89.318714396158853 222.00428741455082 7.3145258400457127 -9.5131207197467678 152.298369140625 49.491390305156862 89.074695901309752 24.277555200530262 101.1575887044271 71.312969970703122 55.906805854008127 176.72532257080081 -1.1382450044526722 22.232191417336466 -11.604389950747724 34.200517959594727 35.651441235012477 55.865984389361216 -7.3566823429802559 56.990771938892124 8.6498470677269843 116.17152182839135
leaf_weight=618 30 140 27 31 25 55 873 25 36 20 141 2251 20 129 34 82 24 24 29 20 401 25 2313 85 36 34 1124 47 36 22
leaf_count=618 30 140 27 31 25 55 873 25 36 20 141 2251 20 129 34 82 24 24 29 20 401 25 2313 85 36 34 1124 47 36 22
internal_value=-2.67928e-08 -5.36014 131.487 105.362 229.819 36.6663 -8.77323 139.504 86.6333 194.657 -1.80273 -10.4048 152.432 48.6914 74.858 23.9361 99.9882 53.8723 66.6653 164.512 -3.24273 9.56116 -12.2584 29.3282 40.4019 45.4699 -8.79495 61.8321 -0.331903 108.338
internal_weight=8757 8414 343 271 72 632 7782 96 175 47 1476 6306 65 325 93 307 82 200 59 40 1310 166 2931 167 125 70 3375 71 437 46
internal_count=8757 8414 343 271 72 632 7782 96 175 47 1476 6306 65 325 93 307 82 200 59 40 1310 166 2931 167 125 70 3375 71 437 46
is_linear=0
shrinkage=0.05


Tree=20
num_leaves=31
num_cat=0
split_feature=21 21 21 21 21 21 21 20 11 20 21 21 8 10 21 21 8 20 17 8 20 21 21 0 8 2 21 20 19 9
split_gain=2.22804e+09 4.36062e+08 3.18093e+08 6.31559e+07 6.25566e+07 3.77721e+07 2.48064e+07 1.24897e+07 1.34238e+07 1.00465e+07 9.12704e+06 9.11097e+06 6.30031e+06 5.00972e+06 4.64913e+06 4.57223e+06 3.57347e+06 3.02838e+06 2.7224e+06 2.40568e+06 2.37344e+06 2.26101e+06 2.0121e+06 1.88601e+06 3.66405e+06 1.75523e+06 1.61966e+06 1.39122e+06 1.26205e+06 1.23756e+06
threshold=648.21428571428589 299.4285714285715 1522.214285714286 1919.6428571428573 1047.8571428571429 131.78571428571431 437.35714285714295 1748.6666666666667 15.950000000000001 662.16666666666686 93.357142857142875 198.00000000000003 17.650000000000002 25.350000000000005 549.00000000000011 745.857142857143 22.450000000000003 351.50000000000006 121.00000000000006 2.7500000000000004 583.83333333333337 74.357142857142875 108.92857142857144 17.050000000000004 12.350000000000003 0.22499999999999962 909.71428571428589 136.83333333333334 630.85000000000014 19.350000000000005
decision_type=2 2 2 2 2 2 2 2 2 2 2 2 2 2 2 2 2 2 2 2 2 2 2 2 2 2 2 2 2 2
left_child=1 5 4 12 9 10 17 8 -6 18 21 27 -4 -10 19 -11 26 -3 -2 -8 -16 -1 -12 -21 -25 -13 -17 -7 -22 -19
right_child=2 6 3 -5 7 11 14 -9 13 15 22 25 -14 -15 20 16 -18 29 -20 23 28 -23 -24 24 -26 -27 -28 -29 -30 -31
leaf_value=-13.238031678826102 54.326467523751433 21.002276344039814 166.32977600097658 284.55400568644205 97.078095499674475 -4.4683358900755357 26.696564420064291 166.61097034272694 125.33542309570312 71.941973177591962 -8.5420712055827082 8.0556282694874017 202.59060418701173 158.90903411865236 48.125161534139558 80.024336689916154 107.85622081267528 27.776326360820253 75.329571747779852 39.473895008047833 71.937001953125005 -10.476858951072332 -5.9187670213156478 68.176205558776857 41.613514936292496 22.91710924668746 98.51982025146485 -0.22768187402266601 56.019546000162762 37.97555279021568
leaf_weight=1043 27 147 23 24 30 309 24 21 25 24 2034 205 25 20 73 29 39 81 36 97 20 2564 1141 20 37 22 20 517 33 47
leaf_count=1043 27 147 23 24 30 309 24 21 25 24 2034 205 25 20 73 29 39 81 36 97 20 2564 1141 20 37 22 20 517 33 47
internal_value=-1.91174e-08 -5.09213 124.913 218.328 100.094 -8.18643 36.7798 132.529 122.985 82.3016 -9.55438 0.624077 185.216 140.257 46.6231 91.2866 96.5624 25.8984 66.3282 41.4208 53.9724 -11.2753 -7.59933 43.7155 50.9338 9.49595 87.5735 -1.81408 62.0261 31.5214
internal_weight=8757 8414 343 72 271 7835 579 96 75 175 6782 1053 48 45 304 112 88 275 63 178 126 3607 3175 154 57 227 49 826 53 128
internal_count=8757 8414 343 72 271 7835 579 96 75 175 6782 1053 48 45 304 112 88 275 63 178 126 3607 3175 154 57 227 49 826 53 128
is_linear=0
shrinkage=0.05


Tree=21
num_leaves=31
num_cat=0
split_feature=21 20 21 2 21 21 21 20 2 9 8 21 21 21 21 23 20 21 0 20 0 21 10 21 9 8 24 3 21 21
split_gain=2.0108e+09 3.93927e+08 2.87079e+08 5.93625e+07 5.68116e+07 3.15704e+07 2.88336e+07 1.31304e+07 1.16159e+07 9.33548e+06 8.39992e+06 7.77738e+06 6.20694e+06 4.62529e+06 3.85315e+06 3.65469e+06 3.59256e+06 3.16545e+06 3.14378e+06 2.25177e+06 2.03433e+06 1.8445e+06 1.68172e+06 1.44564e+06 1.43987e+06 1.43304e+06 1.40838e+06 2.68115e+06 1.2946e+06 1.25245e+06
threshold=648.21428571428589 260.50000000000006 1522.214285714286 1.9600000000000002 1101.8571428571431 425.28571428571433 121.64285714285715 1226.1666666666667 1.1900000000000002 18.450000000000003 7.3500000000000005 206.21428571428575 89.642857142857153 500.9285714285715 745.857142857143 785.25000000000011 351.50000000000006 849.00000000000011 12.550000000000002 583.83333333333337 8.1500000000000004 147.78571428571431 32.95000000000001 66.357142857142875 19.350000000000005 18.750000000000004 -0.65499999999999992 5.3500000000000005 335.9285714285715 102.92857142857144
decision_type=2 2 2 2 2 2 2 2 2 2 2 2 2 2 2 2 2 2 2 2 2 2 2 2 2 2 2 2 2 2
left_child=1 6 4 8 7 16 12 9 -4 17 -6 21 23 26 -11 -12 28 20 -19 -15 -2 -8 -13 -1 -18 -16 -7 -28 -3 -14
right_child=2 5 3 -5 10 13 11 -9 -10 14 15 22 29 19 25 -17 24 18 -20 -21 -22 -23 -24 -25 -26 -27 27 -29 -30 -31
leaf_value=-13.39503248682562 46.915426909405255 13.7334808642214 145.4191616821289 269.66193750000002 108.22174748959749 30.454552626176316 -4.2492243403063199 114.44891686072718 195.69378209997106 72.371827100670856 161.29264038085938 6.44696874896474 -8.6553373624179368 44.766627135757332 90.218085098266613 133.50961535223598 24.129509187936783 90.126895722888776 62.427946443557744 55.853855358714796 66.286493821577594 -0.27001475181336809 20.517838129997255 -10.587875686412636 35.309350721571178 107.02750331333705 33.156628185226808 53.131135384099821 22.357522288958233 -6.639346879137368
leaf_weight=583 23 110 20 25 23 55 873 26 27 23 20 141 2449 129 32 29 80 21 20 71 33 437 25 2150 45 21 42 28 72 1124
leaf_count=583 23 110 20 25 23 55 873 26 27 23 20 141 2449 129 32 29 80 21 20 71 33 437 25 2150 45 21 42 28 72 1124
internal_value=-7.40356e-08 -4.83752 118.667 207.412 95.0895 33.1258 -7.92064 81.3192 174.3 76.3401 133.149 -1.62981 -9.39308 43.987 89.462 144.85 21.6277 66.0591 76.6152 48.7026 58.3305 -2.92181 8.56608 -11.1867 28.1543 96.8784 36.442 41.1464 17.1452 -8.02114
internal_weight=8757 8414 343 72 271 632 7782 199 47 173 72 1476 6306 325 76 49 307 97 41 200 56 1310 166 2733 125 53 125 70 182 3573
internal_count=8757 8414 343 72 271 632 7782 199 47 173 72 1476 6306 325 76 49 307 97 41 200 56 1310 166 2733 125 53 125 70 182 3573
is_linear=0
shrinkage=0.05


Tree=22
num_leaves=31
num_cat=0
split_feature=21 21 21 3 21 21 21 2 20 21 2 20 15 21 21 20 4 11 24 0 11 10 21 12 9 21 9 25 26 9
split_gain=1.815e+09 3.27934e+08 2.80383e+08 8.17801e+07 4.02618e+07 2.84551e+07 2.28293e+07 9.46488e+06 7.55338e+06 5.73306e+06 5.68984e+06 5.06262e+06 4.71179e+06 4.63085e+06 4.54994e+06 3.99351e+06 3.9865e+06 2.44996e+06 2.10962e+06 2.42193e+06 3.88753e+06 3.59798e+06 2.10055e+06 2.84449e+06 1.74819e+06 1.74199e+06 1.45811e+06 1.39207e+06 1.36326e+06 1.2536e+06
threshold=623.357142857143 238.35714285714286 1361.4285714285718 4.7500000000000009 909.71428571428589 416.35714285714295 112.64285714285715 0.48500000000000038 1571.0000000000002 165.35714285714286 0.32500000000000023 398.66666666666674 5.8150000000000004 1047.8571428571429 80.214285714285737 295.83333333333343 650.00000000000011 20.450000000000003 -0.65499999999999992 17.050000000000004 10.750000000000002 12.65 688.14285714285722 5.3150000000000004 19.350000000000005 500.9285714285715 17.850000000000005 -0.42180583328916638 -0.54219087765047058 10.15
decision_type=2 2 2 2 2 2 2 2 2 2 2 2 2 2 2 2 2 2 2 2 2 2 2 2 2 2 2 2 2 2
left_child=1 6 4 -4 10 15 14 12 -5 -8 22 29 -6 -9 -1 -3 -12 -15 25 -20 -21 -22 -2 -24 -17 -13 -18 -26 -11 -7
right_child=2 5 3 8 7 11 9 13 -10 28 16 18 -14 17 -16 24 26 -19 19 20 21 -23 23 -25 27 -27 -28 -29 -30 -31
leaf_value=-11.179500817457836 44.014057495117186 12.325213259244137 240.42153988400025 126.77678233555385 70.497999468716714 21.429760534623092 -4.0787788122386859 98.553973134358728 162.60348441831528 6.2182982713318946 59.21718737792969 28.510861863030328 100.75379077542213 115.31557299804689 -8.2097351089404356 20.26498674284667 74.36623840332031 138.79407104492188 39.941187150511027 42.035970555652277 78.612750778198247 48.980362101963593 70.895547413825994 46.858331861495969 21.829417938232424 42.710142601860895 91.856155982384323 37.471241193829165 -0.5020684965011728 34.033596623197518
leaf_weight=1920 25 139 37 28 22 34 1577 24 31 178 25 36 31 25 3929 128 22 20 73 44 20 21 32 20 25 54 26 33 131 47
leaf_count=1920 25 139 37 28 22 34 1577 24 31 178 25 36 31 25 3929 128 22 20 73 44 20 21 32 20 25 54 26 33 131 47
internal_value=-9.53331e-08 -4.7676 108.683 182.146 82.7548 29.2301 -7.64213 104.085 145.601 -2.85851 65.4062 39.5959 88.1948 116.291 -9.18459 18.7366 75.4075 125.75 43.1406 46.6211 52.3579 63.4352 55.9244 61.6505 23.528 37.0304 83.8399 30.7291 3.36921 28.7431
internal_weight=8757 8389 368 96 272 654 7735 122 59 1886 150 329 53 69 5849 325 73 45 248 158 85 41 77 52 186 90 48 58 309 81
internal_count=8757 8389 368 96 272 654 7735 122 59 1886 150 329 53 69 5849 325 73 45 248 158 85 41 77 52 186 90 48 58 309 81
is_linear=0
shrinkage=0.05


Tree=23
num_leaves=31
num_cat=0
split_feature=21 21 21 3 21 21 21 2 20 8 21 21 21 15 21 8 20 20 9 8 0 18 25 22 17 10 10 10 21 20
split_gain=1.63812e+09 3.0938e+08 2.27731e+08 7.38065e+07 5.5712e+07 2.06035e+07 1.75145e+07 8.54205e+06 7.22088e+06 6.93471e+06 6.40182e+06 5.1885e+06 4.28666e+06 4.25239e+06 4.10632e+06 3.88846e+06 3.21656e+06 2.77043e+06 2.56637e+06 2.13381e+06 1.67258e+06 1.86747e+06 2.49374e+06 1.52214e+06 1.47232e+06 1.67106e+06 1.20857e+06 1.14493e+06 1.11139e+06 1.01156e+06
threshold=561.64285714285722 1361.4285714285718 238.35714285714286 4.7500000000000009 909.71428571428589 112.64285714285715 387.21428571428572 0.48500000000000038 491.16666666666669 12.050000000000002 688.14285714285722 162.78571428571431 1101.8571428571431 5.8150000000000004 80.214285714285737 33.750000000000007 398.66666666666674 295.83333333333343 35.050000000000004 15.350000000000003 42.550000000000004 153.35000000000005 -0.57078386445773377 779.53571428571433 138.65000000000006 11.550000000000002 43.350000000000009 9.2500000000000018 500.9285714285715 136.83333333333334
decision_type=2 2 2 2 2 2 2 2 2 2 2 2 2 2 2 2 2 2 2 2 2 2 2 2 2 2 2 2 2 2
left_child=2 4 5 -3 8 14 17 13 -2 -5 18 29 -9 -6 -1 19 -8 -4 27 23 21 -18 -23 -12 -19 -26 -13 -10 -24 -7
right_child=1 3 6 9 7 11 16 12 10 -11 15 26 -14 -15 -16 -17 20 24 -20 -21 -22 22 28 -25 25 -27 -28 -29 -30 -31
leaf_value=-10.620525652865568 35.71489896213307 228.40046704266524 10.878345242301927 114.38362350463868 66.973100272091955 -4.8468090037311562 26.336163468921889 97.831827859317571 55.507488199869798 150.59647741073218 80.732739673961305 2.1428437642256419 122.75944745744978 95.716101960212953 -7.79924823105085 89.666958770751961 49.328108700838953 17.736861907625663 67.864925613403315 53.289356128986064 50.591148303803948 27.808286023427208 34.539761743790066 62.699884399414067 39.283586463928231 19.089082972208658 14.531120970135644 43.104851111587216 46.722625096639 -2.1441003647943337
leaf_weight=1920 34 37 131 20 22 1028 102 34 30 39 22 315 35 31 3929 20 22 103 20 26 21 83 39 25 20 21 21 49 36 522
leaf_count=1920 34 37 131 20 22 1028 102 34 30 39 22 315 35 31 3929 20 22 103 20 26 21 83 39 25 20 21 21 49 36 522
internal_value=1.39571e-08 93.5736 -4.99779 173.039 71.6521 -7.26002 25.2761 98.8809 56.9533 138.321 60.7143 -2.71558 110.476 83.785 -8.72536 70.1342 33.5679 16.14 51.8653 64.7827 37.2377 35.6798 33.7794 71.1408 20.9267 28.9401 2.91711 47.8147 40.3875 -3.93661
internal_weight=8757 444 8313 96 348 7735 578 122 226 59 192 1886 69 53 5849 93 303 275 99 73 201 180 158 47 144 41 336 79 75 1550
internal_count=8757 444 8313 96 348 7735 578 122 226 59 192 1886 69 53 5849 93 303 275 99 73 201 180 158 47 144 41 336 79 75 1550
is_linear=0
shrinkage=0.05


Tree=24
num_leaves=31
num_cat=0
split_feature=21 21 21 21 21 21 21 8 24 20 6 21 21 20 21 20 20 9 20 9 8 23 17 0 18 25 16 17 10 26
split_gain=1.47841e+09 2.79215e+08 2.05527e+08 6.78593e+07 5.02801e+07 1.86066e+07 1.58068e+07 1.26413e+07 8.02074e+06 6.61333e+06 5.69453e+06 5.52002e+06 4.82939e+06 3.63289e+06 3.56823e+06 2.98342e+06 2.90295e+06 2.52405e+06 2.50032e+06 2.3118e+06 2.26673e+06 1.93268e+06 2.50625e+06 1.5095e+06 1.68539e+06 2.2506e+06 1.44164e+06 1.32877e+06 1.50813e+06 1.20945e+06
threshold=561.64285714285722 1361.4285714285718 238.35714285714286 1919.6428571428573 909.71428571428589 111.35714285714288 387.21428571428572 9.8500000000000032 1.0650000000000006 662.16666666666686 17.500000000000004 1101.8571428571431 165.35714285714286 81.833333333333357 745.857142857143 491.16666666666669 398.66666666666674 10.15 295.83333333333343 26.850000000000005 21.250000000000004 369.06666666666678 87.550000000000054 42.550000000000004 153.35000000000005 -0.57078386445773377 40.499999999999993 138.65000000000006 11.550000000000002 -0.54219087765047058
decision_type=2 2 2 2 2 2 2 2 2 2 2 2 2 2 2 2 2 2 2 2 2 2 2 2 2 2 2 2 2 2
left_child=2 4 5 7 9 13 18 -3 11 15 -9 17 -7 -1 19 -2 -8 -6 -4 -11 -16 -17 -23 24 -18 -26 -24 -20 -29 -14
right_child=1 3 6 -5 8 12 16 10 -10 14 -12 -13 29 -15 20 21 23 -19 27 -21 -22 22 26 -25 25 -27 -28 28 -30 -31
leaf_value=-10.024197792725438 33.929154115564685 109.53686636219855 10.334428057415796 237.19858392079675 62.710738136654811 -3.755451542425928 25.019355259222145 137.76965307617189 114.99089004054215 46.171121341951434 171.8670560201009 101.96783009977902 5.7410837080371522 -7.3993206734465238 64.368662177191851 38.242524545842954 46.861702866987748 84.757808101878453 16.850018857752236 67.975034332275399 86.577279968261735 41.112215215509593 71.761711883544919 48.061591993059437 26.417871698126739 38.368159159342447 54.431341094970712 37.319406728744511 18.134628913516092 -0.58883559615102443
leaf_weight=2033 34 23 131 24 21 1644 102 25 33 31 24 34 178 3749 27 22 22 34 103 20 20 22 20 21 83 75 30 20 21 131
leaf_count=2033 34 23 131 24 21 1644 102 25 33 31 24 34 178 3749 27 22 22 34 103 20 20 22 20 21 83 75 30 20 21 131
internal_value=-3.91467e-08 88.8949 -4.74791 164.387 68.0695 -6.89702 24.0123 140.117 93.9369 54.1056 154.47 86.1303 -2.67752 -8.32225 63.8807 46.6216 31.8895 76.3398 15.333 54.7217 73.8191 51.2125 55.1756 35.3759 33.8958 32.0905 61.3635 19.8803 27.4931 3.05753
internal_weight=8757 444 8313 96 348 7735 578 72 122 226 49 89 1953 5782 98 128 303 55 275 51 47 94 72 201 180 158 50 144 41 309
internal_count=8757 444 8313 96 348 7735 578 72 122 226 49 89 1953 5782 98 128 303 55 275 51 47 94 72 201 180 158 50 144 41 309
is_linear=0
shrinkage=0.05


Tree=25
num_leaves=31
num_cat=0
split_feature=21 21 20 21 21 21 21 20 8 25 9 21 21 22 8 20 22 20 2 13 21 17 11 20 13 25 14 15 21 15
split_gain=1.33426e+09 2.5241e+08 1.85609e+08 8.61446e+07 2.008e+07 1.71145e+07 1.50172e+07 1.36204e+07 9.46309e+06 7.90874e+06 7.58915e+06 5.19908e+06 4.8203e+06 4.76652e+06 4.74006e+06 3.18442e+06 3.02521e+06 2.07427e+06 1.99852e+06 1.91413e+06 1.84686e+06 1.71547e+06 1.55656e+06 1.51313e+06 1.5703e+06 1.36264e+06 1.34391e+06 1.34076e+06 1.33631e+06 1.27043e+06
threshold=561.64285714285722 1101.8571428571431 243.50000000000003 1919.6428571428573 796.57142857142867 125.21428571428574 387.21428571428572 1571.0000000000002 7.3500000000000005 -0.69057362043749781 5.5500000000000007 983.78571428571433 91.500000000000014 1113.6785714285718 27.950000000000003 162.83333333333334 551.39285714285722 444.83333333333343 0.20500000000000004 4.5950000000000006 238.35714285714286 138.65000000000006 16.450000000000003 491.16666666666669 5.245000000000001 -0.71504373327588355 5.6250000000000009 4.745000000000001 66.357142857142875 5.3150000000000004
decision_type=2 2 2 2 2 2 2 2 2 2 2 2 2 2 2 2 2 2 2 2 2 2 2 2 2 2 2 2 2 2
left_child=2 4 5 7 14 12 20 8 -3 -10 -6 18 28 -9 23 -7 -16 25 -12 -17 -4 -22 -20 -2 -25 -8 -26 -21 -1 -19
right_child=1 3 6 -5 10 15 17 13 9 -11 11 -13 -14 -15 16 19 -18 29 22 27 21 -23 -24 24 26 -27 -28 -29 -30 -31
leaf_value=-11.134069663255538 32.832390372983873 83.993758766467749 6.5345929679117702 225.33865437507632 47.821574517954957 -2.8378244731732063 21.054888723813573 127.52491760253906 145.46161865234376 104.29452590942384 58.24092089562189 94.252103062679907 -6.245043306223292 159.74544788707388 47.227172920920637 0.68646727080059644 72.419613647460935 38.446950645856958 67.036701202392578 4.4538246996168587 14.231300553344411 24.774095533370971 86.309793506969115 39.225469153267994 60.31594181060791 30.88598735690988 43.583310604095459 17.283560224622487 -8.484033696863591 29.206896923434353
leaf_weight=583 31 26 57 24 23 879 65 24 20 28 21 38 3319 22 22 286 26 93 20 56 169 50 22 49 24 77 24 32 2585 62
leaf_count=583 31 26 57 24 23 879 65 24 20 28 21 38 3319 22 22 286 26 93 20 56 169 50 22 49 24 77 24 32 2585 62
internal_value=3.59873e-09 84.4502 -4.51051 138.864 58.3314 -6.54332 22.9484 121.569 108.288 121.447 73.7426 79.6454 -7.57664 142.935 47.4735 -1.19364 60.8731 30.7515 70.8351 2.67064 14.5517 16.6383 77.1321 42.4487 45.522 26.3858 51.9496 9.11918 -8.97171 34.7509
internal_weight=8757 444 8313 144 300 7740 573 120 74 48 124 101 6487 46 176 1253 48 297 63 374 276 219 42 128 97 142 48 88 3168 155
internal_count=8757 444 8313 144 300 7740 573 120 74 48 124 101 6487 46 176 1253 48 297 63 374 276 219 42 128 97 142 48 88 3168 155
is_linear=0
shrinkage=0.05


Tree=26
num_leaves=31
num_cat=0
split_feature=21 20 21 20 21 21 21 20 8 20 21 21 21 21 11 8 21 21 9 21 10 20 19 24 9 19 12 20 21 11
split_gain=1.20489e+09 2.36969e+08 1.753e+08 4.68789e+07 3.37256e+07 1.91328e+07 1.76118e+07 8.94721e+06 8.73322e+06 6.47711e+06 5.95131e+06 4.60736e+06 4.38583e+06 4.04252e+06 3.88376e+06 3.83558e+06 2.86473e+06 2.22321e+06 2.03082e+06 1.48337e+06 1.44103e+06 1.37166e+06 1.23012e+06 1.46166e+06 1.15049e+06 1.25261e+06 1.05413e+06 917760 911983 858567
threshold=648.21428571428589 260.50000000000006 1522.214285714286 1980.3333333333337 1047.8571428571429 425.28571428571433 127.35714285714288 827.50000000000011 17.650000000000002 573.50000000000011 1361.4285714285718 94.071428571428584 909.71428571428589 206.21428571428575 20.950000000000003 24.550000000000004 500.9285714285715 364.00000000000006 22.050000000000004 72.642857142857153 34.650000000000013 583.83333333333337 480.9500000000001 0.52999999999999969 17.650000000000002 618.85000000000014 5.0150000000000006 136.83333333333334 983.78571428571433 34.150000000000013
decision_type=2 2 2 2 2 2 2 2 2 2 2 2 2 2 2 2 2 2 2 2 2 2 2 2 2 2 2 2 2 2
left_child=1 6 4 8 9 17 11 -6 -4 -2 14 19 15 27 -9 18 22 24 -11 -1 -15 -18 -7 -24 -3 -26 -23 -8 -14 -29
right_child=2 5 3 -5 7 16 13 10 -10 12 -12 -13 28 20 -16 -17 21 -19 -20 -21 -22 26 23 -25 25 -27 -28 29 -30 -31
leaf_value=-10.164511309026665 42.105230301304871 10.951343584761901 112.41147496041197 216.52497460937502 68.402019273667108 39.5820786857605 -3.4955910783670667 84.252067881617052 155.76355561755952 44.241140752368509 128.68277481079102 -5.6216994277875818 71.563814776876697 4.8958448562128796 110.86493565486029 72.974316128817478 34.794207133803262 22.133600385310288 63.018081792195645 -7.7695987698170015 18.909984970092776 51.973259099324551 22.66803510309775 36.335477693264302 13.651584025224052 29.509397397041326 39.093982209550575 -1.0124493646483583 85.975546991257445 6.1655890660815773
leaf_weight=829 38 136 26 25 21 20 432 29 21 36 20 2811 23 145 26 33 129 118 24 2938 21 24 79 26 33 20 47 561 21 45
leaf_count=829 38 136 26 25 21 20 432 29 21 36 20 2811 23 145 26 33 129 118 24 2938 21 24 79 26 33 20 47 561 21 45
internal_value=-2.43215e-08 -3.74465 91.8585 161.206 73.434 25.6997 -6.13591 97.2489 131.782 60.3698 105.326 -7.15355 65.4359 -0.576097 96.8327 59.2824 34.155 16.7487 51.7519 -8.29664 6.66872 37.8661 28.2171 26.0524 13.3866 19.6357 43.4475 -1.73471 78.4421 -0.479427
internal_weight=8757 8414 343 72 271 632 7782 96 47 175 75 6578 137 1204 55 93 325 307 60 3767 166 200 125 105 189 53 71 1038 44 606
internal_count=8757 8414 343 72 271 632 7782 96 47 175 75 6578 137 1204 55 93 325 307 60 3767 166 200 125 105 189 53 71 1038 44 606
is_linear=0
shrinkage=0.05


Tree=27
num_leaves=31
num_cat=0
split_feature=21 21 21 2 21 21 21 2 20 20 21 21 21 8 20 11 21 8 21 21 20 0 11 13 19 5 19 19 9 9
split_gain=1.08741e+09 2.14065e+08 1.58209e+08 4.30953e+07 3.04374e+07 1.898e+07 1.20472e+07 1.04599e+07 8.07486e+06 5.84559e+06 5.48053e+06 5.37106e+06 3.9828e+06 4.29621e+06 3.93702e+06 3.50509e+06 3.14178e+06 1.52265e+06 1.50991e+06 1.40273e+06 1.39408e+06 1.32786e+06 2.43453e+06 1.31633e+06 1.15397e+06 3.5815e+06 988795 975579 927351 895971
threshold=648.21428571428589 299.4285714285715 1522.214285714286 1.9600000000000002 1047.8571428571429 137.07142857142858 500.9285714285715 1.1900000000000002 827.50000000000011 573.50000000000011 96.071428571428584 1361.4285714285718 849.00000000000011 19.650000000000002 211.50000000000003 20.950000000000003 387.21428571428572 2.0500000000000003 73.785714285714292 983.78571428571433 583.83333333333337 17.050000000000004 10.750000000000002 5.6250000000000009 596.00000000000011 0.6100000000000001 625.35000000000014 579.45000000000016 31.800000000000001 13.450000000000001
decision_type=2 2 2 2 2 2 2 2 2 2 2 2 2 2 2 2 2 2 2 2 2 2 2 2 2 2 2 2 2 2
left_child=1 5 4 7 9 10 16 -4 -6 -2 18 15 13 -11 24 -10 27 -18 -1 23 28 -19 -23 -14 -7 -26 -22 -3 -8 -29
right_child=2 6 3 -5 8 14 20 -9 11 12 -12 -13 19 -15 -16 -17 17 21 -20 -21 26 22 -24 -25 25 -27 -28 29 -30 -31
leaf_value=-9.4871238513990193 39.999968920255967 12.475465710996424 97.527298583984376 206.18530543518068 64.981919497535344 -1.1665001562821544 30.789350727871735 145.23465757016783 80.039465384647769 42.154370248639907 -4.8852568662864257 122.24863586425782 74.026077016194662 66.775139079374426 7.6127522890951411 105.32168825589693 11.653820657730103 23.042852918980486 -7.2275354343371436 81.676769002278661 50.081204986572267 22.235406312346459 41.739117097854617 56.884817504882818 23.328557357788085 -2.8116929760104732 37.321430626694038 15.073063930273058 42.485726127624517 26.297854642570019
leaf_weight=961 38 103 20 25 21 633 111 27 29 37 2790 20 24 34 188 26 20 118 3205 21 22 32 32 21 20 38 49 40 20 32
leaf_count=961 38 103 20 25 21 633 111 27 29 37 2790 20 24 34 188 26 20 118 3205 21 22 32 32 21 20 38 49 40 20 32
internal_value=-1.87057e-08 -3.55742 87.2656 153.146 69.7623 -5.72543 25.78 124.934 92.3865 57.3513 -6.60024 100.06 62.1641 53.9446 1.19742 91.9911 20.5006 24.7491 -7.74877 71.0064 35.633 26.1881 31.9873 66.0268 -0.548 6.20219 41.2752 15.5967 32.5751 20.0619
internal_weight=8757 8414 343 72 271 7835 579 47 96 175 6956 75 137 71 879 55 377 202 4166 66 202 182 64 45 691 58 71 175 131 72
internal_count=8757 8414 343 72 271 7835 579 47 96 175 6956 75 137 71 879 55 377 202 4166 66 202 182 64 45 691 58 71 175 131 72
is_linear=0
shrinkage=0.05


Tree=28
num_leaves=31
num_cat=0
split_feature=21 21 21 21 21 21 8 20 21 9 3 20 8 21 22 21 21 24 8 8 23 21 15 21 20 13 14 18 26 14
split_gain=9.82012e+08 1.85978e+08 1.36602e+08 6.88969e+07 1.48209e+07 1.28782e+07 1.05934e+07 1.05159e+07 6.99277e+06 6.50494e+06 4.9476e+06 3.7882e+06 3.75529e+06 3.52746e+06 2.58645e+06 2.5623e+06 2.26383e+06 1.5366e+06 1.72741e+06 3.97912e+06 1.61263e+06 1.42609e+06 1.65631e+06 1.35046e+06 1.20455e+06 1.37433e+06 1.19396e+06 1.01192e+06 957709 943564
threshold=561.64285714285722 1101.8571428571431 238.35714285714286 1919.6428571428573 796.57142857142867 107.50000000000001 7.3500000000000005 343.50000000000006 1361.4285714285718 5.5500000000000007 5.1000000000000005 1226.1666666666667 27.950000000000003 160.07142857142858 551.39285714285722 425.28571428571433 77.785714285714292 -0.65499999999999992 15.950000000000001 10.15 450.48333333333341 983.78571428571433 6.0250000000000012 335.9285714285715 491.16666666666669 5.245000000000001 5.6250000000000009 336.55000000000001 -0.54219087765047058 5.1550000000000011
decision_type=2 2 2 2 2 2 2 2 2 2 2 2 2 2 2 2 2 2 2 2 2 2 2 2 2 2 2 2 2 2
left_child=2 4 5 6 12 16 -3 23 -8 -6 -10 21 24 -7 -14 -9 -1 -17 19 20 -19 22 -11 -4 -2 -26 -27 -20 -15 -25
right_child=1 3 7 -5 9 13 8 15 10 11 -12 -13 14 28 -16 17 -18 18 27 -21 -22 -23 -24 29 25 26 -28 -29 -30 -31
leaf_value=-8.4738758663164528 27.649597598660378 80.063812996359445 8.6538649364097697 196.49218934377035 39.272242537788728 -3.2647995601171633 94.040706265357244 19.804545937868266 142.81723225911458 66.111328949799415 111.94986679974726 88.222684936523436 40.011108658530503 4.4123546409856509 63.305147845928495 23.405018428372749 -6.2523783712262366 38.152114562988281 21.008404881245383 53.541174835205084 18.073315706253052 74.459015224290937 48.530287170410162 11.911305716352643 33.081057605938035 52.870530668894446 37.098987070719403 34.3637055106785 -0.75153026140254475 22.012896691299069
leaf_weight=1618 31 34 148 24 23 1815 31 130 21 37 34 20 22 203 26 81 3938 20 37 25 20 23 21 53 49 24 24 23 161 41
leaf_count=1618 31 34 148 24 23 1815 31 130 21 37 34 20 22 203 26 81 3938 20 37 25 20 23 21 53 49 24 24 23 161 41
internal_value=1.52354e-08 72.45 -3.86958 119.158 50.0303 -5.62165 103.691 19.5774 113.032 63.2704 123.736 68.7353 40.702 -2.36388 52.6287 25.3009 -6.89932 28.7695 32.2457 37.8929 28.1127 63.9236 59.7458 11.6306 36.2295 38.9715 44.9848 26.1279 2.12833 16.3173
internal_weight=8757 444 8313 144 300 7735 120 578 86 124 55 101 176 2179 48 336 5556 206 125 65 40 81 58 242 128 97 48 60 364 94
internal_count=8757 444 8313 144 300 7735 120 578 86 124 55 101 176 2179 48 336 5556 206 125 65 40 81 58 242 128 97 48 60 364 94
is_linear=0
shrinkage=0.05


Tree=29
num_leaves=31
num_cat=0
split_feature=21 20 20 21 21 21 20 13 11 9 9 3 1 21 21 21 14 19 10 9 0 9 11 22 11 16 10 19 8 21
split_gain=8.86431e+08 1.74646e+08 1.30356e+08 6.5436e+07 2.40259e+07 1.40485e+07 1.33078e+07 1.25499e+07 9.77946e+06 6.76072e+06 5.32086e+06 4.16974e+06 5.73913e+06 3.39099e+06 2.94829e+06 2.55687e+06 2.55064e+06 1.82548e+06 1.25619e+06 1.22724e+06 1.21363e+06 1.84978e+06 1.39891e+06 1.20435e+06 1.19064e+06 2.10044e+06 2.10755e+06 974368 1.12688e+06 923215
threshold=648.21428571428589 260.50000000000006 1571.0000000000002 1919.6428571428573 1101.8571428571431 416.35714285714295 119.16666666666667 5.285000000000001 15.950000000000001 13.550000000000002 41.750000000000007 5.3500000000000005 5.3150000000000004 206.21428571428575 90.785714285714292 500.9285714285715 6.4150000000000009 630.85000000000014 34.650000000000013 18.750000000000004 28.250000000000004 36.750000000000007 15.750000000000002 140.32142857142858 10.450000000000001 42.700000000000038 12.550000000000002 562.00000000000011 22.950000000000003 364.00000000000006
decision_type=2 2 2 2 2 2 2 2 2 2 2 2 2 2 2 2 2 2 2 2 2 2 2 2 2 2 2 2 2 2
left_child=1 6 4 7 10 19 14 -4 -6 -10 11 12 17 23 -1 24 -13 -2 -15 29 21 -17 -22 -8 -7 -26 -27 -21 -29 -3
right_child=2 5 3 -5 8 15 13 -9 9 -11 -12 16 -14 18 -16 20 -18 -19 -20 27 22 -23 -24 -25 25 26 -28 28 -30 -31
leaf_value=-7.404124877545927 33.16975528717041 9.4323682935056947 78.059254964192718 213.89387786865237 64.307911777496344 18.451799092527295 -2.9583907775053495 126.69617207845052 119.46961192255435 81.132654472019368 73.523095879187949 29.505610729666319 69.599647112590517 4.0727522240013911 -5.237810636731937 28.075245365113705 51.668523624965125 51.263829604439117 17.157267343430291 12.567054108778636 32.189415638787402 44.060025823683965 49.503200569152831 0.21346468156840742 19.457229984374276 46.599946721394858 25.113793165206911 30.830412384033202 15.662285733222962 16.934348382620978
leaf_weight=2997 20 140 21 20 32 61 860 36 23 23 26 34 41 145 3300 131 21 46 21 36 28 21 20 459 42 21 25 25 24 58
leaf_count=2997 20 140 21 20 32 61 860 36 23 23 26 34 41 145 3300 131 21 46 21 36 28 21 20 459 42 21 25 25 24 58
internal_value=3.90629e-08 -3.21189 78.7896 136.08 62.2055 22.0656 -5.26475 108.777 85.5347 100.301 52.5263 49.1565 54.9076 -1.00699 -6.26885 28.7785 37.9678 45.7808 5.72802 13.7873 32.4724 30.2837 39.4035 -1.85461 23.8202 27.5414 34.9227 18.8126 23.4011 11.6299
internal_weight=8757 8414 343 77 266 632 7782 57 78 46 188 162 107 1485 6297 349 55 66 166 283 200 152 48 1319 149 88 46 85 49 198
internal_count=8757 8414 343 77 266 632 7782 57 78 46 188 162 107 1485 6297 349 55 66 166 283 200 152 48 1319 149 88 46 85 49 198
is_linear=0
shrinkage=0.05


Tree=30
num_leaves=31
num_cat=0
split_feature=21 20 20 21 21 13 21 11 10 21 15 8 20 22 20 21 21 21 8 21 8 13 0 0 18 25 22 19 17 16
split_gain=8.00397e+08 1.51997e+08 1.11434e+08 5.9056e+07 3.44341e+07 1.13263e+07 1.07107e+07 9.01933e+06 9.50889e+06 8.84615e+06 8.36965e+06 4.2562e+06 3.08547e+06 2.96467e+06 2.61203e+06 2.72115e+06 2.19544e+06 1.99011e+06 1.72988e+06 1.63119e+06 1.5e+06 1.40451e+06 1.24167e+06 1.17716e+06 1.13837e+06 1.46956e+06 1.09898e+06 868465 978795 1.08813e+06
threshold=561.64285714285722 1571.0000000000002 243.50000000000003 1919.6428571428573 909.71428571428589 5.285000000000001 108.92857142857144 15.950000000000001 13.550000000000002 416.35714285714295 5.705000000000001 28.750000000000004 162.83333333333334 551.39285714285722 491.16666666666669 688.14285714285722 1101.8571428571431 77.214285714285737 15.350000000000003 327.35714285714295 2.7500000000000004 4.5950000000000006 32.150000000000013 41.750000000000007 153.35000000000005 -0.62588817255938378 779.53571428571433 579.45000000000016 103.80000000000005 99.950000000000017
decision_type=2 2 2 2 2 2 2 2 2 2 2 2 2 2 2 2 2 2 2 2 2 2 2 2 2 2 2 2 2 2
left_child=2 4 6 5 11 -3 17 8 -6 19 -9 14 -8 -13 -2 -16 -12 -1 26 -4 -11 -14 -23 24 -22 -26 -17 -21 -29 -30
right_child=1 3 9 -5 7 -7 12 10 -10 20 16 13 21 -15 15 18 -18 -19 -20 27 23 22 -24 -25 25 -27 -28 28 29 -31
leaf_value=-7.7522976783460553 23.132524292171002 74.156292506626684 8.6914734853490909 203.19918411254883 77.686718858991355 120.36136288113065 -2.9279615953114742 102.95685333251954 37.788222360610966 14.208609212678056 59.137754943847654 39.678573652108511 0.38155204277573412 63.830716790093312 32.15604986084832 59.618035125732426 79.523157501220709 -5.633815785457962 34.479713353243739 12.352424114400691 35.573433486275057 4.3524417272823701 18.524874234199526 37.565730212983631 18.51188026478416 27.755841592345575 44.295454742431644 13.736082714482359 32.859054456438336 16.763151349056336
leaf_weight=1516 32 21 157 20 28 36 1714 30 32 29 25 24 297 27 72 22 28 4125 22 88 23 68 20 21 76 99 25 38 21 21
leaf_count=1516 32 21 157 20 28 36 1714 30 32 29 25 24 297 27 72 22 28 4125 22 88 23 68 20 21 76 99 25 38 21 21
internal_value=-4.99901e-08 65.4082 -3.49347 129.276 52.0081 103.338 -5.06857 71.1766 56.4075 17.7827 81.853 39.7711 -2.01941 52.465 36.029 38.9558 69.9074 -6.20315 46.0513 12.3557 24.8946 2.02541 7.57345 26.3096 25.1158 23.7413 51.4677 15.7801 19.5505 24.8111
internal_weight=8757 444 8313 77 367 57 7740 143 60 573 83 224 2099 51 173 141 53 5641 69 325 248 385 88 219 198 175 47 168 80 42
internal_count=8757 444 8313 77 367 57 7740 143 60 573 83 224 2099 51 173 141 53 5641 69 325 248 385 88 219 198 175 47 168 80 42
is_linear=0
shrinkage=0.05


Tree=31
num_leaves=31
num_cat=0
split_feature=21 21 21 20 21 20 20 8 12 2 14 14 15 4 21 21 12 0 0 22 16 6 8 20 18 19 13 13 25 4
split_gain=7.22597e+08 1.23941e+08 1.2038e+08 3.32387e+07 2.68043e+07 1.02588e+07 9.59951e+06 7.13494e+06 6.56955e+06 5.32583e+06 4.88916e+06 4.74763e+06 3.62449e+06 3.58948e+06 2.85324e+06 2.57963e+06 2.38337e+06 2.20568e+06 2.67556e+06 1.97852e+06 1.44517e+06 1.38377e+06 1.31082e+06 1.15533e+06 1.12477e+06 1.41884e+06 2.39243e+06 1.07068e+06 890073 876906
threshold=599.28571428571433 1522.214285714286 238.35714285714286 1980.3333333333337 1047.8571428571429 351.50000000000006 110.16666666666667 17.650000000000002 5.495000000000001 0.32500000000000023 6.6950000000000012 5.3150000000000004 5.8550000000000013 650.00000000000011 500.9285714285715 157.35714285714286 5.4650000000000007 17.650000000000002 34.650000000000013 81.464285714285737 37.650000000000013 7.0000000000000009 8.9500000000000011 235.66666666666671 155.25000000000003 650.55000000000007 5.1850000000000014 5.3150000000000004 -0.67803021058859214 544.50000000000011
decision_type=2 2 2 2 2 2 2 2 2 2 2 2 2 2 2 2 2 2 2 2 2 2 2 2 2 2 2 2 2 2
left_child=2 4 6 7 9 23 19 -3 -6 12 11 -10 16 -11 24 -8 20 -15 -19 -1 -2 -16 -14 -4 -7 28 -27 -25 -26 -29
right_child=1 3 5 -5 8 14 15 -9 10 13 -12 -13 22 17 21 -17 -18 18 -20 -21 -22 -23 -24 27 25 26 -28 29 -30 -31
leaf_value=-7.1217226426898677 44.265031069800969 83.263120387150707 3.61086967143358 172.12865673828128 52.426290583610538 31.110142707824707 -2.6925293560336034 122.44793395996095 77.618505750383648 37.788866273094627 62.990466863458813 108.65716427889738 36.611035858392718 67.603076959425408 37.010691532335784 1.817668693060454 13.920487170219424 38.802319971720379 62.942448286576706 -5.1733974753801002 26.472881271362304 25.875868446713401 53.370816258021762 10.142276873933264 11.145788670380911 37.668223592509399 17.988206003574614 11.700894266908819 19.340689815701666 25.66385930932087
leaf_weight=1965 21 26 51 25 24 20 1500 21 28 34 22 22 20 31 38 402 20 24 22 3868 25 105 28 166 60 23 47 22 74 23
leaf_count=1965 21 26 51 25 24 20 1500 21 28 34 22 22 20 31 38 402 20 24 22 3868 25 105 28 166 60 23 47 22 74 23
internal_value=2.03733e-08 66.26 -3.11336 125.548 52.9617 17.9218 -4.82391 100.771 75.0812 43.524 82.6329 91.2755 35.9333 51.3199 23.317 -1.73927 28.3303 57.2946 50.3476 -5.82974 34.5954 28.8348 46.3876 10.3644 19.7945 18.6852 24.4545 11.9967 15.6713 18.8375
internal_weight=8757 393 8364 72 321 629 7735 47 96 225 72 50 114 111 367 1902 66 77 46 5833 46 143 48 262 224 204 70 211 134 45
internal_count=8757 393 8364 72 321 629 7735 47 96 225 72 50 114 111 367 1902 66 77 46 5833 46 143 48 262 224 204 70 211 134 45
is_linear=0
shrinkage=0.05


Tree=32
num_leaves=31
num_cat=0
split_feature=21 20 21 3 21 21 20 8 8 21 22 9 9 0 20 20 23 0 24 23 13 8 7 19 17 0 9 20 21 21
split_gain=6.52212e+08 1.28409e+08 9.73828e+07 3.12062e+07 1.84084e+07 1.03882e+07 1.00943e+07 5.68145e+06 4.85908e+06 3.26922e+06 2.84269e+06 2.70845e+06 2.67238e+06 2.32593e+06 2.11108e+06 1.94935e+06 1.81293e+06 1.73701e+06 1.57495e+06 2.68542e+06 2.61365e+06 1.36141e+06 1.21233e+06 1.20468e+06 1.83982e+06 1.12363e+06 1.03067e+06 1.00467e+06 983492 885873
threshold=648.21428571428589 260.50000000000006 1522.214285714286 4.7500000000000009 1101.8571428571431 416.35714285714295 128.83333333333334 29.150000000000002 7.3500000000000005 849.00000000000011 93.678571428571431 19.650000000000002 7.7500000000000009 5.5500000000000007 199.16666666666671 416.33333333333343 785.25000000000011 13.250000000000002 -0.65499999999999992 750.90000000000009 4.3950000000000005 14.950000000000001 18.500000000000004 596.00000000000011 146.20000000000002 27.650000000000002 17.650000000000002 641.33333333333337 65.500000000000014 983.78571428571433
decision_type=2 2 2 2 2 2 2 2 2 2 2 2 2 2 2 2 2 2 2 2 2 2 2 2 2 2 2 2 2 2
left_child=1 6 4 -4 7 26 10 9 -6 13 28 -9 -11 -2 23 -7 -10 -15 22 20 -20 25 -17 -8 -25 -22 -3 -23 -1 -14
right_child=2 5 3 -5 8 15 14 11 16 12 -12 -13 29 17 -16 18 -18 -19 19 -21 21 27 -24 24 -26 -27 -28 -29 -30 -31
leaf_value=-8.1343789402266093 19.283173694610596 9.7235847994064297 153.11544577462334 87.255415797877959 56.556981161366345 18.446480594510618 -1.475707673448964 50.418660295926607 95.996092681884761 32.826546249389651 -4.1015391361251501 74.561194283621646 48.36084570115613 50.500854782831105 4.9379427338231885 16.011376136414551 76.428154070623989 32.211312033148374 12.310631796717644 46.938008155822757 30.114930216471357 21.848716745277247 27.854381484985353 18.250505038499835 -1.2007075986554545 46.161663894653323 16.183860563511377 33.082566895204437 -5.8372120704738855 60.875692514272842
leaf_weight=547 20 192 35 37 23 92 885 26 20 20 2980 21 31 21 175 47 29 34 24 20 24 48 40 20 31 20 91 34 3144 26
leaf_count=547 20 192 35 37 23 92 885 26 20 20 2980 21 31 21 175 47 29 34 24 20 24 48 40 20 31 20 91 34 3144 26
internal_value=-1.67702e-08 -2.75507 67.5836 119.271 53.8512 18.9196 -4.51534 46.0127 75.516 41.3148 -5.25023 61.2057 48.5518 33.8849 -0.102676 24.6921 84.4151 39.1946 26.9279 29.728 27.4333 30.3138 21.4564 -1.0451 6.42722 37.4089 11.8009 26.5067 -6.17765 54.0694
internal_weight=8757 8414 343 72 271 632 7782 199 72 152 6671 47 77 75 1111 349 49 55 257 170 150 126 87 936 51 44 283 82 3691 57
internal_count=8757 8414 343 72 271 632 7782 199 72 152 6671 47 77 75 1111 349 49 55 257 170 150 126 87 936 51 44 283 82 3691 57
is_linear=0
shrinkage=0.05


Tree=33
num_leaves=31
num_cat=0
split_feature=21 20 21 21 21 13 20 22 11 9 21 9 21 21 9 24 20 10 25 1 19 17 10 6 12 18 19 13 21 0
split_gain=5.88724e+08 1.03596e+08 9.8365e+07 4.85832e+07 2.01774e+07 8.87721e+06 8.42589e+06 7.97865e+06 7.86715e+06 6.29065e+06 5.15043e+06 4.73386e+06 2.35594e+06 2.25912e+06 2.11569e+06 1.94829e+06 1.40044e+06 1.30343e+06 1.66624e+06 1.31461e+06 1.27166e+06 1.46413e+06 1.25728e+06 1.25104e+06 1.1389e+06 1.0078e+06 1.20385e+06 2.17967e+06 963203 886841
threshold=599.28571428571433 1571.0000000000002 238.35714285714286 1919.6428571428573 1101.8571428571431 5.285000000000001 351.50000000000006 105.60714285714288 15.950000000000001 13.550000000000002 796.57142857142867 5.5500000000000007 146.50000000000003 500.9285714285715 35.050000000000004 0.55500000000000027 69.833333333333357 32.600000000000009 -0.52766804058324157 4.7950000000000008 596.00000000000011 144.35000000000008 24.350000000000005 7.0000000000000009 5.495000000000001 155.25000000000003 650.55000000000007 5.1850000000000014 335.9285714285715 11.250000000000002
decision_type=2 2 2 2 2 2 2 2 2 2 2 2 2 2 2 2 2 2 2 2 2 2 2 2 2 2 2 2 2 2
left_child=2 4 7 5 10 -3 28 16 -6 -10 14 -12 -9 25 17 22 -1 18 19 -2 -14 -22 24 -15 -13 -8 -27 -28 -4 -30
right_child=1 3 6 -5 8 -7 13 12 9 -11 11 15 20 23 -16 -17 -18 -19 -20 -21 21 -23 -24 -25 -26 26 27 -29 29 -31
leaf_value=-7.3993344143817303 38.060304679870605 62.451767294747498 6.7560439227827338 178.86152969360353 50.167150950431825 103.35756242540147 28.670688819885257 -2.8289801447942051 100.94009392779807 63.959935078413594 26.218758119855607 34.946504662253645 0.036588223595386264 33.777698617232474 47.814094772338869 63.52883796691895 -5.0842113334380272 19.551808100161345 42.918929631369458 21.905186653137207 18.745271919667722 2.3085210385776702 58.110180435180666 23.190367034730457 51.035018296675247 14.133411083292607 34.836288609712021 16.051722696994215 15.86104610709401 6.1655595765394331
leaf_weight=760 20 21 151 20 32 36 20 1742 23 23 21 22 522 38 20 28 4649 23 28 34 20 42 20 105 22 134 23 47 77 34
leaf_count=760 20 21 151 20 32 36 20 1742 23 23 21 22 522 38 20 28 4649 23 28 34 20 42 20 105 22 134 23 47 77 34
internal_value=-2.32919e-09 59.8079 -2.8102 111.813 47.1359 88.287 16.2044 -4.35645 69.2058 82.45 39.9029 47.6389 -1.90762 21.094 32.9095 52.5283 -5.4095 30.0705 33.0209 27.8886 0.840689 7.6107 47.7156 26.0038 42.9908 17.9596 16.9095 22.2238 9.35531 12.8913
internal_weight=8757 393 8364 77 316 57 629 7735 78 46 238 113 2326 367 125 92 5409 105 82 54 584 62 64 143 44 224 204 70 262 111
internal_count=8757 393 8364 77 316 57 629 7735 78 46 238 113 2326 367 125 92 5409 105 82 54 584 62 64 143 44 224 204 70 262 111
is_linear=0
shrinkage=0.05


Tree=34
num_leaves=31
num_cat=0
split_feature=21 21 20 22 21 20 8 24 25 21 9 4 1 20 20 20 24 15 0 2 7 14 26 9 7 25 19 5 15 21
split_gain=5.31529e+08 1.04863e+08 8.11804e+07 4.44108e+07 1.40208e+07 9.87162e+06 7.92463e+06 6.35872e+06 6.3503e+06 5.74722e+06 4.06117e+06 3.16731e+06 3.8448e+06 2.46066e+06 2.33589e+06 1.87885e+06 1.77567e+06 2.21074e+06 1.59099e+06 1.42855e+06 2.77574e+06 1.76635e+06 1.46824e+06 1.27805e+06 1.16486e+06 1.15628e+06 1.03456e+06 2.83636e+06 885559 723367
threshold=648.21428571428589 299.4285714285715 1571.0000000000002 1471.714285714286 1101.8571428571431 130.83333333333334 9.8500000000000032 1.9000000000000004 -0.67803021058859214 437.35714285714295 41.750000000000007 650.00000000000011 5.0550000000000006 88.833333333333357 211.50000000000003 1082.8333333333335 -0.65499999999999992 5.9150000000000009 18.450000000000003 0.17499999999999982 14.500000000000002 4.5950000000000006 -0.88620506325989179 8.2500000000000018 18.500000000000004 -0.75015329512557194 596.00000000000011 0.6100000000000001 4.2650000000000006 100.21428571428574
decision_type=2 2 2 2 2 2 2 2 2 2 2 2 2 2 2 2 2 2 2 2 2 2 2 2 2 2 2 2 2 2
left_child=1 5 4 7 10 13 -6 -4 -8 25 11 -2 23 -1 26 18 24 19 -14 20 -18 -22 28 -13 -11 -3 -7 -28 -21 -15
right_child=2 9 3 -5 6 14 8 -9 -10 16 -12 12 15 29 -16 -17 17 -19 -20 22 21 -23 -24 -25 -26 -27 27 -29 -30 -31
leaf_value=-5.8346246083605138 24.268137664794921 9.4828990869557686 93.290545555853086 159.40456496018632 47.134824787486686 -1.1016605894065257 100.39312271118165 57.129245605468753 62.593413421630864 13.911584927330555 58.873495189960181 20.955377938633873 50.802143582430752 -4.5640008709886057 5.4343261882028679 61.366295776367195 6.145294455824228 37.28276444603415 34.080066650390627 26.65446084121178 36.613324987320674 17.278648097426803 18.137397568042463 37.272883033752443 24.416476240612212 15.969321953658516 21.006493300795555 -2.4778508305549622 39.495689834594728 -3.191997570727942
leaf_weight=2873 35 134 31 26 33 871 20 20 25 71 26 21 33 1987 188 20 29 34 25 29 21 27 26 28 42 141 20 36 25 1860
leaf_count=2873 35 134 31 26 33 871 20 20 25 71 26 21 33 1987 188 20 29 34 25 29 21 27 26 28 42 141 20 36 25 1860
internal_value=-1.41754e-08 -2.48715 61.0112 106.222 47.9239 -4.00455 65.7455 79.1096 79.3933 18.0462 40.5298 37.5857 41.2559 -4.72748 0.352497 48.1513 22.7842 25.7234 43.5944 23.2201 18.3587 25.7376 27.8993 30.2797 17.8161 12.8087 -0.678122 5.90941 32.5995 -3.90065
internal_weight=8757 8414 343 77 266 7835 78 51 45 579 188 162 127 6720 1115 78 304 191 58 157 77 48 80 49 113 275 927 56 54 3847
internal_count=8757 8414 343 77 266 7835 78 51 45 579 188 162 127 6720 1115 78 304 191 58 157 77 48 80 49 113 275 927 56 54 3847
is_linear=0
shrinkage=0.05


Tree=35
num_leaves=31
num_cat=0
split_feature=21 20 20 22 21 21 8 6 21 13 9 10 0 20 21 5 14 0 11 0 9 21 9 10 25 8 21 6 8 14
split_gain=4.79705e+08 9.48165e+07 7.43206e+07 4.9668e+07 1.92331e+07 8.59934e+06 6.30359e+06 7.19622e+06 6.07836e+06 5.22961e+06 3.68855e+06 2.88078e+06 2.5874e+06 2.21847e+06 2.16308e+06 1.99004e+06 2.08735e+06 1.63693e+06 4.27291e+06 1.39861e+06 1.24707e+06 1.22071e+06 1.14657e+06 1.04595e+06 811867 915923 802291 787710 893190 840858
